64 1 
0.07381915301084518400 0.02108221128582954400 0.06585606932640075700 -0.03254041820764541600 -0.03812718391418457000 -0.05643678829073905900 0.00614317413419485090 -0.10997290164232254000 0.04060623794794082600 0.03025971539318561600 -0.00052234710892662406 -0.06616109609603881800 -0.00007725814066361636 0.00199474068358540530 0.03852036222815513600 0.06973227113485336300 0.05606129020452499400 -0.00970334094017744060 0.02429558895528316500 -0.00010604220005916432 -0.00488355522975325580 0.01070438232272863400 0.00447221007198095320 -0.04671752825379371600 0.00010417639714432880 -0.00008714156138012186 0.03372602164745330800 0.00963399279862642290 -0.00413000676780939100 -0.08456318825483322100 -0.02390819229185581200 -0.00490178447216749190 0.01543310564011335400 -0.03996988758444786100 0.13384750485420227000 -0.00011373858433216810 -0.03575084730982780500 -0.22658541798591614000 -0.00018806950538419187 0.01649368368089199100 0.00008230376988649368 -0.02221065387129783600 0.00178521766792982820 -0.02004054933786392200 0.01452231407165527300 0.76583254337310791000 -0.00008701239858055487 -0.00012447977496776730 0.01756720803678035700 -0.09758929163217544600 -0.00246040616184473040 -0.07651015371084213300 0.00171979935839772220 -0.18286907672882080000 0.03172382339835166900 -0.23328031599521637000 0.03314657881855964700 -0.03120191581547260300 0.02554405108094215400 0.05445372685790062000 0.03471997380256652800 0.08520177006721496600 0.09348145872354507400 0.00068541395012289286 