81 64 
-0.27775150537490845000 -0.33619627356529236000 -0.15289577841758728000 -0.10981486737728119000 -0.13142591714859009000 -0.08646152168512344400 -0.09657290577888488800 -0.06883483380079269400 -0.04106414690613746600 -0.53687137365341187000 -0.35547327995300293000 -0.01343476399779319800 0.08339240401983261100 0.08698515594005584700 0.12033564597368240000 0.04421684890985488900 0.01111660338938236200 0.06878431141376495400 -0.44371497631072998000 -0.15496021509170532000 0.27056154608726501000 0.37409570813179016000 0.32447174191474915000 0.25602832436561584000 0.05555281788110733000 -0.03488674387335777300 0.09772559255361557000 -0.33147799968719482000 -0.03528302162885665900 0.38080787658691406000 0.42948740720748901000 0.29402548074722290000 0.13452720642089844000 -0.11825443804264069000 -0.18451809883117676000 0.06578434258699417100 -0.25211194157600403000 0.04457026347517967200 0.40660497546195984000 0.36705407500267029000 0.17771373689174652000 0.00550742540508508680 -0.20415061712265015000 -0.21341627836227417000 0.07541237771511077900 -0.15464591979980469000 0.13068099319934845000 0.38034740090370178000 0.24369822442531586000 0.04040600359439849900 -0.05256922543048858600 -0.15378302335739136000 -0.10823085159063339000 0.10389774292707443000 -0.13927951455116272000 0.08390243351459503200 0.17963719367980957000 -0.03784384950995445300 -0.19637666642665863000 -0.16832849383354187000 -0.12357842177152634000 -0.02018169499933719600 0.09210757911205291700 -0.11690021306276321000 0.04844427481293678300 0.04749085754156112700 -0.17337752878665924000 -0.26442477107048035000 -0.15037284791469574000 -0.02197991870343685200 0.10235279053449631000 0.10225119441747665000 -0.11439686268568039000 0.08804623782634735100 0.13317687809467316000 0.02168123051524162300 -0.01157305575907230400 0.05090205743908882100 0.08958382159471511800 0.11398629844188690000 -0.06668648868799209600 0.11178741604089737000 0.07228656858205795300 0.02379871346056461300 -0.01644730381667614000 -0.04220659285783767700 -0.04763071984052658100 -0.04378584772348403900 -0.03897901251912117000 -0.03233424201607704200 0.01184565946459770200 -0.00837159063667058940 -0.02095795422792434700 -0.03886600956320762600 -0.04497499763965606700 -0.03968716040253639200 -0.03302285075187683100 -0.03837269917130470300 -0.05460494756698608400 -0.07967825978994369500 -0.07039699703454971300 -0.03418467193841934200 -0.01254613045603036900 -0.00155960884876549240 0.00335394148714840410 -0.00156919343862682580 -0.03100793994963169100 -0.05455338582396507300 -0.12745402753353119000 -0.09162202477455139200 -0.02057215198874473600 0.02750351838767528500 0.04097730293869972200 0.03138602524995803800 0.00789050664752721790 -0.03256333246827125500 -0.04657901078462600700 -0.11855403333902359000 -0.06598536670207977300 0.02637727931141853300 0.07328125089406967200 0.07179033756256103500 0.04313567653298378000 0.00275868060998618600 -0.04306009784340858500 -0.04043908789753913900 -0.08828759938478469800 -0.01814980991184711500 0.07038700580596923800 0.10286479443311691000 0.07834290713071823100 0.03044483065605163600 -0.01558918412774801300 -0.04344591498374939000 -0.02544250525534153000 -0.07091733068227767900 0.00135382986627519130 0.07120626419782638500 0.08056052029132843000 0.03548332303762435900 -0.01567726768553257000 -0.03902617469429969800 -0.03339168801903724700 0.00721619464457035060 -0.07287050038576126100 -0.01833977177739143400 0.01309332065284252200 0.00153231888543814420 -0.04952363297343254100 -0.08762162923812866200 -0.07262624055147171000 -0.01687525771558284800 0.05243724212050437900 -0.08590022474527359000 -0.06432539224624633800 -0.05164643377065658600 -0.07054417580366134600 -0.10792930424213409000 -0.12714053690433502000 -0.07779462635517120400 0.00943871587514877320 0.09804080426692962600 0.11575722694396973000 0.12005677819252014000 0.06397554278373718300 -0.01567821949720382700 -0.03385442867875099200 -0.01093563064932823200 -0.00031460585887543857 -0.02602962218225002300 -0.16826465725898743000 0.06818133592605590800 0.05603307485580444300 0.00565483048558235170 -0.05478453636169433600 -0.04253696650266647300 -0.00642779655754566190 0.00237948750145733360 0.00252322945743799210 -0.08100046962499618500 0.03942550718784332300 0.00732940388843417170 -0.00408598361536860470 -0.03204168379306793200 0.00533488718792796130 0.04386575147509574900 0.04491532221436500500 0.04828571155667305000 0.01379851996898651100 0.04600600898265838600 0.00318873021751642230 0.01011336501687765100 -0.01603980921208858500 0.01324554532766342200 0.04317906126379966700 0.03455158323049545300 0.03483401611447334300 0.01346766110509634000 0.07786410301923751800 0.04155050218105316200 0.05934796109795570400 0.01924788765609264400 0.03325658664107322700 0.06497784703969955400 0.05363568663597106900 0.03960322216153144800 0.00518924929201602940 0.07018911838531494100 0.04812398180365562400 0.06048137694597244300 0.01235953159630298600 0.02503436990082263900 0.06569101661443710300 0.06610918045043945300 0.04692342132329940800 -0.00380621501244604590 0.05183297768235206600 0.04096402227878570600 0.04090971872210502600 -0.01127022877335548400 -0.00358662591315805910 0.03784524649381637600 0.04268316179513931300 0.02497138082981109600 -0.02667794749140739400 0.05210798233747482300 0.03854149207472801200 0.03319838643074035600 -0.01485502533614635500 -0.02254497818648815200 -0.01065078563988208800 -0.01568692922592163100 -0.03245107829570770300 -0.07949241250753402700 0.01813970319926738700 -0.02700911834836006200 -0.00812064390629529950 -0.00597472302615642550 -0.00829551089555025100 -0.01669308170676231400 -0.02712883614003658300 -0.03209162876009941100 -0.09020777046680450400 -0.00924894772469997410 0.04719537869095802300 0.10545193403959274000 0.14422757923603058000 0.12301122397184372000 0.09150975942611694300 0.11551267653703690000 0.19978035986423492000 0.18675206601619720000 0.02359366603195667300 0.03913080692291259800 0.05841456726193428000 0.05217703431844711300 -0.01428035367280244800 -0.08001828938722610500 -0.06995959579944610600 0.02551496401429176300 0.04806051030755043000 0.04350244253873825100 0.02150957100093364700 0.02993378974497318300 0.01978637464344501500 -0.05636712163686752300 -0.14122904837131500000 -0.14384770393371582000 -0.03421213105320930500 0.02541891671717166900 0.12256402522325516000 0.06356788426637649500 0.07519743591547012300 0.07857400923967361500 -0.00195616716518998150 -0.10363918542861938000 -0.12264649569988251000 -0.00364242237992584710 0.10451118648052216000 0.19850848615169525000 0.09413127601146698000 0.11667720973491669000 0.12744992971420288000 0.03684503585100174000 -0.09516267478466033900 -0.13685722649097443000 -0.01017178501933813100 0.15572211146354675000 0.18496355414390564000 0.04136603698134422300 0.05800067633390426600 0.07620276510715484600 -0.02041767351329326600 -0.17856572568416595000 -0.24502165615558624000 -0.11287873238325119000 0.11991244554519653000 0.12593446671962738000 -0.05231362581253051800 -0.03197469562292099000 0.00154059613123536110 -0.08910318464040756200 -0.25095587968826294000 -0.32967272400856018000 -0.20130780339241028000 0.08377774804830551100 0.10209053754806519000 -0.10341535508632660000 -0.07854047417640686000 -0.02176433242857456200 -0.08290886133909225500 -0.23115336894989014000 -0.31602448225021362000 -0.19374062120914459000 0.11519476771354675000 0.13796985149383545000 -0.06885167956352233900 -0.03750580176711082500 0.04635682329535484300 0.02018408477306366000 -0.10240138322114944000 -0.18487361073493958000 -0.08363731950521469100 0.20473295450210571000 -0.04256717115640640300 0.00816685613244771960 -0.05743129551410675000 -0.07724349945783615100 -0.03613609448075294500 -0.02500645443797111500 -0.03948794677853584300 0.00206321920268237590 -0.17300559580326080000 0.00777021609246730800 0.08754205703735351600 0.07911966741085052500 0.07504943013191223100 0.08719812333583831800 0.07215041667222976700 0.06789048016071319600 0.17763994634151459000 0.07860048115253448500 -0.08297912776470184300 0.03623752668499946600 0.04998377338051796000 -0.00815150234848260880 -0.07876754552125930800 -0.13875725865364075000 -0.12101386487483978000 0.05483241751790046700 0.00899562425911426540 -0.14388532936573029000 0.05806109309196472200 0.12725071609020233000 0.05476384609937667800 -0.06316706538200378400 -0.14251205325126648000 -0.12493280321359634000 0.04149271920323371900 -0.04213824123144149800 -0.19825257360935211000 0.05528240650892257700 0.17593240737915039000 0.13247075676918030000 0.02891160920262336700 -0.05250039324164390600 -0.06324966251850128200 0.04378848522901535000 -0.10569275170564651000 -0.18366488814353943000 0.08927395194768905600 0.23784035444259644000 0.24770061671733856000 0.18844215571880341000 0.11077751219272614000 0.05584265664219856300 0.09268422424793243400 -0.08398850262165069600 -0.16533184051513672000 0.10518246144056320000 0.24975441396236420000 0.29089981317520142000 0.26894605159759521000 0.20637871325016022000 0.14127211272716522000 0.15965881943702698000 0.02050189673900604200 -0.20384839177131653000 0.02312397398054599800 0.11457659304141998000 0.12784339487552643000 0.10438412427902222000 0.06575587391853332500 0.04685768857598304700 0.12666220963001251000 0.06366655230522155800 -0.23641344904899597000 -0.13676944375038147000 -0.13932254910469055000 -0.19871157407760620000 -0.26957607269287109000 -0.29503223299980164000 -0.23650434613227844000 -0.08361128717660903900 -0.07057408988475799600 0.20278403162956238000 0.01589027047157287600 -0.14821058511734009000 -0.21210773289203644000 -0.19833438098430634000 -0.20509757101535797000 -0.12396416068077087000 0.03567092120647430400 0.10511155426502228000 0.06595048308372497600 0.03260076791048049900 0.01074655819684267000 -0.00778608489781618120 0.02107675001025199900 0.04198320209980011000 0.10769686847925186000 0.12760648131370544000 -0.02775783650577068300 -0.04047821834683418300 0.02142906561493873600 0.11125699430704117000 0.09798950701951980600 0.08910413086414337200 0.11166140437126160000 0.17364798486232758000 0.10729651153087616000 -0.15051147341728210000 -0.09588445723056793200 -0.00233188178390264510 0.12053083628416061000 0.06918043643236160300 0.01646022126078605700 0.04403735697269439700 0.13950604200363159000 0.06815124303102493300 -0.17702567577362061000 -0.11807841807603836000 -0.01495172828435897800 0.11115446686744690000 0.04492280632257461500 -0.02689897269010543800 0.00873104110360145570 0.10060053318738937000 0.02484231255948543500 -0.18426579236984253000 -0.17024566233158112000 -0.02823356911540031400 0.11103217303752899000 0.07613188773393631000 0.04102215915918350200 0.07366520166397094700 0.12907312810420990000 0.01975630968809127800 -0.19285692274570465000 -0.13345710933208466000 0.02933621034026145900 0.13429751992225647000 0.12033960968255997000 0.11165080219507217000 0.13697090744972229000 0.17701397836208344000 0.07605800032615661600 -0.12176896631717682000 0.02274094521999359100 0.07375271618366241500 0.03149922192096710200 -0.04563157260417938200 -0.07439876347780227700 -0.05231774970889091500 0.03502383828163147000 0.05612447485327720600 -0.02430772036314010600 0.23605343699455261000 0.06895624846220016500 -0.10714378952980042000 -0.21584419906139374000 -0.23196050524711609000 -0.18888044357299805000 -0.03517421707510948200 0.13040924072265625000 0.19653399288654327000 -0.03972531110048294100 -0.07085850089788436900 0.05315750837326049800 0.17803463339805603000 0.23151649534702301000 0.23670880496501923000 0.17108920216560364000 0.03733057528734207200 -0.10841137170791626000 -0.07836814224720001200 -0.15330643951892853000 -0.09303179383277893100 -0.01859699934720993000 0.01432585623115301100 0.03115500696003437000 0.01519040763378143300 -0.03419550508260726900 -0.08791019022464752200 -0.07414688169956207300 -0.15649215877056122000 -0.14468090236186981000 -0.11331521719694138000 -0.10380139201879501000 -0.08300613611936569200 -0.06039708480238914500 -0.04591159522533416700 -0.04054710268974304200 -0.03058564290404319800 -0.09828969091176986700 -0.11469503492116928000 -0.12335867434740067000 -0.14008636772632599000 -0.12234106659889221000 -0.07970516383647918700 -0.02239259891211986500 0.01819661445915699000 0.00539642898365855220 -0.02667787112295627600 -0.05920571088790893600 -0.09705187380313873300 -0.13459266722202301000 -0.12710401415824890000 -0.07706286758184433000 -0.00046746156294830143 0.05104370415210723900 0.01484328228980302800 0.02824821695685386700 -0.00672905985265970230 -0.05826075747609138500 -0.10996776819229126000 -0.10783264786005020000 -0.06168568134307861300 0.00836263317614793780 0.04399910941720008900 0.02488742209970951100 0.08593212068080902100 0.06142086163163185100 -0.00265100249089300630 -0.05621791258454322800 -0.05719331651926040600 -0.02258582599461078600 0.01735719479620456700 -0.00053019420010969043 0.07855278253555297900 0.16811257600784302000 0.14358143508434296000 0.07468079775571823100 0.01849041692912578600 0.02780960500240325900 0.05758963152766227700 0.05524374544620513900 -0.02715710364282131200 0.18001651763916016000 0.27601528167724609000 0.23768508434295654000 0.15038517117500305000 0.10392119735479355000 0.14343705773353577000 0.19003997743129730000 0.16342918574810028000 0.02655389346182346300 0.10280817002058029000 0.01949196122586727100 0.00033020431874319911 0.00533718103542923930 0.01416362076997757000 0.02844185195863246900 0.06479489058256149300 0.10825015604496002000 0.02073864452540874500 0.03674712777137756300 -0.00658924132585525510 0.01686772517859935800 0.03649487718939781200 0.03415925800800323500 0.04164799302816391000 0.07732726633548736600 0.10631442070007324000 -0.04722294956445694000 0.00746651180088520050 -0.00955434702336788180 0.04309102520346641500 0.06039435043931007400 0.03826196119189262400 0.03478143364191055300 0.07256779819726944000 0.08294583112001419100 -0.10678465664386749000 -0.03210043534636497500 -0.03085354901850223500 0.02049489878118038200 0.01274217851459980000 -0.03083253465592861200 -0.02959574200212955500 0.01946317031979560900 0.02307899855077266700 -0.18776918947696686000 -0.06930012255907058700 -0.04268610849976539600 0.00280194403603672980 -0.02773757092654705000 -0.08358141779899597200 -0.07586350291967392000 -0.01578652113676071200 -0.00803765933960676190 -0.22734001278877258000 -0.10297943651676178000 -0.02731293253600597400 0.01561811100691556900 -0.02046645618975162500 -0.07400424033403396600 -0.07056203484535217300 -0.01408600527793169000 -0.00221489998511970040 -0.21625334024429321000 -0.08334619551897049000 0.04302638024091720600 0.08615555614233017000 0.05573063716292381300 0.00163729174528270960 -0.00640691304579377170 0.03763284906744957000 0.06209152191877365100 -0.12226571142673492000 -0.01592837274074554400 0.11933458596467972000 0.13976742327213287000 0.09954596310853958100 0.04347955435514450100 0.02796627581119537400 0.08492473512887954700 0.15573270618915558000 0.03367194533348083500 0.00947196595370769500 0.06110573932528495800 0.01225971058011055000 -0.05183675512671470600 -0.09333932399749755900 -0.07877201586961746200 0.02704874426126480100 0.18232730031013489000 0.17096652090549469000 0.16908028721809387000 -0.14216539263725281000 -0.14226426184177399000 -0.15739846229553223000 -0.17536973953247070000 -0.07246773689985275300 0.02271506749093532600 -0.07702878862619400000 0.10349433124065399000 0.27917066216468811000 0.06020104512572288500 0.15156662464141846000 0.18383289873600006000 0.16035267710685730000 0.21285615861415863000 0.22536920011043549000 0.03194759786128997800 0.14254492521286011000 -0.04542765393853187600 -0.18716080486774445000 -0.02598350495100021400 0.03967608511447906500 0.02617090940475463900 0.05921631678938865700 0.01762214675545692400 -0.24056471884250641000 -0.20517177879810333000 -0.29350140690803528000 -0.30019700527191162000 -0.06058297306299209600 0.04487089067697525000 0.05658308044075965900 0.09317305684089660600 0.03685609996318817100 -0.26887679100036621000 -0.34430193901062012000 -0.15603597462177277000 -0.04785221815109252900 0.22919398546218872000 0.33982786536216736000 0.35632210969924927000 0.40041992068290710000 0.36135289072990417000 0.07205728441476821900 -0.06518638879060745200 0.08231584727764129600 0.16302470862865448000 0.34771633148193359000 0.36965045332908630000 0.32206371426582336000 0.34548267722129822000 0.36629745364189148000 0.22395811975002289000 0.18356867134571075000 0.01815449260175228100 0.00171749596484005450 0.00563985109329223630 -0.12092515826225281000 -0.26622337102890015000 -0.28351494669914246000 -0.18238866329193115000 -0.09435613453388214100 0.05625069141387939500 -0.05322907865047454800 -0.03762522339820861800 -0.10921624302864075000 -0.30338308215141296000 -0.50043302774429321000 -0.54759430885314941000 -0.40759235620498657000 -0.18615904450416565000 0.02995828539133071900 0.01463463343679904900 0.16261617839336395000 0.07156311720609664900 -0.13215421140193939000 -0.31217432022094727000 -0.34040707349777222000 -0.16119073331356049000 0.12570615112781525000 0.27626624703407288000 0.36455535888671875000 0.29384502768516541000 0.07340356707572937000 -0.13043259084224701000 -0.16195227205753326000 -0.12090075761079788000 -0.09670760482549667400 -0.13558483123779297000 -0.18834654986858368000 0.16980582475662231000 0.12766005098819733000 0.05207662284374237100 -0.03619393333792686500 -0.03903351351618766800 -0.01741937734186649300 -0.00541116297245025630 -0.04287473484873771700 -0.14261302351951599000 -0.17933169007301331000 -0.15980687737464905000 -0.01991685666143894200 0.05849081650376319900 0.10185664147138596000 0.09837118536233902000 0.08162894845008850100 0.04942955076694488500 -0.02254206687211990400 -0.34166651964187622000 -0.28615355491638184000 -0.01068674959242343900 0.16010008752346039000 0.20314152538776398000 0.13069500029087067000 0.06332583725452423100 0.02131664007902145400 0.00100728613324463370 -0.23856507241725922000 -0.18617352843284607000 0.12061640620231628000 0.29591938853263855000 0.28435009717941284000 0.13198688626289368000 0.00430522626265883450 -0.05942544713616371200 -0.05545702576637268100 -0.08496622741222381600 -0.06391272693872451800 0.19602687656879425000 0.31292894482612610000 0.24946263432502747000 0.05442209914326667800 -0.08110003173351287800 -0.11188593506813049000 -0.07856628298759460400 0.00080358079867437482 -0.01786449924111366300 0.14049096405506134000 0.17322872579097748000 0.06495991349220275900 -0.11525742709636688000 -0.16520850360393524000 -0.07009635865688324000 0.03092169202864170100 -0.04186767712235450700 -0.08996504545211792000 -0.00977260246872901920 -0.04538410156965255700 -0.16714519262313843000 -0.29329124093055725000 -0.19961692392826080000 0.05117751285433769200 0.21560522913932800000 -0.09267220646142959600 -0.12766362726688385000 -0.03140104562044143700 -0.04538257420063018800 -0.14115044474601746000 -0.20168116688728333000 -0.02612752094864845300 0.27418819069862366000 0.39022094011306763000 0.01401916891336441000 0.01535042747855186500 0.02088211849331855800 0.02511136233806610100 0.02441688254475593600 0.01910354383289814000 0.01344294566661119500 -0.00168039835989475250 -0.02039920166134834300 0.01787866838276386300 0.01797429285943508100 0.02567610144615173300 0.03039699234068393700 0.02912230603396892500 0.02372567541897296900 0.01592637412250042000 0.00145129882730543610 -0.01566904969513416300 0.01442234031856060000 0.01827565766870975500 0.02588478662073612200 0.02672035060822963700 0.02294233441352844200 0.01805783621966838800 0.01139786560088396100 -0.00002371254959143698 -0.01714859530329704300 0.00946131534874439240 0.01677702739834785500 0.02078376710414886500 0.01762638427317142500 0.01128233317285776100 0.00152576365508139130 -0.00171784264966845510 -0.00748107861727476120 -0.01654063351452350600 0.00295219128020107750 0.01044065784662962000 0.01352494303137064000 0.01113470736891031300 0.00215684506110847000 -0.00715827289968729020 -0.01238595228642225300 -0.01267053280025720600 -0.01506366580724716200 -0.00165091454982757570 0.00417647603899240490 0.00973884202539920810 0.00760835176333785060 -0.00162836152594536540 -0.00951459910720586780 -0.01844106987118721000 -0.01557010598480701400 -0.01799956336617469800 -0.00688212737441062930 0.00117763935122638940 0.00612082984298467640 0.00573678640648722650 -0.00081092072650790215 -0.00987412501126527790 -0.02048129029572010000 -0.02026777341961860700 -0.02256114222109317800 -0.01339806988835334800 -0.00592648657038807870 0.00217457441613078120 0.00412436434999108310 0.00318565033376216890 -0.01012472715228796000 -0.01899366825819015500 -0.02592739276587963100 -0.02860254980623722100 -0.01581971533596515700 -0.00960537791252136230 -0.00001646217606321443 0.00382300326600670810 0.00193941406905651090 -0.00810604821890592580 -0.02269208244979381600 -0.03244772180914878800 -0.03963834047317504900 0.26708623766899109000 0.12519645690917969000 -0.02572239004075527200 -0.14331591129302979000 -0.12119395285844803000 -0.04437595233321189900 -0.01144355908036232000 0.04093803092837333700 0.02296522073447704300 0.24054770171642303000 0.13271799683570862000 0.02426139637827873200 -0.09460308402776718100 -0.08363372087478637700 0.00795882102102041240 0.04680409282445907600 0.05581567808985710100 -0.05718808993697166400 0.15238198637962341000 0.07640902698040008500 0.04522277414798736600 -0.04116256907582283000 -0.02381488122045993800 0.07449478656053543100 0.10593836009502411000 0.05821662023663520800 -0.13579387962818146000 0.03855330124497413600 -0.03830718621611595200 -0.02435340732336044300 -0.08248962461948394800 -0.05532430112361908000 0.05809598043560981800 0.09064437448978424100 0.01923560537397861500 -0.19496025145053864000 -0.00167514570057392120 -0.06970271468162536600 -0.03289643302559852600 -0.06918421387672424300 -0.02926688641309738200 0.08468694984912872300 0.10325887054204941000 0.00877500046044588090 -0.19470086693763733000 -0.00105844694189727310 -0.04035624861717224100 0.01657855138182640100 0.00124937598593533040 0.04722953587770462000 0.14399325847625732000 0.13754560053348541000 0.02308239787817001300 -0.16224969923496246000 0.00038814591243863106 0.00475076492875814440 0.05644372478127479600 0.04166311770677566500 0.07200293987989425700 0.14321649074554443000 0.12939846515655518000 0.03892231732606887800 -0.11447259038686752000 0.01876791939139366100 0.01840073429048061400 0.02801061421632766700 -0.02613146603107452400 -0.03396038711071014400 0.01301565952599048600 0.03172298520803451500 0.01038474589586257900 -0.08531707525253295900 0.03994625806808471700 -0.01514332089573144900 -0.04122676327824592600 -0.09697434306144714400 -0.11277703940868378000 -0.06563463807106018100 -0.00879101175814867020 0.02786272950470447500 -0.03149315342307090800 -0.00046005338663235307 -0.00061143224593251944 0.00011247048678342253 0.00125687534455209970 0.00028503374778665602 0.00074729806510731578 -0.00173762894701212640 -0.00004460302443476394 -0.00039551357622258365 -0.00061469594947993755 -0.00073243747465312481 0.00006827319884905592 0.00022894781432114542 0.00006733844929840416 0.00022476236335933208 -0.00015887232439126819 -0.00083897373406216502 -0.00079753587488085032 -0.00049456226406618953 -0.00146412721369415520 -0.00069717637961730361 -0.00018944164912682027 -0.00033176218857988715 -0.00076317286584526300 -0.00035414160811342299 -0.00093201815616339445 -0.00094913598150014877 -0.00048621016321703792 -0.00029987373272888362 -0.00071484362706542015 -0.00043435135739855468 -0.00070687232073396444 -0.00178978370968252420 0.00149214151315391060 -0.00078254530671983957 -0.00005276537558529526 -0.00013619763194583356 0.00012585130752995610 -0.00022520188940688968 0.00001493852141720709 -0.00005920947296544910 -0.00056452356511726975 -0.00187344371806830170 -0.00149247061926871540 -0.00070412398781627417 0.00113719457294791940 0.00040129965054802597 0.00001249983688467182 -0.00033087874180637300 0.00007353153341682628 -0.00022682330745738000 0.00025146597181446850 -0.00247733620926737790 -0.00104958203155547380 -0.00003294349880889058 -0.00086309708422049880 -0.00017059003585018218 0.00083048327360302210 -0.00126495165750384330 0.00080757029354572296 0.00013619838864542544 -0.00068076886236667633 -0.00067044061142951250 -0.00260226638056337830 0.00035489938454702497 0.00102870271075516940 0.00038707183557562530 -0.00156577909365296360 -0.00094253534916788340 -0.00141149747651070360 -0.00194121466483920810 -0.00113394320942461490 0.00066438672365620732 -0.00025354363606311381 -0.00087165215518325567 0.00068027654197067022 -0.00112264615017920730 0.00049462291644886136 -0.00118608353659510610 -0.00020399136701598763 0.00030587363289669156 -0.17201504111289978000 0.07295687496662139900 0.25992599129676819000 0.34048736095428467000 0.33470305800437927000 0.29760429263114929000 0.24370749294757843000 0.13748338818550110000 -0.06661731004714965800 -0.16058816015720367000 0.00860335584729909900 0.14468736946582794000 0.19638139009475708000 0.18128435313701630000 0.15164501965045929000 0.12089987844228745000 0.05834781378507614100 -0.08557953685522079500 -0.13159221410751343000 -0.03482356294989585900 0.05464982241392135600 0.08649240434169769300 0.07005845755338668800 0.04605009406805038500 0.02748871967196464500 -0.00196830951608717440 -0.08151502162218093900 -0.07687520980834960900 -0.03806923702359199500 0.01045767217874527000 0.02719904668629169500 0.01075527630746364600 -0.00961393769830465320 -0.01649551093578338600 -0.01798084191977977800 -0.03832972049713134800 -0.00148679246194660660 -0.01446988992393016800 0.00376643612980842590 0.00307119777426123620 -0.02257890813052654300 -0.03607830405235290500 -0.03333622217178344700 -0.00646221870556473730 0.02202129550278186800 0.08328714221715927100 0.01774392835795879400 0.00714909657835960390 -0.01805121824145317100 -0.04910703003406524700 -0.05949211120605468800 -0.04081640765070915200 0.01318244636058807400 0.08844190090894699100 0.14188773930072784000 0.01856232807040214500 -0.03317528963088989300 -0.07865159213542938200 -0.11338876932859421000 -0.11173301935195923000 -0.07176420092582702600 0.00833220034837722780 0.13189630210399628000 0.13653932511806488000 -0.04244004562497139000 -0.13353455066680908000 -0.19342035055160522000 -0.21911816298961639000 -0.20226374268531799000 -0.14455875754356384000 -0.04474965110421180700 0.11016524583101273000 0.12726613879203796000 -0.07046407461166381800 -0.18073922395706177000 -0.24748997390270233000 -0.26789262890815735000 -0.23760165274143219000 -0.18500439822673798000 -0.09643634408712387100 0.05552327632904052700 -0.04429027065634727500 -0.07914234697818756100 -0.05187271162867546100 0.03328018635511398300 0.11535619944334030000 0.13608054816722870000 0.08311125636100769000 -0.01544603519141674000 -0.04453414306044578600 0.03354945778846740700 -0.01879248954355716700 -0.01714919134974479700 0.03667333349585533100 0.08505187928676605200 0.07129161059856414800 0.00474843150004744530 -0.08310206234455108600 -0.06839766353368759200 0.08050787448883056600 0.02174983173608779900 0.01824777945876121500 0.04986020922660827600 0.05996769666671752900 0.02460774034261703500 -0.03529123961925506600 -0.08542802929878234900 0.00999459624290466310 0.02034882642328739200 -0.01641554385423660300 -0.01446557044982910200 0.00324499723501503470 -0.00059459178010001779 -0.04378031194210052500 -0.08336181193590164200 -0.08381078392267227200 0.08451381325721740700 -0.10777193307876587000 -0.10836472362279892000 -0.08262849599123001100 -0.06559655815362930300 -0.07921269536018371600 -0.11537721753120422000 -0.13475348055362701000 -0.10243613272905350000 0.10215349495410919000 -0.20201160013675690000 -0.13595964014530182000 -0.07434602081775665300 -0.06431793421506881700 -0.09516684710979461700 -0.14126344025135040000 -0.16110667586326599000 -0.13508079946041107000 0.05288954824209213300 -0.18523769080638885000 -0.03118712827563285800 0.06829832494258880600 0.06435310840606689500 -0.00952069088816642760 -0.08888453245162963900 -0.13220620155334473000 -0.13347990810871124000 0.01491496525704860700 -0.06102953851222991900 0.18065357208251953000 0.31201517581939697000 0.26471805572509766000 0.13125091791152954000 0.01017681602388620400 -0.05501117184758186300 -0.07585191726684570300 0.02857774123549461400 0.04494330659508705100 0.32866117358207703000 0.43383613228797913000 0.32105255126953125000 0.12385258823633194000 -0.02037744782865047500 -0.07006588578224182100 -0.05824593827128410300 0.04992813989520072900 0.05150458216667175300 0.06772616505622863800 0.03597279638051986700 -0.04653441160917282100 -0.09854326397180557300 -0.07158859074115753200 0.02380555681884288800 0.14618656039237976000 0.13453747332096100000 -0.05508310347795486500 0.06346490979194641100 0.11655555665493011000 0.06781020015478134200 0.00427866913378238680 -0.01096773426979780200 0.03190381452441215500 0.09082991629838943500 0.00835625268518924710 -0.20138992369174957000 -0.00647707609459757800 0.12068966776132584000 0.10370811820030212000 0.03448442369699478100 -0.01014207024127244900 0.00058261025696992874 0.02934385649859905200 -0.07842551171779632600 -0.30523061752319336000 -0.08033704757690429700 0.09370810538530349700 0.09197078645229339600 0.00921715702861547470 -0.04870546981692314100 -0.03628769144415855400 0.00501825846731662750 -0.08063404262065887500 -0.37255325913429260000 -0.14062507450580597000 0.05360251665115356400 0.06214547902345657300 -0.01834179647266864800 -0.07313991338014602700 -0.05179164558649063100 0.01501119788736105000 -0.04498926177620887800 -0.39340549707412720000 -0.16600123047828674000 0.02764946408569812800 0.05591740831732749900 -0.00800357293337583540 -0.05525326728820800800 -0.02966490387916564900 0.03238693252205848700 -0.01945436932146549200 -0.31615757942199707000 -0.11550491303205490000 0.05445224791765213000 0.08354737609624862700 0.03697451576590538000 -0.00087635358795523643 0.01576900109648704500 0.06459867209196090700 0.00177129462826997040 -0.13435298204421997000 0.00765809696167707440 0.11075552552938461000 0.09932263940572738600 0.05159783363342285200 0.01728130504488945000 0.03387546166777610800 0.08531236648559570300 0.03159838914871215800 0.04088497906923294100 0.08858007192611694300 0.09434429556131362900 0.02603552863001823400 -0.04530334472656250000 -0.08292452991008758500 -0.05524901673197746300 0.02280510589480400100 0.01450554840266704600 0.12232722342014313000 0.10349240154027939000 0.05306438356637954700 0.02339927293360233300 0.04372082650661468500 0.08159605413675308200 0.12241102010011673000 0.16692949831485748000 0.14966982603073120000 0.07543298602104187000 0.05486635863780975300 0.00335299689322710040 -0.02357766963541507700 -0.00161679321900010110 0.03224933892488479600 0.06309391558170318600 0.10398642718791962000 0.07546386867761611900 0.06193164736032486000 0.02879871800541877700 -0.00379038462415337560 -0.02471815235912799800 -0.00560867227613925930 0.01851145364344120000 0.03561827540397644000 0.06510499119758606000 0.02824590727686882000 0.04888411238789558400 0.00866058655083179470 -0.00994193553924560550 -0.02870088256895542100 -0.01667370647192001300 -0.00001616413646843284 0.01226155366748571400 0.03665312379598617600 0.00267335656099021430 0.03802261874079704300 -0.00093422463396564126 -0.00575496675446629520 -0.02207511849701404600 -0.01341985166072845500 -0.00182080001104623080 0.00335939903743565080 0.02019073627889156300 -0.01010747440159320800 0.00572141865268349650 -0.01933811046183109300 -0.00885168369859457020 -0.02090989798307418800 -0.01692291349172592200 -0.00850460864603519440 -0.01177490130066871600 -0.00912159960716962810 -0.03491877391934394800 -0.04677860438823700000 -0.05420629680156707800 -0.02780368924140930200 -0.03404232487082481400 -0.03317456319928169300 -0.02826950512826442700 -0.03807640820741653400 -0.04152105748653411900 -0.06078600138425827000 -0.10191028565168381000 -0.07984450459480285600 -0.03470528125762939500 -0.02917129173874855000 -0.02668518200516700700 -0.02988843619823455800 -0.04306901991367340100 -0.04356238245964050300 -0.05023410543799400300 -0.11319396644830704000 -0.06852193921804428100 -0.00607958342880010600 0.00995894707739353180 0.00803632102906703950 -0.00284569244831800460 -0.02321438305079937000 -0.02698537893593311300 -0.02572200074791908300 -0.01776892133057117500 0.01956178806722164200 0.04760786145925521900 0.01666068658232688900 -0.06474069505929946900 -0.10809563100337982000 -0.04256749525666236900 0.04863918200135231000 0.03843498602509498600 0.01004320848733186700 -0.00753388274461030960 -0.01564170978963375100 -0.03850581496953964200 -0.09973052144050598100 -0.12254725396633148000 -0.05977965518832206700 0.00953718367964029310 -0.00561423320323228840 0.01969441026449203500 -0.02964200638234615300 -0.04748075827956199600 -0.05287717282772064200 -0.07785464078187942500 -0.07874993979930877700 -0.02498038858175277700 0.02123687230050563800 0.00463247764855623250 -0.00952953007072210310 -0.05820807442069053600 -0.06020866706967353800 -0.02190077677369117700 -0.00447746738791465760 0.01096837408840656300 0.04503294080495834400 0.04835825413465499900 0.00905113760381937030 -0.06780726462602615400 -0.10132915526628494000 -0.06944718211889267000 0.01441389508545398700 0.06402155756950378400 0.08158658444881439200 0.07801443338394165000 0.03193671628832817100 -0.05314514413475990300 -0.08785884827375412000 -0.11429735273122787000 -0.05740660801529884300 0.05774009972810745200 0.11559816449880600000 0.11227267235517502000 0.06719519197940826400 -0.02291529439389705700 -0.14529536664485931000 -0.02061634324491024000 -0.06604190170764923100 -0.01498427242040634200 0.08950099349021911600 0.13341474533081055000 0.10048951208591461000 0.03148201107978820800 -0.06788737326860427900 -0.18626056611537933000 0.06314463168382644700 -0.02137000858783721900 -0.00311590824276208880 0.06537163257598877000 0.07060065865516662600 0.01780445314943790400 -0.04218563437461853000 -0.09310782700777053800 -0.14101627469062805000 0.07151470333337783800 -0.04253297671675682100 -0.05206843465566635100 -0.02870705723762512200 -0.05975957959890365600 -0.11866606026887894000 -0.14566749334335327000 -0.11091031879186630000 -0.03780483826994895900 -0.05470024049282074000 -0.15701137483119965000 -0.28529587388038635000 -0.33400985598564148000 -0.29996740818023682000 -0.14794610440731049000 0.02680804207921028100 0.20839926600456238000 0.23698674142360687000 -0.01976809650659561200 0.03666013479232788100 -0.00733011728152632710 -0.01752207800745964100 -0.00794325489550828930 0.03784770518541336100 0.04666453972458839400 0.10519486665725708000 0.12346193194389343000 -0.13278515636920929000 0.04420433938503265400 0.08931545913219451900 0.12563131749629974000 0.14369747042655945000 0.13377815485000610000 0.01648134365677833600 -0.05644458159804344200 -0.12973074615001678000 -0.26243180036544800000 0.01990413293242454500 0.16728544235229492000 0.25419735908508301000 0.26893720030784607000 0.22191658616065979000 0.04456289112567901600 -0.09744483977556228600 -0.26150572299957275000 -0.35372853279113770000 -0.03790589049458503700 0.16781298816204071000 0.28018838167190552000 0.27430260181427002000 0.20405253767967224000 0.03960622102022171000 -0.07010640949010849000 -0.24507373571395874000 -0.26587617397308350000 -0.03250679746270179700 0.13041652739048004000 0.21149526536464691000 0.18286594748497009000 0.11085956543684006000 -0.00477880798280239110 -0.01988845318555831900 -0.13968388736248016000 -0.05671873316168785100 0.02379324473440647100 0.03925529494881629900 0.03326374664902687100 -0.01002342905849218400 -0.04745943471789360000 -0.08973250538110733000 -0.02803761512041091900 -0.08904137462377548200 0.17489071190357208000 0.15527781844139099000 0.01574689336121082300 -0.09090775996446609500 -0.12812606990337372000 -0.10135129094123840000 -0.08151618391275405900 0.01205408480018377300 -0.01345126796513795900 0.25842678546905518000 0.25545531511306763000 0.01315485034137964200 -0.18792672455310822000 -0.24322113394737244000 -0.17984537780284882000 -0.11686447262763977000 -0.00611474364995956420 0.04492539539933204700 -0.00010801236931001768 -0.00148419418837875130 -0.00123128050472587350 -0.00136377010494470600 -0.00037583147059194744 -0.00019429501844570041 -0.00221178005449473860 -0.00190397957339882850 -0.00082231964915990829 -0.00190310075413435700 0.00142245728056877850 0.00048663237248547375 -0.00065409409580752254 -0.00143461453262716530 -0.00047021836508065462 0.00059236120432615280 -0.00022978222114033997 0.00010403770284028724 -0.00056366197532042861 -0.00000942049246077659 -0.00100097467657178640 -0.00309187546372413640 -0.00049502099864184856 -0.00215570232830941680 0.00243294774554669860 0.00035477589699439704 -0.00010751542140496895 -0.00088618439622223377 0.00086429470684379339 -0.00038104542181827128 0.00108415307477116580 -0.00072600558632984757 -0.00084887247066944838 0.00017170756473205984 0.00048436495126225054 -0.00081159960245713592 0.00067295943154022098 -0.00045633289846591651 -0.00071445846697315574 -0.00091093726223334670 0.00038870266871526837 0.00067101337481290102 0.00060181366279721260 -0.00051469728350639343 -0.00072943023405969143 0.00061242643278092146 -0.00084997509839013219 -0.00119071523658931260 -0.00147287920117378230 0.00072814215673133731 0.00073726457776501775 -0.00048750816495157778 -0.00076337775681167841 0.00012708888971246779 -0.00108395866118371490 -0.00085070222849026322 -0.00060997024411335588 -0.00093243160517886281 -0.00118966540321707730 0.00087598816026002169 0.00108930945862084630 -0.00262872735038399700 -0.00007569225999759510 -0.00085183780174702406 -0.00215197284705936910 -0.00071275327354669571 -0.00152496166992932560 -0.00043501879554241896 -0.00032891822047531605 0.00000531366595168947 0.00139296776615083220 -0.00170373008586466310 -0.00021966204803902656 0.00169172231107950210 0.00138418807182461020 -0.00071436812868341804 -0.00138749624602496620 0.00113698327913880350 -0.00055475038243457675 -0.00076361774699762464 -0.00075101276161149144 0.01846997998654842400 0.03047862090170383500 0.07921604812145233200 0.00961418263614177700 -0.14779123663902283000 -0.27825725078582764000 -0.21076935529708862000 0.02454930171370506300 0.09716484695672988900 -0.04281574860215187100 0.04955008625984191900 0.18145222961902618000 0.17822784185409546000 0.06122900173068046600 -0.08200608938932418800 -0.09006386250257492100 0.02005094476044178000 -0.04705242440104484600 -0.27616983652114868000 -0.08824249356985092200 0.15666557848453522000 0.25642639398574829000 0.21264033019542694000 0.08389586955308914200 0.04846688732504844700 0.08892138302326202400 -0.07388736307621002200 -0.53232979774475098000 -0.28652849793434143000 0.04096005111932754500 0.21973532438278198000 0.23738254606723785000 0.14934758841991425000 0.12426411360502243000 0.14843952655792236000 -0.05637969821691513100 -0.61123895645141602000 -0.37890645861625671000 -0.05496147274971008300 0.13800634443759918000 0.18864636123180389000 0.13692972064018250000 0.13388781249523163000 0.15524078905582428000 -0.07181543856859207200 -0.43882086873054504000 -0.27392783761024475000 -0.02781000919640064200 0.10592088848352432000 0.13774487376213074000 0.09388209134340286300 0.10700574517250061000 0.12170361727476120000 -0.12105743587017059000 -0.14238275587558746000 -0.04683661088347435000 0.08918803185224533100 0.11998955160379410000 0.08289695531129837000 0.01326561067253351200 0.02708398364484310200 0.05528257042169570900 -0.16720740497112274000 0.05584431439638137800 0.10587434470653534000 0.16537968814373016000 0.11171778291463852000 -0.00562210986390709880 -0.11547610163688660000 -0.08130369335412979100 0.01668067462742328600 -0.11035798490047455000 0.00155370915308594700 0.03529153391718864400 0.09616266191005706800 0.03325079753994941700 -0.10952897369861603000 -0.21840773522853851000 -0.10908067971467972000 0.13379597663879395000 0.17688708007335663000 0.18519981205463409000 0.19245801866054535000 0.14993105828762054000 0.08728093653917312600 0.02978710830211639400 -0.01571686752140522000 -0.04596702381968498200 -0.06060929968953132600 -0.07110034674406051600 0.09533079713582992600 0.07945709675550460800 0.02935806475579738600 -0.01128106005489826200 -0.03657860308885574300 -0.05810932815074920700 -0.09036613255739212000 -0.10689739137887955000 -0.09431290626525878900 0.00269124913029372690 -0.02464574761688709300 -0.06899693608283996600 -0.07679011672735214200 -0.05559804290533065800 -0.03542976081371307400 -0.03780153021216392500 -0.03507621213793754600 -0.00360936252400279050 -0.04261597618460655200 -0.06475444138050079300 -0.08572567254304885900 -0.07526247203350067100 -0.02284018881618976600 0.02566612511873245200 0.04884133115410804700 0.06400513648986816400 0.09861023724079132100 -0.06880573928356170700 -0.06798978149890899700 -0.07399428635835647600 -0.05716503411531448400 -0.00653987843543291090 0.04386338964104652400 0.07396534830331802400 0.09385390579700470000 0.11586563289165497000 -0.08283404260873794600 -0.04749896749854087800 -0.03277185931801796000 -0.02535893581807613400 0.00113814533688127990 0.03410995751619339000 0.05210987478494644200 0.05838141962885856600 0.07006889581680297900 -0.07207661867141723600 -0.00417950516566634180 0.03079059161245822900 0.03218093886971473700 0.02653161436319351200 0.02179052494466304800 0.00734766013920307160 -0.00985582638531923290 -0.00810006260871887210 -0.07319872826337814300 0.02172213792800903300 0.08347108215093612700 0.09214889258146286000 0.07002595067024231000 0.03717304021120071400 -0.01469348650425672500 -0.06669665873050689700 -0.08299975842237472500 -0.10299399495124817000 -0.00206561503000557420 0.08170964568853378300 0.11357113718986511000 0.10127036273479462000 0.05814783647656440700 -0.00907715503126382830 -0.08111742138862609900 -0.11438749730587006000 0.01177029404789209400 0.01057659462094306900 0.00866423919796943660 0.01059371232986450200 0.01060369424521923100 0.00945775303989648820 0.00602229218930006030 0.00167872919701039790 -0.00188866781536489730 0.00314418296329677100 0.00323187862522900100 0.00120084744412451980 0.00450345641002058980 0.00457770377397537230 0.00587671296671032910 0.00322802015580236910 0.00122505426406860350 -0.00055454729590564966 0.00049298949306830764 -0.00066412612795829773 -0.00319760199636220930 -0.00053486402612179518 0.00252599571831524370 0.00328247295692563060 0.00220625870861113070 0.00179253122769296170 0.00235425564460456370 -0.00412127561867237090 -0.00274422368966043000 -0.00584938935935497280 -0.00520381703972816470 -0.00137138168793171640 0.00183128705248236660 0.00309683871455490590 0.00112346699461340900 0.00187817285768687730 -0.00877934135496616360 -0.00955799967050552370 -0.01134309824556112300 -0.00942688435316085820 -0.00538535648956894870 -0.00077370012877508998 -0.00005843042526976205 0.00417339196428656580 0.00250984937883913520 -0.00802214723080396650 -0.01314026396721601500 -0.01576139219105243700 -0.01264664810150861700 -0.00667476980015635490 -0.00144778459798544650 0.00144168850965797900 0.00297441822476685050 0.00511592021211981770 -0.01076885871589183800 -0.01305369287729263300 -0.01507144048810005200 -0.01279797591269016300 -0.00889254827052354810 -0.00133643019944429400 0.00148489978164434430 0.00235519674606621270 0.00745600182563066480 -0.00849638041108846660 -0.01301790121942758600 -0.01360740512609481800 -0.01087911799550056500 -0.00705025950446724890 -0.00056334683904424310 0.00230310228653252120 0.00359320710413157940 0.00707348808646202090 -0.00978333409875631330 -0.01044742576777935000 -0.01159335765987634700 -0.00980264414101839070 -0.00381490378640592100 0.00069819804048165679 0.00571103766560554500 0.00533573422580957410 0.00788713898509740830 0.05940124019980430600 0.06649114191532135000 0.06892026960849762000 0.01737441122531890900 -0.03724792227149009700 -0.07556968182325363200 -0.09229777753353118900 -0.06729248166084289600 -0.02197493426501750900 -0.03392898663878440900 0.00502974912524223330 0.03936614096164703400 0.00222161621786654000 -0.05150145292282104500 -0.08729172497987747200 -0.08446952700614929200 -0.02127580903470516200 0.08669249713420867900 -0.13422168791294098000 -0.06229219585657119800 0.01790312863886356400 0.02010077424347400700 -0.01181064918637275700 -0.02931706421077251400 -0.01644833572208881400 0.07602508366107940700 0.21747723221778870000 -0.22748754918575287000 -0.13563272356987000000 -0.02230821736156940500 0.02369273453950882000 0.02866430394351482400 0.03704092279076576200 0.06313988566398620600 0.15862959623336792000 0.31538107991218567000 -0.29454737901687622000 -0.20567595958709717000 -0.07890537381172180200 -0.00406939955428242680 0.03279869258403778100 0.06532207876443862900 0.10263003408908844000 0.19618107378482819000 0.34838578104972839000 -0.28892016410827637000 -0.22732481360435486000 -0.11559095978736877000 -0.03857094421982765200 0.00888996385037899020 0.05254773795604705800 0.09325452148914337200 0.17854459583759308000 0.31422540545463562000 -0.18317973613739014000 -0.17011351883411407000 -0.10356723517179489000 -0.05854044482111930800 -0.02597664855420589400 0.01026719249784946400 0.04047277942299842800 0.10013417154550552000 0.20555259287357330000 -0.00060805812245234847 -0.03290838748216629000 -0.02396437339484691600 -0.02617017179727554300 -0.03655963391065597500 -0.02772219106554985000 -0.02745607867836952200 -0.00945342890918254850 0.04939449951052665700 0.21111647784709930000 0.15262083709239960000 0.11075462400913239000 0.05050884187221527100 -0.00867968238890171050 -0.04074956104159355200 -0.08721260726451873800 -0.12454103678464890000 -0.12381710112094879000 0.00088606268400326371 0.00082024157745763659 -0.00017463666154071689 -0.00122875452507287260 0.00058342947158962488 0.00012654156307689846 0.00140960491262376310 -0.00004998828444513492 0.00056271266657859087 -0.00010253459913656116 -0.00065196392824873328 -0.00008693100971868262 0.00046653408207930624 -0.00013899052282795310 -0.00027226397651247680 0.00095600815257057548 -0.00062480149790644646 -0.00115935166832059620 -0.00011548981274245307 -0.00141935143619775770 -0.00175123976077884440 -0.00000629847727395827 0.00062278489349409938 -0.00034929940011352301 0.00076763209654018283 -0.00103784061502665280 0.00025227078003808856 -0.00148448266554623840 -0.00131484679877758030 -0.00126832886599004270 -0.00253279577009379860 0.00066809600684791803 -0.00161773874424397950 0.00020782620413228869 0.00057540164561942220 -0.00071644567651674151 -0.00031605584081262350 0.00179298757575452330 0.00062892964342609048 -0.00075471564196050167 -0.00092631491133943200 -0.00035269136424176395 -0.00094000983517616987 0.00056342699099332094 -0.00030592261464335024 -0.00256821489892899990 0.00113059883005917070 -0.00011108545731985942 0.00055483588948845863 -0.00054245267529040575 -0.00077595427865162492 -0.00079822575207799673 -0.00258346600458025930 0.00041814392898231745 0.00258874846622347830 0.00012324957060627639 0.00049734913045540452 0.00103732303250581030 0.00009545445936964825 0.00077533104922622442 0.00100961141288280490 -0.00146637938451021910 0.00028297572862356901 0.00167515384964644910 0.00042124642641283572 0.00058096315478906035 0.00103734002914279700 0.00116684043314307930 -0.00002831325218721759 0.00029233039822429419 -0.00199464173056185250 0.00029927698778919876 -0.00074371049413457513 0.00100446352735161780 0.00066714535932987928 -0.00005820723163196817 0.00068704428849741817 0.00103224255144596100 0.00012054836406605318 -0.00079473713412880898 -0.00136469269637018440 0.00031214402406476438 -0.00125742016825824980 -0.00091886526206508279 0.00004511088627623394 -0.00186807930003851650 -0.00013383659825194627 -0.00186791305895894770 0.00180691224522888660 0.00021465809550136328 0.00018485770851839334 0.00004837895176024176 0.00138535839505493640 0.00005713997234124690 0.00120380823500454430 0.00085454061627388000 -0.00203813752159476280 -0.00011461930262157694 -0.00058808556059375405 0.00164736085571348670 -0.00132070307154208420 0.00046171469148248434 -0.00044074602192267776 -0.00092002772726118565 0.00018249284767080098 -0.00142190407495945690 -0.00073642854113131762 0.00165673193987458940 -0.00053827412193641067 -0.00047777194413356483 -0.00056650891201570630 0.00133098731748759750 0.00206573354080319400 -0.00110512541141361000 -0.00054864597041159868 0.00232044095173478130 -0.00028531500720418990 -0.00183792598545551300 0.00033707151305861771 -0.00091680913465097547 -0.00210525747388601300 0.00012787993182428181 0.00052039563888683915 -0.00103321706410497430 -0.00174386415164917710 -0.00205473299138247970 0.00130264088511466980 0.00061298743821680546 0.00096091732848435640 -0.00107179407496005300 0.00073762593092396855 -0.00116948585491627450 -0.00104873767122626300 -0.00030008525936864316 -0.00003494851625873707 -0.00107191503047943120 0.00043161233770661056 0.00002349827263969928 0.00003813719740719535 0.00175042951013892890 -0.00149831967428326610 0.00068919861223548651 0.00016601337119936943 -0.00068877276498824358 -0.00092920154565945268 -0.00183216657023876910 -0.00116466276813298460 -0.00206288928166031840 -0.00029385983361862600 0.00028081826167181134 0.00030354835325852036 -0.00067466340260580182 -0.00015078423894010484 -0.00037919048918411136 0.00094424065900966525 -0.00020744386711157858 -0.00018086898489855230 0.00026711952523328364 0.00035471824230626225 -0.00344046577811241150 -0.00181693781632930040 0.00005737614628742449 -0.20289404690265656000 0.00705396616831421850 0.11091867834329605000 0.09023221582174301100 0.10159499198198318000 0.13834165036678314000 0.19413088262081146000 0.15410879254341125000 -0.01664366573095321700 0.18943601846694946000 0.11757913976907730000 0.02382474020123481800 -0.13943326473236084000 -0.21769736707210541000 -0.21744297444820404000 -0.12715516984462738000 -0.05168739333748817400 0.05317695438861846900 0.13828414678573608000 -0.02883107215166091900 -0.07893154770135879500 -0.15019662678241730000 -0.17232801020145416000 -0.17392395436763763000 -0.15285184979438782000 -0.15461194515228271000 0.00360039528459310530 0.00044298171997070313 -0.13683548569679260000 -0.02507111057639122000 0.10505381226539612000 0.21301788091659546000 0.21475319564342499000 0.11697573214769363000 -0.05973672494292259200 -0.00210881861858069900 -0.16312548518180847000 -0.26279971003532410000 -0.07202050089836120600 0.16359621286392212000 0.33378857374191284000 0.32551026344299316000 0.15468508005142212000 -0.11981476843357086000 -0.14124177396297455000 -0.11304178833961487000 -0.12441711872816086000 0.04972707107663154600 0.24049565196037292000 0.37191477417945862000 0.36606016755104065000 0.21608127653598785000 -0.04388185217976570100 -0.09938555955886840800 -0.03183365240693092300 0.08645947277545929000 0.16777646541595459000 0.18769335746765137000 0.21159417927265167000 0.22207593917846680000 0.19095282256603241000 0.05894222110509872400 0.01306786015629768400 0.04716874286532402000 0.21977783739566803000 0.12476087361574173000 -0.09263086318969726600 -0.20247524976730347000 -0.15330405533313751000 -0.00883666705340147020 0.05944847688078880300 0.09838507324457168600 0.08947827666997909500 0.14476895332336426000 -0.15468242764472961000 -0.56226176023483276000 -0.75405102968215942000 -0.64721024036407471000 -0.33791619539260864000 -0.05629121139645576500 0.14485728740692139000 0.11132010072469711000 0.16882055997848511000 -0.02616281434893608100 -0.10950413346290588000 -0.04771100357174873400 0.04016464576125145000 -0.00925762671977281570 -0.01188181061297655100 -0.00283342436887323860 -0.13005000352859497000 0.07516939193010330200 -0.05895213037729263300 -0.16539293527603149000 -0.13496693968772888000 -0.04316775500774383500 -0.05935385450720787000 0.00835558492690324780 0.15681795775890350000 -0.14751869440078735000 0.23633690178394318000 0.16369846463203430000 -0.02567570470273494700 -0.12815447151660919000 -0.12491611391305923000 -0.16745722293853760000 -0.08320633322000503500 0.11507005244493484000 -0.11675379425287247000 0.39964157342910767000 0.40017059445381165000 0.18735681474208832000 0.01171574182808399200 -0.06021241843700408900 -0.15892767906188965000 -0.11355762928724289000 0.05086123570799827600 -0.25419467687606812000 0.26798817515373230000 0.30916148424148560000 0.16493564844131470000 0.04586736485362052900 -0.01749920099973678600 -0.16886842250823975000 -0.21458747982978821000 -0.10769344121217728000 -0.42746093869209290000 0.00329752918332815170 0.07567574828863143900 0.07856518030166626000 0.13655823469161987000 0.16521079838275909000 -0.01499788090586662300 -0.18597219884395599000 -0.17035800218582153000 -0.41504481434822083000 -0.15416675806045532000 -0.10185181349515915000 0.02424769662320613900 0.26098459959030151000 0.40752378106117249000 0.23589646816253662000 -0.02414582855999469800 -0.07998191565275192300 -0.06594442576169967700 -0.10947754979133606000 -0.20727869868278503000 -0.10098750889301300000 0.18486091494560242000 0.40555724501609802000 0.30854761600494385000 0.08287055790424346900 0.06092257052659988400 0.56936150789260864000 0.01459874119609594300 -0.39768260717391968000 -0.46901774406433105000 -0.26965916156768799000 -0.04387682303786277800 -0.00588644435629248620 -0.04327413067221641500 0.11441915482282639000 0.08236587792634964000 0.06963473558425903300 0.03077057749032974200 -0.00868781190365552900 -0.03955963626503944400 -0.06234473735094070400 -0.08155556768178939800 -0.07997431606054306000 -0.03014870733022689800 0.07310692220926284800 0.06580220162868499800 0.02079001441597938500 -0.02528088912367820700 -0.06133392080664634700 -0.08360715210437774700 -0.09915455430746078500 -0.09111872315406799300 -0.02909996174275875100 0.06111275404691696200 0.06589958071708679200 0.02462432719767093700 -0.02061332948505878400 -0.05908687785267829900 -0.08494879305362701400 -0.10480277985334396000 -0.09392385929822921800 -0.02796000987291336100 0.05436462908983230600 0.07746151089668273900 0.04276450350880622900 0.00111361010931432250 -0.04303922504186630200 -0.07397440820932388300 -0.09889644384384155300 -0.09401568770408630400 -0.02966357767581939700 0.05342498049139976500 0.09295603632926940900 0.06911619752645492600 0.02492404542863369000 -0.02254587598145008100 -0.05987563729286193800 -0.09365034848451614400 -0.09333042800426483200 -0.02933586575090885200 0.05558016151189804100 0.11190599948167801000 0.09123557806015014600 0.04016979783773422200 -0.01397397089749574700 -0.05612156540155410800 -0.08465373516082763700 -0.08571285009384155300 -0.02577126957476139100 0.06303175538778305100 0.11912843585014343000 0.09644738584756851200 0.04031506553292274500 -0.01705044507980346700 -0.05392532050609588600 -0.07464733719825744600 -0.07022687047719955400 -0.01478089857846498500 0.06546646356582641600 0.11508847028017044000 0.08668284118175506600 0.02663537673652172100 -0.02407693304121494300 -0.04898840188980102500 -0.05525971949100494400 -0.04449466988444328300 0.00016577362839598209 0.05701326951384544400 0.09716890752315521200 0.06444812566041946400 0.00754350237548351290 -0.03370903432369232200 -0.03854103013873100300 -0.03131040930747985800 -0.01979605108499527000 0.01102531142532825500 0.29952698945999146000 0.06587389111518859900 -0.17316873371601105000 -0.21770565211772919000 -0.17988295853137970000 -0.12748423218727112000 -0.09539402276277542100 0.07392840832471847500 0.08813898265361785900 0.04379905387759208700 -0.04852733388543129000 -0.18216329813003540000 -0.06056905537843704200 0.11488982290029526000 0.14737473428249359000 0.02475544810295105000 0.10539288073778152000 0.17498181760311127000 -0.18442533910274506000 -0.16377304494380951000 -0.25085791945457458000 -0.09262996166944503800 0.12273331731557846000 0.15832385420799255000 -0.02272623218595981600 -0.02481385506689548500 -0.06025292724370956400 -0.20132054388523102000 -0.00382655742578208450 -0.00392627343535423280 0.13226041197776794000 0.27867335081100464000 0.27709820866584778000 0.07412568479776382400 0.03656118735671043400 -0.15964834392070770000 -0.20244228839874268000 0.10069336742162704000 0.19784413278102875000 0.30833232402801514000 0.34466814994812012000 0.25208342075347900000 0.05010575801134109500 0.07596150040626525900 -0.15143452584743500000 -0.13912704586982727000 0.10126149654388428000 0.21245987713336945000 0.31694260239601135000 0.28109368681907654000 0.09948185831308364900 -0.12511910498142242000 -0.01012816186994314200 -0.11335793882608414000 -0.07423415035009384200 -0.00544206611812114720 0.01967513933777809100 0.11390225589275360000 0.09774398058652877800 -0.08762469142675399800 -0.32294318079948425000 -0.16212277114391327000 -0.10982672870159149000 0.04672102630138397200 0.03505017235875129700 -0.04732340201735496500 0.00694768503308296200 0.05686913803219795200 -0.02263555116951465600 -0.20429873466491699000 -0.04567178711295127900 0.09609880298376083400 0.12553967535495758000 0.14869296550750732000 -0.05358453840017318700 -0.15847770869731903000 -0.14692571759223938000 -0.11938485503196716000 -0.16325765848159790000 0.04923662170767784100 0.30153816938400269000 0.13809096813201904000 0.14910058677196503000 0.04904466494917869600 -0.02768355421721935300 -0.11515932530164719000 -0.15641939640045166000 -0.02968825586140155800 0.21131084859371185000 0.22412861883640289000 0.14821071922779083000 0.04849863797426223800 -0.08338939398527145400 -0.12980116903781891000 -0.17010308802127838000 -0.17976827919483185000 -0.06611268222332000700 0.11816815286874771000 0.06016865745186805700 0.04736465960741043100 -0.09790822863578796400 -0.19274856150150299000 -0.15041497349739075000 -0.10956528037786484000 -0.08597067743539810200 -0.03045512177050113700 0.03792896866798400900 -0.12402080744504929000 -0.03484736382961273200 -0.16744875907897949000 -0.18364748358726501000 -0.02841587550938129400 0.09543114900588989300 0.15165401995182037000 0.14277654886245728000 0.08054140210151672400 -0.18127650022506714000 -0.10187878459692001000 -0.20343567430973053000 -0.15861943364143372000 0.07053360342979431200 0.25430017709732056000 0.32928133010864258000 0.27143135666847229000 0.11935380846261978000 -0.18323318660259247000 -0.08533014357089996300 -0.15640990436077118000 -0.09232948720455169700 0.13667167723178864000 0.31774723529815674000 0.38304498791694641000 0.28580600023269653000 0.10292727500200272000 -0.17082497477531433000 0.03755297139286994900 -0.01963965408504009200 0.00028655672213062644 0.14446488022804260000 0.23902514576911926000 0.24413789808750153000 0.12197677046060562000 -0.03595937043428421000 -0.20546914637088776000 0.20268683135509491000 0.13248345255851746000 0.07651270925998687700 0.09518954902887344400 0.06904330849647522000 0.00908493809401988980 -0.10150824487209320000 -0.17295452952384949000 -0.19812601804733276000 0.10579271614551544000 0.01399260386824607800 -0.09842451661825180100 -0.16009297966957092000 -0.23381465673446655000 -0.27668687701225281000 -0.29417720437049866000 -0.21734862029552460000 -0.07657715678215026900 0.16545216739177704000 0.15983720123767853000 -0.01771589182317256900 -0.26228195428848267000 -0.42244714498519897000 -0.41353219747543335000 -0.25225675106048584000 -0.06744802743196487400 0.01262921839952468900 0.02838657423853874200 0.04043801873922348000 -0.09496331214904785200 -0.27571529150009155000 -0.37531068921089172000 -0.32347545027732849000 -0.15478162467479706000 0.01065854914486408200 0.07252111285924911500 0.01490389835089445100 0.08343055844306945800 0.03836102038621902500 -0.04546565562486648600 -0.07542198151350021400 -0.00231745629571378230 0.12443782389163971000 0.20677082240581512000 0.18976123631000519000 -0.05634701251983642600 0.05777546763420105000 0.09196241199970245400 0.08214472979307174700 0.08970979601144790600 0.14564150571823120000 0.20760536193847656000 0.20072400569915771000 0.12114135175943375000 -0.15811146795749664000 -0.03418178856372833300 0.03458106517791748000 0.05370440706610679600 0.06333319842815399200 0.08434278517961502100 0.08769833296537399300 0.03345093876123428300 -0.05661370232701301600 -0.14869052171707153000 -0.06032456830143928500 0.00413574185222387310 0.02456046268343925500 0.02138513699173927300 0.01270818524062633500 -0.01822000555694103200 -0.07752825319766998300 -0.13651010394096375000 0.00804499629884958270 0.04191106185317039500 0.07922498136758804300 0.09507803618907928500 0.08650831133127212500 0.06412298977375030500 0.02331347763538360600 -0.02217391133308410600 -0.03431051596999168400 0.13026712834835052000 0.10592521727085114000 0.11543301492929459000 0.13786973059177399000 0.14059963822364807000 0.12301263958215714000 0.08662015199661254900 0.05405766144394874600 0.07715501636266708400 -0.02495677396655082700 -0.09711644798517227200 -0.11152854561805725000 -0.07898277789354324300 -0.04769665747880935700 -0.04383045807480812100 -0.06491499394178390500 -0.07667039334774017300 -0.04203900322318077100 0.05748391896486282300 0.06160962209105491600 0.07577858120203018200 0.07560022175312042200 0.08076972514390945400 0.07538989186286926300 0.04836829379200935400 0.02040252834558486900 -0.07081010192632675200 0.03771601989865303000 0.00060390250291675329 -0.02377012558281421700 -0.04521494731307029700 -0.03499610349535942100 -0.03128867596387863200 -0.04961519315838813800 -0.05575839430093765300 -0.12468776106834412000 0.04108423367142677300 -0.00955920945852994920 -0.02649372443556785600 -0.03269209340214729300 0.00061631808057427406 0.01891676336526870700 0.00559769757091999050 -0.00308113428764045240 -0.08281643688678741500 0.01552588678896427200 -0.03494516760110855100 -0.04230952635407447800 -0.04275804758071899400 -0.00765979615971446040 0.01966468244791030900 0.01682652160525322000 0.01841926574707031300 -0.05381449311971664400 0.00958822946995496750 -0.02900228276848793000 -0.01886010542511940000 -0.03103853948414325700 -0.01102467253804206800 0.01087392307817935900 0.01850888133049011200 0.04270989820361137400 -0.01128933858126401900 0.02146834880113601700 0.00038419838529080153 0.01209344808012247100 -0.01182014029473066300 -0.01236182730644941300 -0.00610440922901034360 0.00368216214701533320 0.04697778448462486300 0.02334937267005443600 0.01544875465333461800 0.01055531390011310600 0.03064947575330734300 0.00336926896125078200 -0.00544575974345207210 -0.00618646200746297840 0.00311140017583966260 0.05888110026717186000 0.06482242792844772300 -0.02260371670126915000 -0.01034722942858934400 0.02217278443276882200 0.01417706348001956900 0.02261178568005561800 0.02468677237629890400 0.04000691324472427400 0.10043777525424957000 0.12434568256139755000 -0.07005401700735092200 -0.05945003405213356000 -0.02282254770398140000 -0.00782835576683282850 0.01311831735074520100 0.01570729725062847100 0.02696589566767215700 0.08063545078039169300 0.10811172425746918000 0.01043857168406248100 -0.00478396704420447350 -0.02584465965628624000 -0.02717924676835537000 -0.01197111606597900400 -0.00504300696775317190 -0.00362892937846481800 0.00346447457559406760 0.00352904945611953740 0.04061480239033699000 0.02210604771971702600 -0.00653252005577087400 -0.02388032712042331700 -0.01941517181694507600 -0.00667428178712725640 0.01338984724134206800 0.02908937074244022400 0.01523559261113405200 0.06264210492372512800 0.04269652813673019400 0.00003807683606282808 -0.03216934949159622200 -0.03623103722929954500 -0.01695132069289684300 0.02367248572409153000 0.05052942037582397500 0.04091217741370201100 0.06601800769567489600 0.04507145658135414100 -0.00353164388798177240 -0.04464539885520935100 -0.04952457919716835000 -0.01982321962714195300 0.03846799954771995500 0.08714929968118667600 0.08587267249822616600 0.05055909603834152200 0.03450080007314682000 -0.01087133772671222700 -0.04984524846076965300 -0.06402659416198730500 -0.03644802048802375800 0.03448555618524551400 0.09845940768718719500 0.10303474962711334000 0.03633182495832443200 0.03017616458237171200 0.00321032945066690440 -0.03822316601872444200 -0.06614995747804641700 -0.05702180787920951800 0.01196047663688659700 0.07918962836265564000 0.08654587715864181500 0.00923034641891717910 0.02410107292234897600 0.01852307654917240100 -0.02100624330341815900 -0.05912980064749717700 -0.06557794660329818700 -0.01113510411232709900 0.05464453995227813700 0.06311088800430297900 -0.03410824388265609700 -0.00188490410801023240 0.01953999884426593800 -0.00008998117846203968 -0.03317810595035553000 -0.04800151288509368900 -0.00585557008162140850 0.05129512771964073200 0.05833831802010536200 -0.06486529111862182600 -0.01560235768556594800 0.02221602015197277100 0.01844961009919643400 0.00063323462381958961 -0.01852907054126262700 -0.00385915581136941910 0.02807241864502430000 0.03307391703128814700 -0.06024184823036193800 -0.02341631613671779600 -0.00063387543195858598 0.00847931671887636180 0.01832269132137298600 0.01547303702682256700 -0.01030012127012014400 -0.04593602567911148100 -0.04370838031172752400 0.12316752225160599000 0.12447547912597656000 0.09555077552795410200 0.05638832971453666700 0.04183580726385116600 0.05404864251613616900 0.07174763828516006500 0.09198721498250961300 0.15114638209342957000 0.02398547716438770300 0.02969265356659889200 -0.01147063542157411600 -0.06698297709226608300 -0.08767639845609664900 -0.06317827850580215500 -0.03192970529198646500 0.00081432732986286283 0.07317855954170227100 -0.12309251725673676000 -0.08647300302982330300 -0.09757624566555023200 -0.13209997117519379000 -0.13920943439006805000 -0.11846449971199036000 -0.10561321675777435000 -0.10219387710094452000 -0.06030400842428207400 -0.11782963573932648000 -0.04285673052072525000 -0.01637246645987033800 -0.01685253158211708100 -0.01030423026531934700 0.00653498526662588120 -0.00577093800529837610 -0.04828195273876190200 -0.05976996198296546900 -0.00282976264134049420 0.08058821409940719600 0.10752196609973907000 0.11147064715623856000 0.12117098271846771000 0.14546558260917664000 0.14005778729915619000 0.08567471802234649700 0.04447357729077339200 0.07189863175153732300 0.12566456198692322000 0.09854613244533538800 0.05147041007876396200 0.04860748350620269800 0.09439301490783691400 0.13368046283721924000 0.12626686692237854000 0.10163506120443344000 0.05174754187464714100 0.05232585221529007000 -0.05381109565496444700 -0.17305928468704224000 -0.20982708036899567000 -0.14623722434043884000 -0.04892526939511299100 0.01596490480005741100 0.03993077948689460800 0.03162859380245208700 -0.00637061754241585730 -0.16584715247154236000 -0.33882585167884827000 -0.40818917751312256000 -0.34702667593955994000 -0.21321175992488861000 -0.09647123515605926500 -0.03030345775187015500 -0.00104407803155481820 -0.00009675163164502010 -0.00113861926365643740 0.00110239372588694100 -0.00040986301610246301 0.00066838355269283056 0.00069838750641793013 -0.00047009243280626833 0.00075501098763197660 -0.00011956461094086990 -0.00020572180801536888 -0.00117557740304619070 -0.00167756841983646150 0.00089264154667034745 -0.00071375304833054543 -0.00263762800022959710 -0.00034613275784067810 -0.00069351232377812266 -0.00047159026144072413 -0.00031696175574325025 -0.00016675289953127503 -0.00189585541374981400 0.00223762099631130700 -0.00174033478833734990 0.00008912481280276552 0.00012259825598448515 -0.00170086789876222610 -0.00111629685852676630 -0.00033702130895107985 -0.00014815917529631406 0.00200951960869133470 0.00074057473102584481 0.00196224893443286420 -0.00139084085822105410 -0.00015772873302921653 -0.00113448197953403000 -0.00013802071043755859 -0.00074101437348872423 -0.00014837642083875835 -0.00042054199730046093 0.00014993756485637277 0.00057086738524958491 0.00102358951698988680 -0.00032636898686178029 0.00113244995009154080 -0.00113034970127046110 -0.00033165345666930079 0.00043676857603713870 0.00145720806904137130 -0.00052653206512331963 -0.00079866457963362336 0.00112716550938785080 0.00063153833616524935 0.00035115465288981795 0.00065930519485846162 0.00154471362475305800 -0.00026910172891803086 -0.00008339232590515167 -0.00049408065387979150 0.00002463609598635230 -0.00062684720614925027 -0.00074329442577436566 -0.00063922681147232652 -0.00094900309341028333 0.00176069594454020260 0.00064465205650776625 -0.00041884055826812983 -0.00087193347280845046 -0.00020613470405805856 0.00108275318052619700 -0.00113257078919559720 -0.00064679019851610065 0.00100843620020896200 0.00040697152144275606 -0.00188278651330620050 -0.00137536716647446160 -0.00026291323592886329 -0.00055048562353476882 -0.00134760851506143810 0.00000502729244544753 -0.00003070722232223488 -0.13436496257781982000 -0.20755845308303833000 -0.07764989137649536100 0.15846741199493408000 0.17827516794204712000 0.01024035643786191900 0.00997424032539129260 0.10651980340480804000 -0.09782729297876358000 0.15100799500942230000 -0.02944792993366718300 0.02969840541481971700 0.20717570185661316000 0.15711966156959534000 -0.08989541232585907000 -0.12610773742198944000 0.02047500573098659500 -0.06622156500816345200 0.16535225510597229000 -0.10885630548000336000 -0.06182382255792617800 0.10583032667636871000 0.01650819554924964900 -0.27948257327079773000 -0.27978202700614929000 0.03988433256745338400 0.18959026038646698000 0.14667408168315887000 -0.16421014070510864000 -0.08622275292873382600 0.08374594897031784100 -0.05391235277056694000 -0.40493476390838623000 -0.36022689938545227000 0.14504672586917877000 0.54343301057815552000 0.14839237928390503000 -0.16684627532958984000 -0.06040293723344802900 0.10839781910181046000 -0.06796279549598693800 -0.45104718208312988000 -0.37000596523284912000 0.24549433588981628000 0.77879881858825684000 0.13521948456764221000 -0.18019646406173706000 -0.07628023624420166000 0.09213706851005554200 -0.07514455914497375500 -0.43620669841766357000 -0.34827697277069092000 0.24629300832748413000 0.74007380008697510000 0.11008355021476746000 -0.19621564447879791000 -0.10028446465730667000 0.08503143489360809300 -0.02788148261606693300 -0.33839616179466248000 -0.29838204383850098000 0.13278232514858246000 0.41406047344207764000 0.09996668994426727300 -0.16229541599750519000 -0.04634272307157516500 0.18565051257610321000 0.14544512331485748000 -0.13338403403759003000 -0.18956036865711212000 0.00646628299728035930 0.01801286637783050500 0.02951851487159729000 -0.17768770456314087000 -0.01938714645802974700 0.28229901194572449000 0.30812895298004150000 0.05879509449005127000 -0.06052265688776969900 -0.02245148085057735400 -0.18709978461265564000 0.08989015221595764200 -0.00327308243140578270 -0.12029110640287399000 -0.21874631941318512000 -0.34706884622573853000 -0.31829699873924255000 -0.17018648982048035000 0.00029179290868341923 0.05094093829393386800 0.02364052459597587600 0.04033417627215385400 0.00489257182925939560 -0.01905785873532295200 -0.10049372166395187000 -0.07513087987899780300 0.00507248146459460260 0.06873914599418640100 -0.00063555059023201466 -0.06956487894058227500 0.02972754277288913700 0.05937198922038078300 0.11055864393711090000 0.08503696322441101100 0.11911106109619141000 0.12801139056682587000 0.07442471385002136200 -0.12156142294406891000 -0.18512667715549469000 -0.02266900613903999300 0.06968238204717636100 0.19412390887737274000 0.22321854531764984000 0.25838604569435120000 0.19501829147338867000 0.02780946716666221600 -0.29373654723167419000 -0.27769398689270020000 -0.07983975112438201900 0.05246039479970932000 0.21994875371456146000 0.27903637290000916000 0.30598980188369751000 0.19980481266975403000 -0.04287455603480339100 -0.44302949309349060000 -0.18950952589511871000 -0.00573184434324502940 0.11850945651531219000 0.27402132749557495000 0.32497519254684448000 0.35233470797538757000 0.24862058460712433000 0.00858856085687875750 -0.37712612748146057000 -0.06335655599832534800 0.05026054382324218800 0.10166621208190918000 0.18346990644931793000 0.19520224630832672000 0.24046029150485992000 0.20680668950080872000 0.07301817834377288800 -0.19778454303741455000 0.05122075229883194000 0.05184926092624664300 -0.00349137303419411180 -0.03345657140016555800 -0.08369740843772888200 -0.01731214113533496900 0.06185134127736091600 0.09472978860139846800 0.01561086624860763500 0.09004013985395431500 -0.02303138002753257800 -0.18938131630420685000 -0.33816394209861755000 -0.46037515997886658000 -0.38463652133941650000 -0.20287345349788666000 0.00716425152495503430 0.13808579742908478000 -0.00052556366426870227 -0.00114601082168519500 0.00172585691325366500 0.00037965507362969220 -0.00036250113043934107 -0.00178430159576237200 0.00047023288789205253 0.00066030520247295499 0.00159608235117048030 0.00137827859725803140 -0.00189856486395001410 -0.00098484335467219353 0.00088423106353729963 -0.00039217606536112726 0.00128695613238960500 -0.00101176276803016660 -0.00063894764753058553 0.00011424738477217034 0.00004727227860712446 0.00002953810508188326 -0.00095219712238758802 -0.00180538487620651720 -0.00075887423008680344 0.00121027056593447920 0.00015811304911039770 0.00014505098806694150 -0.00125785719137638810 -0.00017325876979157329 -0.00093500176444649696 -0.00151268299669027330 0.00062134023755788803 0.00109450891613960270 -0.00155587436165660620 0.00009065712947631255 -0.00197926443070173260 0.00056518428027629852 -0.00015822266868781298 -0.00007213243225123733 0.00017398988711647689 0.00026685488410294056 0.00066234276164323092 0.00019281430286355317 -0.00239486526697874070 -0.00072653981624171138 -0.00084056571358814836 -0.00016163123655132949 0.00118963117711246010 -0.00005792871888843365 0.00034124497324228287 -0.00197304342873394490 0.00064440857386216521 -0.00127799704205244780 0.00060787372058257461 0.00090766046196222305 -0.00030132345273159444 0.00193932058755308390 -0.00011800522042904049 -0.00095727934967726469 -0.00075577449752017856 -0.00170917192008346320 -0.00054381974041461945 0.00110248976852744820 -0.00112957076635211710 0.00029951328178867698 -0.00167329458054155110 -0.00060543441213667393 -0.00064908346394076943 0.00021324330009520054 0.00002768325066426769 0.00000354215967490745 -0.00209244829602539540 0.00156756525393575430 -0.00159015005920082330 0.00048402979155071080 0.00173506909050047400 -0.00104154262226074930 0.00060904602287337184 0.00086745689623057842 0.00108804856427013870 0.00066636054543778300 0.00096299324650317430 -0.07232297956943512000 -0.03111729025840759300 0.01357667054980993300 0.03500100970268249500 0.05455023422837257400 0.08380581438541412400 0.07748839259147644000 0.01900629140436649300 -0.08447051048278808600 -0.04704152420163154600 -0.03517716377973556500 -0.01284065004438161800 -0.00518179172649979590 0.01463539339601993600 0.04261104390025138900 0.04383005201816558800 0.00008263932977570221 -0.06754350662231445300 -0.01836520619690418200 -0.02584153600037097900 -0.02059475705027580300 -0.00949391070753335950 0.01159092783927917500 0.03711981326341629000 0.03440354019403457600 -0.00127518887165933850 -0.05208507925271987900 0.01727930828928947400 -0.00640295678749680520 -0.01604196988046169300 -0.01346807274967432000 0.00993817858397960660 0.02835153974592685700 0.01949500478804111500 -0.02053701877593994100 -0.06783952564001083400 0.05571640282869339000 0.01643965207040309900 -0.01134400535374879800 -0.02002526074647903400 -0.00228326604701578620 0.01733431592583656300 0.00293701281771063800 -0.03773235529661178600 -0.08951428532600402800 0.08010096102952957200 0.02894150651991367300 -0.01426981389522552500 -0.03341918066143989600 -0.02472163550555706000 0.00123220740351825950 -0.01121598388999700500 -0.04775037616491317700 -0.10382554680109024000 0.08655108511447906500 0.03264202177524566700 -0.01510770060122013100 -0.02986854501068592100 -0.01431943662464618700 0.00834232661873102190 -0.00290130591019988060 -0.03969979286193847700 -0.10155020654201508000 0.07846665382385253900 0.03740942105650901800 0.00695568695664405820 0.00334275118075311180 0.02711406908929348000 0.04616288468241691600 0.03279808163642883300 -0.00991484243422746660 -0.07854954153299331700 0.04658659175038337700 0.02008929103612899800 0.01175409276038408300 0.03138703852891922000 0.06308225542306900000 0.08340790867805481000 0.07280867546796798700 0.04245236143469810500 -0.03327523171901702900 -0.00128468859475106000 -0.00180969876237213610 -0.00061748613370582461 -0.00089998851763084531 0.00092785537708550692 -0.00103376118931919340 -0.00136952043976634740 -0.00253540882840752600 -0.00080111203715205193 0.00001913573214551434 0.00002526574280636851 -0.00071109487907961011 -0.00106135779060423370 -0.00036751406150870025 -0.00038586117443628609 -0.00158090400509536270 -0.00126446655485779050 -0.00033512766822241247 -0.00125776277855038640 -0.00105936126783490180 -0.00095501245232298970 -0.00048935128143057227 -0.00010696976096369326 -0.00047235694364644587 0.00078688614303246140 0.00048003572737798095 0.00081295392010360956 -0.00123570184223353860 0.00092923408374190331 0.00061418541008606553 -0.00164995400700718160 -0.00157620664685964580 -0.00067373277852311730 -0.00189687544479966160 0.00029154925141483545 -0.00129931140691041950 -0.00233664433471858500 -0.00094697886379435658 -0.00058498687576502562 -0.00240757199935615060 -0.00052786804735660553 -0.00023934312048368156 -0.00173839600756764410 -0.00072386692045256495 -0.00057265238137915730 -0.00034661093377508223 0.00099502399098128080 0.00003041778472834267 -0.00071687565650790930 -0.00173842778895050290 -0.00131189823150634770 -0.00021884241141378880 0.00013015957665629685 0.00072274688864126801 -0.00102827406954020260 -0.00045849359594285488 0.00030444739968515933 0.00040857042768038809 0.00014879989612381905 0.00040706346044316888 -0.00083508819807320833 0.00016768713248893619 -0.00018821196863427758 -0.00142422772478312250 -0.00091524701565504074 0.00033645157236605883 -0.00217714603058993820 -0.00110102887265384200 -0.00038641822175122797 -0.00140988326165825130 -0.00078925152774900198 -0.00033355309278704226 -0.00135010539088398220 0.00021151408145669848 -0.00023556884843856096 -0.00227373489178717140 0.00067889195634052157 0.00110445765312761070 0.00063741352641955018 -0.00000241841962633771 0.00305851153098046780 0.17856553196907043000 0.24792055785655975000 0.12793523073196411000 -0.09181600064039230300 -0.25119951367378235000 -0.16318722069263458000 -0.05607412755489349400 0.02436059527099132500 -0.07469982653856277500 -0.19735538959503174000 -0.04617175832390785200 0.01259602699428796800 -0.04730437323451042200 -0.15342351794242859000 -0.09793345630168914800 -0.03568272665143013000 0.07613508403301239000 0.11560454964637756000 -0.42078748345375061000 -0.12090790271759033000 0.12870492041110992000 0.20985831320285797000 0.10103257000446320000 0.03605733066797256500 -0.04861301183700561500 0.01374633517116308200 0.13987804949283600000 -0.55695337057113647000 -0.09645175188779830900 0.31746178865432739000 0.49528670310974121000 0.35861313343048096000 0.16927768290042877000 -0.05926718935370445300 -0.06859048455953598000 0.09991916269063949600 -0.65463948249816895000 -0.12007590383291245000 0.33557048439979553000 0.51560521125793457000 0.34644836187362671000 0.10014594346284866000 -0.17318843305110931000 -0.18214003741741180000 0.00711688073351979260 -0.57501804828643799000 -0.08481778204441070600 0.26847094297409058000 0.36184450984001160000 0.17202448844909668000 -0.03102913498878479000 -0.22027046978473663000 -0.16085726022720337000 0.02826857008039951300 -0.37102964520454407000 -0.01950706355273723600 0.14497078955173492000 0.10600150376558304000 -0.07800899446010589600 -0.15498842298984528000 -0.18704949319362640000 -0.04716198146343231200 0.10045377165079117000 -0.11181814968585968000 0.10708571225404739000 0.09363238513469696000 -0.04934683814644813500 -0.18272361159324646000 -0.12417345494031906000 -0.03676799684762954700 0.11304720491170883000 0.15153573453426361000 0.03422602266073226900 0.21206970512866974000 0.10642354190349579000 -0.07218030095100402800 -0.15488071739673615000 -0.02588087320327758800 0.06264506280422210700 0.10588253289461136000 -0.02103195898234844200 -0.04351141303777694700 -0.05522042885422706600 0.00876773893833160400 0.04652953520417213400 0.08822831511497497600 0.13074798882007599000 0.18162883818149567000 0.20106570422649384000 0.10077215731143951000 -0.01828039065003395100 -0.03313270583748817400 -0.01508388854563236200 -0.03940303996205329900 -0.03135471791028976400 0.00400306377559900280 0.03690355271100997900 0.02441563270986080200 -0.07157302647829055800 0.00621579866856336590 0.00305700837634503840 0.02618250437080860100 -0.01579507067799568200 -0.01944229938089847600 0.00797335524111986160 -0.00588828092440962790 -0.09838915616273880000 -0.25177994370460510000 -0.00357171404175460340 -0.00988750811666250230 0.02906601130962371800 0.00130373891443014140 0.01822669804096221900 0.05660221725702285800 0.02614934183657169300 -0.12036417424678802000 -0.31072688102722168000 0.01893266290426254300 -0.01543561369180679300 0.01937042549252510100 0.02168019674718380000 0.07920517772436142000 0.15472944080829620000 0.13559986650943756000 -0.02451947703957557700 -0.21294705569744110000 0.07822230458259582500 0.00449554435908794400 0.01270250137895345700 0.02611197344958782200 0.12173604220151901000 0.23389676213264465000 0.23508960008621216000 0.09045876562595367400 -0.07535618543624877900 0.16215136647224426000 0.04822413995862007100 -0.00558071769773960110 -0.01991869695484638200 0.07721079885959625200 0.20422326028347015000 0.22725248336791992000 0.12198275327682495000 -0.00898625887930393220 0.16723047196865082000 0.03717761859297752400 -0.09733776003122329700 -0.18250821530818939000 -0.13022978603839874000 -0.00959448702633380890 0.05032693222165107700 0.00953174941241741180 -0.07319147884845733600 0.11118095368146896000 0.01669953204691410100 -0.14480444788932800000 -0.27752220630645752000 -0.28124988079071045000 -0.18950814008712769000 -0.11515158414840698000 -0.10887597501277924000 -0.15391255915164948000 0.06746425479650497400 0.02815909497439861300 0.03389327973127365100 0.19828192889690399000 0.47179529070854187000 0.73412036895751953000 0.73986452817916870000 0.37639197707176208000 -0.20210467278957367000 -0.00033297721529379487 -0.00689925020560622220 -0.10436711460351944000 -0.10183906555175781000 0.02679785899817943600 0.22983793914318085000 0.31208109855651855000 0.14265526831150055000 -0.17418804764747620000 -0.06035231053829193100 -0.03399654850363731400 -0.20385715365409851000 -0.33634743094444275000 -0.35545969009399414000 -0.25458261370658875000 -0.16133986413478851000 -0.16239680349826813000 -0.19261944293975830000 -0.00057752616703510284 0.08600617945194244400 -0.08781304210424423200 -0.25796249508857727000 -0.34410876035690308000 -0.33608338236808777000 -0.27984422445297241000 -0.19794566929340363000 -0.01725201494991779300 0.10006499290466309000 0.25147563219070435000 0.13837634027004242000 0.01189549826085567500 -0.07458965480327606200 -0.11294765025377274000 -0.11061520129442215000 -0.02419925667345523800 0.25118017196655273000 0.00715075666084885600 0.19748878479003906000 0.15333785116672516000 0.08920500427484512300 0.03545004874467849700 -0.01683972962200641600 -0.05356155335903167700 0.00008034279017010704 0.26340112090110779000 -0.17094442248344421000 0.00713321240618824960 0.01423669792711734800 0.00096897041657939553 -0.01989380270242691000 -0.06587158143520355200 -0.11549507826566696000 -0.10245449095964432000 0.08333134651184082000 -0.18659433722496033000 -0.07565765827894210800 -0.04599394276738166800 -0.02487323060631752000 -0.02185024879872798900 -0.05400869250297546400 -0.10384405404329300000 -0.12084904313087463000 -0.02166959270834922800 0.01964055188000202200 0.02594519965350627900 0.04217821359634399400 0.07785034179687500000 0.10228618979454041000 0.07623834908008575400 0.02175292931497097000 -0.02071347460150718700 0.01600845158100128200 -0.01725228689610958100 0.01543998438864946400 0.04047760367393493700 0.03529610857367515600 0.02492075227200985000 0.03333825990557670600 0.02892159856855869300 -0.01741410046815872200 -0.08299630880355835000 -0.03588308393955230700 -0.00575869577005505560 0.00891729164868593220 0.01337327063083648700 0.00851743761450052260 0.01811622828245163000 0.01567536219954490700 -0.01095106638967990900 -0.02707290090620517700 -0.05054152756929397600 -0.02561445347964763600 -0.01042704004794359200 -0.00124866236001253130 0.00761695764958858490 0.02081333287060260800 0.01665860041975975000 0.00081468105781823397 0.01490731537342071500 -0.03694052249193191500 -0.01289607957005500800 -0.00410605408251285550 0.00255772122181952000 0.01129165850579738600 0.02427254803478717800 0.01324526499956846200 -0.00496146362274885180 0.00907667726278305050 -0.02055550552904605900 0.00186915288213640450 0.00215908163227140900 0.00391753436997532840 0.01451178174465894700 0.02057197690010070800 0.00897845160216093060 -0.00945264566689729690 -0.00701284455135464670 -0.01424273196607828100 0.00352163123898208140 -0.00244452967308461670 -0.00004225124939694069 0.01068177260458469400 0.02256460301578044900 0.01478706765919923800 -0.00614248355850577350 -0.01917296275496482800 -0.00275132502429187300 0.00620506610721349720 0.00238225026987493040 0.00587707431986927990 0.01892128027975559200 0.02834035642445087400 0.01542498078197240800 -0.01414707303047180200 -0.04297598823904991100 0.02015345171093940700 0.02035591192543506600 0.01453352905809879300 0.02371775917708873700 0.02877891622483730300 0.02922507375478744500 -0.00061900768196210265 -0.04636941105127334600 -0.09476662427186965900 0.04130816087126731900 0.04299840703606605500 0.05141032114624977100 0.07263980805873870800 0.08083318918943405200 0.06856514513492584200 0.02769794315099716200 -0.03091466240584850300 -0.09387534856796264600 -0.17660312354564667000 -0.04945325106382370000 0.03883237391710281400 -0.03405757248401641800 -0.02965874411165714300 -0.07373354583978653000 -0.10669550299644470000 0.03347334265708923300 -0.02351918444037437400 0.11095378547906876000 0.14761459827423096000 0.23082964122295380000 0.17750993371009827000 0.20873104035854340000 0.12935791909694672000 -0.00946977920830249790 0.09228833019733429000 0.03983372077345848100 0.09807821363210678100 -0.12988248467445374000 -0.08232098817825317400 -0.09357754886150360100 -0.00966171920299530030 -0.03670652583241462700 -0.09439371526241302500 0.10217322409152985000 -0.10861828923225403000 0.18951337039470673000 -0.25149318575859070000 -0.16198544204235077000 -0.12031978368759155000 -0.06691302359104156500 -0.12883222103118896000 -0.10713113099336624000 0.24197806417942047000 -0.14355315268039703000 0.26591816544532776000 -0.26802590489387512000 -0.10841678828001022000 -0.02232632227241993000 -0.03871373087167739900 -0.17553320527076721000 -0.10269173979759216000 0.37100511789321899000 -0.11314707994461060000 0.24045665562152863000 -0.26217204332351685000 -0.08681432902812957800 0.00205405452288687230 -0.02721164748072624200 -0.16510240733623505000 -0.07227216660976409900 0.41507852077484131000 -0.11490986496210098000 0.16701880097389221000 -0.23027940094470978000 -0.10923355072736740000 -0.06017641723155975300 -0.04135525226593017600 -0.10755492001771927000 -0.03031772933900356300 0.35986268520355225000 -0.14011774957180023000 0.01134257670491933800 -0.26612553000450134000 -0.21605850756168365000 -0.21650341153144836000 -0.16603091359138489000 -0.19135688245296478000 -0.17398771643638611000 0.09367040544748306300 -0.21608297526836395000 0.14702214300632477000 0.04229168221354484600 0.18176096677780151000 0.24036735296249390000 0.27857086062431335000 0.15111093223094940000 -0.00960402190685272220 0.09904170781373977700 0.01158245094120502500 0.00057235453277826309 0.00020721743931062520 -0.00065525510581210256 -0.00157950329594314100 0.00017695059068500996 0.00003224578904337250 0.00051398971118032932 -0.00080938945757225156 0.00060792092699557543 0.00127772183623164890 0.00020812479488085955 0.00138400238938629630 0.00017488795856479555 0.00148219557013362650 -0.00148929608985781670 0.00028696630033664405 -0.00036050160997547209 0.00043614453170448542 -0.00127616536337882280 -0.00128369347658008340 -0.00047334592090919614 -0.00119874742813408370 -0.00005792633237433620 -0.00054547347826883197 0.00027992393006570637 -0.00064608274260535836 -0.00089375616516917944 -0.00033659144537523389 0.00021756683418061584 0.00110521400347352030 -0.00022182983229868114 -0.00045322487130761147 0.00026172262732870877 -0.00034830797812901437 -0.00140326004475355150 -0.00069106282899156213 0.00060823478270322084 -0.00220046238973736760 0.00012314232299104333 0.00097472133347764611 0.00071840081363916397 0.00037273057387210429 0.00066953909117728472 -0.00057606288464739919 -0.00031469430541619658 0.00023507411242462695 -0.00045042918645776808 0.00106720824260264640 -0.00058027060003951192 -0.00028919772012159228 0.00086006551282480359 0.00137239589821547270 -0.00016894603322725743 0.00115315255243331190 -0.00098379643168300390 -0.00036414299393072724 -0.00009557878365740180 -0.00023303626221604645 -0.00088948948541656137 -0.00139191618654876950 -0.00028208841104060411 0.00149450695607811210 0.00105590745806694030 0.00022921329946257174 0.00095428136410191655 -0.00015335748321376741 0.00027074464014731348 -0.00009736482752487063 0.00025625934358686209 -0.00079346715938299894 0.00065347919007763267 -0.00162992044351994990 -0.00107785419095307590 0.00062737468397244811 0.00000940458266995847 -0.00003070155071327463 -0.00146172230597585440 -0.00084251747466623783 0.00114230194594711070 -0.00010120011575054377 -0.00228090630844235420 -0.00026718439767137170 0.00081364723155274987 0.00110890972428023820 -0.00017748473328538239 -0.00026961223920807242 -0.00090652547078207135 0.00050595344509929419 -0.00131549837533384560 -0.00155878171790391210 -0.00072307972004637122 0.00072759384056553245 -0.00108344096224755050 0.00006020611908752471 -0.00101588305551558730 0.00157342292368412020 0.00030716936453245580 -0.00140505097806453700 0.00088271388085559011 -0.00154260615818202500 -0.00178871699608862400 0.00039218066376633942 -0.00072389573324471712 -0.00122643774375319480 0.00088670692639425397 -0.00143728894181549550 0.00227073440328240390 -0.00032602596911601722 -0.00077031628461554646 0.00185247790068387990 0.00057161727454513311 -0.00091612344840541482 0.00077351927757263184 -0.00055936427088454366 0.00050968787400051951 0.00084701029118150473 -0.00022409397934097797 -0.00022912562417332083 0.00053348788060247898 -0.00034080710611306131 0.00075435009784996510 -0.00125006958842277530 -0.00041016886825673282 0.00053073174785822630 0.00057480513351038098 -0.00105557299684733150 -0.00053682998986914754 0.00007185840513557196 0.00013430749822873622 0.00070778623921796679 0.00058076420100405812 -0.00161338818725198510 -0.00067605596268549562 -0.00023905688431113958 -0.00070559774758294225 -0.00121476955246180300 -0.00070951314410194755 -0.00142416881863027810 -0.00161832023877650500 -0.00086028716759756207 0.00074173044413328171 -0.00053230696357786655 0.00113549514207988980 -0.00010087936243508011 0.00010542495874688029 0.00071909610414877534 -0.00130503682885318990 0.00092891993699595332 -0.00019051153503824025 -0.00061508442740887403 -0.00015066558262333274 0.00030295329634100199 -0.00016095922910608351 -0.00068424287019297481 0.00098180328495800495 -0.00129054277203977110 -0.00009713624604046345 -0.00158701429609209300 0.00003517648656270467 -0.00009981737821362913 -0.00035708284121938050 0.00053306896006688476 0.08684954792261123700 0.11979518830776215000 0.00856055505573749540 -0.09170404076576232900 -0.05845740064978599500 0.05592058598995208700 0.12571023404598236000 0.13129836320877075000 0.12643690407276154000 -0.11139196157455444000 -0.06861417740583419800 -0.13646873831748962000 -0.21042118966579437000 -0.18510177731513977000 -0.10656923800706863000 -0.06844854354858398400 -0.04735157638788223300 0.02271336689591407800 -0.04401453211903572100 -0.01548120845109224300 -0.07133415341377258300 -0.15344914793968201000 -0.16128642857074738000 -0.12604178488254547000 -0.10749889165163040000 -0.06985898315906524700 0.06415999680757522600 0.07830655574798584000 0.11426445841789246000 0.07891843467950820900 -0.00181818986311554910 -0.04539920389652252200 -0.05642933771014213600 -0.08357660472393035900 -0.06567555665969848600 0.07173942029476165800 0.03399372100830078100 0.10474761575460434000 0.11318534612655640000 0.05840726569294929500 0.01491884887218475300 -0.03322096914052963300 -0.10848143696784973000 -0.13998356461524963000 -0.04962643608450889600 -0.08842074126005172700 0.00619179941713809970 0.05324339494109153700 0.05084136500954628000 0.04190749302506446800 -0.00356077100150287150 -0.10967117547988892000 -0.19063915312290192000 -0.15512578189373016000 -0.11616211384534836000 -0.04048040881752967800 0.01882502064108848600 0.06223556399345397900 0.10797428339719772000 0.09862626343965530400 0.00165006471797823910 -0.09385600686073303200 -0.08651664108037948600 -0.03867727890610694900 -0.05510443821549415600 -0.04065499454736709600 0.01570798642933368700 0.10988464206457138000 0.15130618214607239000 0.08881488442420959500 0.00382338603958487510 0.03141292184591293300 0.00300959404557943340 -0.14111347496509552000 -0.20027005672454834000 -0.14556317031383514000 -0.02416172437369823500 0.05550356581807136500 0.00854909792542457580 -0.07187556475400924700 -0.02997081167995929700 0.20727051794528961000 0.18669694662094116000 0.18786431849002838000 0.14355568587779999000 0.15843173861503601000 0.16816039383411407000 0.15203613042831421000 0.06631951779127121000 0.15276987850666046000 0.10801338404417038000 -0.00991834979504346850 -0.06596449762582778900 -0.11202585697174072000 -0.05325281620025634800 -0.02200453169643878900 -0.03356461599469184900 -0.09791468083858490000 0.07344774156808853100 0.19215118885040283000 -0.02714618295431137100 -0.13570646941661835000 -0.14810375869274139000 -0.01245401147753000300 0.03586624935269355800 -0.00387478899210691450 -0.08390618115663528400 0.15347626805305481000 0.30842036008834839000 0.02579697221517562900 -0.13533200323581696000 -0.16460965573787689000 -0.00948108267039060590 0.03260358422994613600 -0.03636825457215309100 -0.12686644494533539000 0.17298299074172974000 0.30838754773139954000 0.09359018504619598400 -0.04995372146368026700 -0.10969316214323044000 0.00963922496885061260 0.02555230818688869500 -0.04747562110424041700 -0.12303269654512405000 0.19465273618698120000 0.11058899760246277000 0.03930428251624107400 -0.01739240437746048000 -0.08120857924222946200 -0.02032322064042091400 -0.04126959294080734300 -0.09574210643768310500 -0.13380624353885651000 0.16593591868877411000 -0.04954902827739715600 -0.03572362661361694300 0.00550968758761882780 -0.03543518856167793300 -0.01563520915806293500 -0.08362933248281478900 -0.14434276521205902000 -0.15730898082256317000 0.11289012432098389000 -0.07263331860303878800 -0.10991173237562180000 -0.03092201612889766700 -0.01009382680058479300 0.03795590624213218700 -0.04805316776037216200 -0.13571651279926300000 -0.15706171095371246000 0.09367762506008148200 0.00516769988462328910 -0.13915775716304779000 -0.06247401237487793000 0.06486918777227401700 0.23435278236865997000 0.20829395949840546000 0.10052702575922012000 0.04578333720564842200 0.25908964872360229000 -0.02260188944637775400 -0.03283561021089553800 -0.04007688164710998500 -0.04023050144314765900 -0.03907774761319160500 -0.03607409819960594200 -0.02671164460480213200 -0.00740669807419180870 0.00466349720954895020 -0.02066798135638237000 -0.02840252220630645800 -0.03370195627212524400 -0.03192201256752014200 -0.02941550873219966900 -0.02158373035490512800 -0.00930126570165157320 0.00906854402273893360 0.02627460286021232600 -0.01779397018253803300 -0.02605351619422435800 -0.02867805957794189500 -0.02885228581726551100 -0.02091460861265659300 -0.01089977286756038700 0.00223724986426532270 0.02082477137446403500 0.03740882128477096600 -0.01797072403132915500 -0.02451207861304283100 -0.02758875116705894500 -0.02638157270848751100 -0.01822356693446636200 -0.00456130551174283030 0.01224923599511385000 0.03198029473423957800 0.04509935900568962100 -0.01514866109937429400 -0.02204309031367301900 -0.03200491517782211300 -0.02628046646714210500 -0.01689644902944564800 -0.00263711088337004180 0.01797992549836635600 0.03470137342810630800 0.04425822943449020400 -0.01192442234605550800 -0.02134697884321212800 -0.02630981430411338800 -0.02569418773055076600 -0.01343682967126369500 0.00359202525578439240 0.02026273868978023500 0.03467145562171936000 0.03962358459830284100 -0.00584849715232849120 -0.01522048562765121500 -0.02040835283696651500 -0.01986067555844783800 -0.00866444688290357590 0.00731367431581020360 0.02299033850431442300 0.03224867954850196800 0.03465525433421134900 -0.00235356367193162440 -0.00976565014570951460 -0.01956152170896530200 -0.01788049377501010900 -0.00824029743671417240 0.00898824445903301240 0.02401842921972274800 0.03070270270109176600 0.02949326671659946400 -0.00130056228954344990 -0.01037198305130004900 -0.01737895980477333100 -0.01803297363221645400 -0.00939221307635307310 0.00502610020339488980 0.01829136349260807000 0.02890576981008052800 0.02822826802730560300 0.51387673616409302000 0.33490225672721863000 0.09384819120168685900 -0.04207200929522514300 0.04935150593519210800 0.10349969565868378000 -0.01138439588248729700 -0.10104706883430481000 0.11306762695312500000 0.48466488718986511000 0.31913506984710693000 0.06722698360681533800 -0.05558856949210166900 0.07422271370887756300 0.14306107163429260000 0.03129066526889801000 -0.06856073439121246300 0.15770360827445984000 0.24141146242618561000 0.07701972126960754400 -0.22581788897514343000 -0.34515637159347534000 -0.16967681050300598000 -0.06622626632452011100 -0.17111378908157349000 -0.25674307346343994000 0.00799034535884857180 0.04246569797396659900 -0.09862716495990753200 -0.40742999315261841000 -0.47144955396652222000 -0.21535390615463257000 -0.06900087743997573900 -0.16636218130588531000 -0.24780322611331940000 0.04518062993884086600 0.11414190381765366000 0.01063505746424198200 -0.27469363808631897000 -0.27257347106933594000 0.05080167204141616800 0.20427478849887848000 0.07346495240926742600 -0.03642192855477333100 0.25929144024848938000 0.18971572816371918000 0.11801872402429581000 -0.13057357072830200000 -0.09590200334787368800 0.22988469898700714000 0.33023098111152649000 0.12639464437961578000 -0.01536849234253168100 0.26051643490791321000 0.10058391094207764000 0.05222578719258308400 -0.16991968452930450000 -0.12186817824840546000 0.16451074182987213000 0.18607771396636963000 -0.08469479531049728400 -0.24764402210712433000 0.01252280455082655000 -0.04609302058815956100 -0.10228976607322693000 -0.28945195674896240000 -0.22486481070518494000 0.02835780009627342200 0.00455142650753259660 -0.28142744302749634000 -0.41059905290603638000 -0.11959064751863480000 0.12907472252845764000 0.06354583799839019800 -0.07634677737951278700 0.02441778033971786500 0.27845409512519836000 0.24312338232994080000 -0.03210110217332840000 -0.11091130226850510000 0.25276586413383484000 -0.00153741682879626750 -0.00037474674172699451 0.00077365175820887089 -0.00166618253570050000 0.00171501608565449710 0.00213270937092602250 0.00167638063430786130 0.00057259714230895042 0.00277647236362099650 -0.00004805813296115957 -0.00079103180905804038 -0.00145900202915072440 -0.00034118257462978363 0.00040771430940367281 0.00137058109976351260 -0.00000510406880493974 0.00124033039901405570 -0.00007305407780222595 -0.00143831362947821620 0.00082409812603145838 -0.00181747612077742820 0.00052798935212194920 0.00095779128605499864 -0.00054493051720783114 -0.00046717023360542953 -0.00100351264700293540 -0.00010163112165173516 0.00045909103937447071 0.00037757333484478295 -0.00070306262932717800 -0.00204732618294656280 -0.00101113680284470320 -0.00093421537894755602 -0.00096598447998985648 -0.00062864838400855660 0.00200960086658596990 -0.00019029910617973655 -0.00104124948848038910 0.00132143881637603040 -0.00057037582155317068 