64 25 32 
0.01738521829247474700 -0.00035266028135083616 0.01571319252252578700 -0.03457748517394065900 -0.08843003958463668800 -0.03908715397119522100 0.03697969764471054100 -0.01859002932906150800 0.05710627138614654500 0.03388890996575355500 0.00292090908624231820 -0.02403948083519935600 0.00050721596926450729 0.02085844986140728000 0.10073389858007431000 0.02313628233969211600 0.04581308364868164100 -0.01992344669997692100 0.01088907755911350300 -0.00109100341796875000 -0.00225846073590219020 -0.03395904973149299600 -0.00191269489005208020 0.02288593351840972900 0.00059459212934598327 -0.00036355189513415098 0.11862238496541977000 0.02501187659800052600 -0.01207781303673982600 -0.09408981353044509900 0.09816539287567138700 0.06334632635116577100 0.01281125750392675400 -0.01293079275637865100 -0.06595942378044128400 0.00093028543051332235 0.06976277381181716900 0.00128571910317987200 -0.00170382193755358460 0.01009692065417766600 -0.00057476904476061463 -0.06704953312873840300 0.01940566487610340100 -0.00849950034171342850 0.00809176918119192120 0.00719537865370512010 -0.00093697692500427365 0.00030102793243713677 0.01599710620939731600 0.05529923737049102800 -0.00971109140664339070 -0.00765674468129873280 -0.00066828221315518022 -0.08192020654678344700 0.01417290605604648600 -0.11550437659025192000 0.00684211403131484990 0.03987415507435798600 0.01660439744591713000 0.03091935440897941600 0.05798691511154174800 0.02084164321422576900 -0.04845248535275459300 0.00153697188943624500 0.05835600569844245900 0.00650646211579442020 0.01036751829087734200 -0.01844086684286594400 -0.03754115849733352700 -0.03970040380954742400 0.04243052750825882000 -0.00727703841403126720 -0.00184917147271335120 0.08963400870561599700 0.00144519284367561340 -0.02938135527074337000 -0.00204053660854697230 -0.01716855168342590300 0.01549163646996021300 0.04316805675625801100 0.03702601417899131800 -0.03444953262805938700 0.04359833523631095900 0.00149614526890218260 0.05999696999788284300 -0.02662416920065879800 -0.00062422972405329347 -0.01215428579598665200 -0.00050016876775771379 0.00078307895455509424 0.05504186823964119000 0.00919702276587486270 0.01057693734765052800 -0.02396627888083457900 0.00893468037247657780 0.06976171582937240600 0.01386005803942680400 -0.00360644166357815270 -0.05261291190981864900 0.00213503185659646990 -0.00700891902670264240 -0.06693896651268005400 0.00125037238467484710 0.00859392527490854260 -0.00064145267242565751 0.00037929447717033327 0.00207639997825026510 0.02032033354043960600 0.01046331506222486500 0.02396781370043754600 0.00143348448909819130 0.00270739826373755930 -0.01658421009778976400 -0.00219818972982466220 -0.00753846764564514160 -0.02443153411149978600 0.00105644541326910260 -0.06623487174510955800 0.01341334357857704200 -0.05608123913407325700 0.00169756705872714520 0.06183874979615211500 0.03063825331628322600 0.01523198001086711900 0.02625062316656112700 0.01181873399764299400 -0.00215376587584614750 0.00130749610252678390 -0.02245463244616985300 0.01276781316846609100 0.01429587882012128800 -0.02784944511950016000 -0.01456858590245246900 -0.02596455626189708700 0.05604239925742149400 0.01403213944286108000 -0.03239270299673080400 0.02442417852580547300 0.00527483457699418070 -0.00806058663874864580 -0.00028938378090970218 -0.05993024632334709200 0.00144130573607981200 0.00756564224138855930 0.02334722876548767100 -0.02130147628486156500 -0.02162070572376251200 -0.00035844382364302874 0.09524726867675781300 -0.01166634168475866300 -0.00065878784516826272 -0.01590605638921260800 0.00193133903667330740 0.00085278740152716637 0.02510839700698852500 -0.01233754400163888900 -0.00155351625289767980 -0.07241848856210708600 -0.02402025833725929300 0.03890383243560791000 0.00328394281677901740 -0.00706244725733995440 -0.04966020211577415500 -0.00050154916243627667 -0.01287975721061229700 -0.09855922311544418300 0.00032636572723276913 0.01854577660560607900 0.00169354199897497890 -0.03545407205820083600 0.03797453641891479500 0.05575823411345481900 0.01459074579179287000 -0.00640429044142365460 0.00111080915667116640 -0.00074677588418126106 -0.06482422351837158200 -0.04348295181989669800 -0.00296525191515684130 -0.01563320122659206400 0.00031212938483804464 -0.07175050675868988000 -0.00834227818995714190 -0.07212428748607635500 0.00314235989935696130 0.02563403360545635200 0.02336248010396957400 0.01313455589115619700 -0.01859081164002418500 -0.00260552740655839440 0.05467274039983749400 0.00001525609513919335 -0.01949320733547210700 0.02001522481441497800 0.03009598143398761700 -0.02972109429538250000 -0.05631825327873230000 0.00793550722301006320 0.06544087082147598300 0.02556898817420005800 0.02836288325488567400 -0.01964447833597660100 0.01013858616352081300 0.03096944838762283300 -0.00106675480492413040 -0.05172807350754737900 0.02223119698464870500 -0.04862613976001739500 0.01457097381353378300 0.00187544606160372500 -0.06186161562800407400 0.00131768954452127220 0.04045483842492103600 -0.00162893522065132860 0.00042600865708664060 0.00038494769250974059 0.00017796132306102663 0.00054446782451122999 0.08005949109792709400 0.02919946052134037000 -0.01129105966538190800 -0.12397128343582153000 0.03441372513771057100 0.02404656447470188100 -0.01515569537878036500 -0.00195341720245778560 -0.04986685141921043400 -0.00028394887340255082 0.02610308118164539300 -0.05260511115193367000 -0.00043389695929363370 0.02824790775775909400 0.00027122918982058764 -0.01275340653955936400 0.07938213646411895800 0.01431907154619693800 0.01920939609408378600 -0.07080743461847305300 -0.00076201069168746471 0.00039884104626253247 -0.06944721937179565400 -0.06632843613624572800 0.00075503397965803742 0.03711762279272079500 0.00085810665041208267 -0.04479504376649856600 -0.04232527315616607700 -0.07565938681364059400 -0.00448185065761208530 0.02226705849170684800 0.01549055613577365900 -0.00636790320277214050 -0.00431745545938611030 0.01737541891634464300 0.09277087450027465800 -0.00093116372590884566 0.09563404321670532200 0.01813748106360435500 0.02279966697096824600 0.08139131963253021200 -0.07983954995870590200 -0.00520684942603111270 0.05576292052865028400 -0.00480413297191262250 0.08711299300193786600 0.07605687528848648100 0.01017805747687816600 0.02837812155485153200 0.00101521390024572610 -0.00183511711657047270 0.05087253078818321200 -0.06692042201757431000 -0.00231027067638933660 0.00015674442693125457 -0.06137328222393989600 0.00074307626346126199 -0.04660666361451149000 0.00687079597264528270 0.00114806951023638250 -0.02180977724492549900 -0.00053644826402887702 0.00035879356437362731 0.11428160220384598000 0.11896735429763794000 0.02522883005440235100 -0.12363348156213760000 0.01132894959300756500 -0.01746287196874618500 -0.03344586864113807700 0.01776316016912460300 -0.07657050341367721600 -0.00088742142543196678 0.09323586523532867400 -0.04587422683835029600 0.00097861257381737232 0.01796849630773067500 0.00172422011382877830 0.09375725686550140400 0.04543023928999900800 -0.07058868557214736900 0.01746882870793342600 -0.12255054712295532000 0.00181465479545295240 0.00122956058476120230 -0.01491113193333149000 -0.04217390343546867400 -0.00152944587171077730 0.11759888380765915000 -0.00054411392193287611 -0.06067912280559539800 -0.05425062775611877400 -0.05414669960737228400 -0.02863821387290954600 0.08437317609786987300 0.00201946310698986050 -0.05164211615920066800 0.03645747527480125400 0.02512782067060470600 0.03860718011856079100 -0.00111254327930510040 0.04297048971056938200 -0.00035973495687358081 0.03104753047227859500 -0.05112783610820770300 -0.06183537468314170800 -0.00063183601014316082 -0.01709182187914848300 -0.01093357987701892900 0.03186332434415817300 0.01070449035614728900 0.00167284079361706970 -0.01317149680107832000 0.00168312806636095050 0.03686029091477394100 0.04963780939579010000 0.05568179488182067900 0.02978389523923397100 -0.03811718896031379700 0.02425391227006912200 0.00241278647445142270 -0.01623838022351265000 -0.03267909958958625800 -0.00047208022442646325 0.02391292154788970900 0.00012817038805224001 0.00038892045267857611 0.01782437413930892900 0.05806147307157516500 0.01303825434297323200 -0.03658195957541465800 0.03967304527759552000 0.09392324835062027000 0.00376644241623580460 -0.01541622355580329900 -0.06027302145957946800 0.00020789832342416048 0.01901643909513950300 -0.04721364378929138200 -0.00043118852772749960 -0.00760639877989888190 0.00057449965970590711 -0.00980671681463718410 -0.00782373175024986270 -0.04726655408740043600 0.00174506602343171830 -0.00772827444598078730 -0.00082028796896338463 -0.00102133210748434070 0.00889289472252130510 0.00927679706364870070 -0.00496472651138901710 -0.04930245131254196200 -0.00004649150287150405 -0.04653937369585037200 0.01215027365833520900 -0.07977382838726043700 0.00491073168814182280 -0.01834597066044807400 0.03064934909343719500 0.03199951723217964200 0.08587146550416946400 0.02608547173440456400 -0.03771150112152099600 -0.00120310555212199690 0.07826794683933258100 0.01102016586810350400 0.02844885364174842800 -0.04058581963181495700 -0.02969229035079479200 0.03479091078042984000 -0.01392328087240457500 0.01300723012536764100 -0.02091169357299804700 0.04395727068185806300 0.00071733206277713180 -0.00876587815582752230 0.00042730505811050534 0.00732277054339647290 -0.01234753429889679000 0.10553366690874100000 0.01792654953896999400 -0.02613993361592292800 0.08456297218799591100 0.00125589675735682250 0.01219404116272926300 -0.02907901816070079800 -0.00057399278739467263 -0.02344943955540657000 0.00060660194139927626 0.00042043291614390910 -0.02755926921963691700 0.04683899134397506700 0.02791002765297889700 0.05561074241995811500 -0.04458595812320709200 0.11226388812065125000 0.00021854773513041437 -0.00501384772360324860 -0.03285876661539077800 -0.00013514919555746019 -0.01546226814389228800 -0.05206193029880523700 -0.00015985143545549363 -0.00607754196971654890 -0.00108792446553707120 0.05764200538396835300 -0.01484746579080820100 -0.02661607414484024000 0.00361375673674046990 -0.00223211478441953660 0.00088435946963727474 0.00128884555306285620 0.00083300226833671331 -0.04665638506412506100 -0.00424513546749949460 -0.06208705902099609400 0.00022879480093251914 0.04522970318794250500 0.00172827555797994140 0.01124737970530986800 0.00934511888772249220 0.01458953227847814600 0.04241269826889038100 0.02150433696806430800 0.07366447150707244900 0.04061178490519523600 0.02578758262097835500 0.00099945743568241596 -0.00910925399512052540 0.02193596586585044900 0.03051492571830749500 -0.05584436282515525800 -0.01672523468732833900 0.06403302401304245000 -0.01066992618143558500 0.04076653718948364300 -0.00855176616460084920 0.00740361586213111880 0.00459518143907189370 0.01294085197150707200 -0.00047098263166844845 -0.02794669941067695600 0.01854116842150688200 0.07340873777866363500 0.01517905667424202000 0.00272964406758546830 0.01514860615134239200 0.00098581099882721901 0.05299429967999458300 -0.01528299972414970400 0.00020454009063541889 -0.03794436156749725300 0.00111223594285547730 0.00135771359782665970 -0.03838152810931205700 -0.00488632684573531150 0.00402383645996451380 -0.00342240557074546810 -0.04297066479921340900 0.08659983426332473800 -0.00022435211576521397 0.00135322229471057650 -0.02780136466026306200 0.00056546420091763139 -0.02542021311819553400 -0.03420482948422431900 0.00042841315735131502 0.00423193909227848050 0.00015574730059597641 0.00848008878529071810 0.01875774934887886000 0.02230159007012844100 0.00605868594720959660 -0.06464251875877380400 -0.00071795517578721046 -0.00051094964146614075 -0.02790220268070697800 -0.05720860138535499600 0.00112478714436292650 -0.02021599188446998600 -0.00063457561191171408 0.07109554857015609700 -0.02186881378293037400 -0.00274798134341835980 0.01175817381590604800 0.00901126489043235780 0.03266032412648201000 0.02027408778667450000 0.03988559544086456300 0.02439959347248077400 0.09018957614898681600 0.00044720244477503002 -0.04003785923123359700 0.03108443319797515900 0.03163160011172294600 -0.06164714321494102500 -0.07008820772171020500 0.09916553646326065100 -0.00486150709912180900 0.05731952562928199800 0.04866625368595123300 -0.00969046168029308320 0.00583079690113663670 0.03658723086118698100 0.00040837057167664170 0.00035111236502416432 0.05460072681307792700 -0.01348720677196979500 0.01278080418705940200 0.02255248464643955200 -0.02726255916059017200 0.00013317899720277637 0.00437715696170926090 -0.00080092035932466388 0.00016011181287467480 -0.01172621641308069200 -0.00117618031799793240 0.00088947877520695329 -0.00957471039146184920 -0.03825007751584053000 -0.02317373082041740400 -0.06328725069761276200 0.04222479462623596200 0.06381538510322570800 -0.01310853753238916400 0.01382632926106452900 -0.03089226596057415000 -0.00280197570100426670 -0.02568256296217441600 -0.01691147312521934500 0.00035026215482503176 0.01372899115085601800 -0.00101867900229990480 -0.02448126301169395400 0.05384806916117668200 0.01600033417344093300 0.00830561760812997820 -0.15421141684055328000 -0.00056654727086424828 0.00050849927356466651 -0.05877976864576339700 -0.06192040443420410200 0.00275214086286723610 0.00653895223513245580 0.00161430495791137220 0.09467167407274246200 -0.04995324462652206400 -0.04656340554356575000 0.00355890230275690560 0.00472253235056996350 0.01770397461950779000 -0.00755146984010934830 0.06914077699184417700 0.02643050253391265900 0.13663300871849060000 0.00012545569916255772 0.06691421568393707300 0.02186143212020397200 0.01089394092559814500 0.06878374516963958700 -0.09031139314174652100 0.03603726252913475000 -0.01847712136805057500 0.00448063854128122330 0.05823426321148872400 0.07336289435625076300 0.00816224515438079830 0.00232006539590656760 -0.00180836964864283800 0.04247401282191276600 0.05684060230851173400 -0.06357083469629287700 -0.00028406828641891479 0.01340247411280870400 -0.05952581390738487200 -0.00057903153356164694 -0.06429278105497360200 0.00110335112549364570 0.00027468649204820395 -0.03529157862067222600 -0.00029152480419725180 0.00044610185432247818 -0.00454661855474114420 0.04380868747830390900 0.01505330763757228900 -0.10576084256172180000 0.01426386646926403000 0.03183896839618682900 -0.03393228724598884600 0.03165884688496589700 -0.06722964346408844000 0.00192646076902747150 0.04684262350201606800 -0.06852973997592926000 0.00039496779209002852 0.01276318822056055100 -0.00047354702837765217 0.05717501789331436200 0.01158224511891603500 -0.03394233435392379800 0.00895168073475360870 -0.17831182479858398000 -0.00042705045780166984 0.00173170247580856080 -0.05018835142254829400 -0.04787700995802879300 -0.00181547086685895920 0.06327541917562484700 -0.00005214458360569552 -0.00750072766095399860 -0.06121528148651123000 -0.06357854604721069300 -0.02670240588486194600 0.07009151577949523900 -0.00210848427377641200 -0.05888725817203521700 0.09396996349096298200 0.02047768607735633900 0.09361280500888824500 0.00243601715192198750 0.02690862119197845500 0.00424340181052684780 0.03156585246324539200 -0.06078847497701644900 -0.02055868506431579600 -0.00305604259483516220 0.00350095331668853760 -0.03489963710308075000 0.01467817835509777100 -0.02211740799248218500 -0.00097134138923138380 0.00114556576590985060 0.00100288051180541520 -0.04195406660437583900 -0.01478554308414459200 0.04921774193644523600 0.03664023429155349700 -0.03442608192563056900 -0.02006274834275245700 0.00041717576095834374 -0.05118663609027862500 -0.01789505779743194600 -0.00015890876238700002 0.02519650198519229900 -0.00234835897572338580 0.00013250387564767152 -0.00955186877399683000 0.05032139644026756300 0.01356127113103866600 -0.01980695128440856900 0.00510971946641802790 0.03744538128376007100 -0.00154352781828492880 -0.01862668804824352300 -0.02664761431515216800 -0.00027340542874298990 0.00657989829778671260 -0.09884343296289444000 -0.00087233778322115541 -0.02180782891809940300 -0.00059987721033394337 0.00631132908165454860 -0.00090034579625353217 -0.04945908114314079300 -0.00275367242284119130 0.00734647223725914960 0.00088842748664319515 0.00181239889934659000 0.02684759907424449900 0.00716643361374735830 0.00023258935834746808 -0.01984262466430664100 0.00086822942830622196 -0.05433424934744834900 0.00322702899575233460 -0.09651861339807510400 0.00794207584112882610 -0.06466577947139740000 0.02706337347626686100 0.03877946361899375900 0.01119247917085886000 0.01787170767784118700 -0.04703178256750106800 0.00135248259175568820 0.02100242301821708700 0.01790309697389602700 0.03170269727706909200 -0.04483912885189056400 0.00165622658096253870 0.04049257189035415600 0.01798805408179760000 0.00040867654024623334 -0.00467477086931467060 0.00418073544278740880 -0.00018360131070949137 0.00475226575508713720 0.00093343539629131556 -0.07184705883264541600 -0.05458949133753776600 0.10803899168968201000 0.02458981797099113500 -0.00726575031876564030 0.03759192302823066700 0.00187142600771039720 -0.05091581866145134000 -0.02470757812261581400 -0.00180109031498432160 -0.02534088864922523500 -0.00014474062481895089 -0.00034447549842298031 -0.04709703475236892700 0.04982190951704978900 0.03830480203032493600 0.04124907031655311600 -0.02387394569814205200 0.06448231637477874800 -0.00359166436828672890 -0.00771957403048872950 0.02030068449676036800 -0.00072128290776163340 -0.00008172947855200619 -0.01876425370573997500 -0.00021613889839500189 -0.01116476673632860200 0.00198258785530924800 0.06011359393596649200 0.00080630049342289567 -0.01788970269262790700 0.00083591567818075418 0.02232094295322895100 0.00037998388870619237 0.00138688180595636370 0.03015200980007648500 -0.05528647452592849700 -0.00151845230720937250 -0.02046296186745166800 0.00070878729457035661 0.06845551729202270500 -0.00879758968949317930 0.00433162599802017210 0.01556295342743396800 -0.02152171358466148400 0.04028837755322456400 0.03097045049071312000 -0.00624893931671977040 0.04094001650810241700 0.01176200341433286700 0.00134506204631179570 -0.05956150218844413800 0.01405967958271503400 0.03479807451367378200 -0.06739603728055954000 0.01277886983007192600 0.07811222225427627600 0.02881445921957492800 0.03480555117130279500 0.03280172869563102700 -0.01090197637677192700 0.00246822158806025980 0.03448521718382835400 -0.00167028384748846290 -0.09802303463220596300 0.00453897006809711460 0.08129834383726120000 0.02313388697803020500 0.01639177277684211700 -0.03706615418195724500 0.00097380840452387929 -0.00641476642340421680 -0.01034403499215841300 0.00112868472933769230 -0.04876070469617843600 -0.00045720493653789163 0.00056279124692082405 -0.04502925649285316500 0.02415394410490989700 0.01727133244276046800 0.00436404161155223850 0.02386333607137203200 0.04675569757819175700 0.00826920848339796070 0.00022287131287157536 0.03270002827048301700 -0.00027273700106889009 -0.01912125200033187900 0.02019952237606048600 0.00035320545430295169 -0.00485995830968022350 0.00102863367646932600 0.00515844300389289860 0.01350210327655077000 0.02499351091682910900 -0.00057199952425435185 -0.01685839705169200900 -0.00004706723120762035 -0.00016217553638853133 0.02692326717078685800 -0.05241842940449714700 0.00367151992395520210 0.01954588107764720900 0.00043840522994287312 0.10593285411596298000 -0.01785798557102680200 -0.00709229474887251850 0.02326777763664722400 0.00998166389763355260 0.02723991125822067300 0.03066335432231426200 -0.01986987888813018800 0.02868246287107467700 0.06405903398990631100 -0.00034269830211997032 -0.07520263642072677600 0.01616800762712955500 0.03173511847853660600 -0.07405855506658554100 -0.01741656847298145300 0.11270410567522049000 0.02920699492096900900 0.05323911085724830600 0.03550069034099578900 -0.00768978614360094070 0.00520737748593091960 0.05678720027208328200 -0.00087011640425771475 -0.03183968365192413300 0.05491473525762558000 -0.01427898462861776400 0.02347545139491558100 0.03289662674069404600 -0.05044188722968101500 0.00078750477405264974 -0.05535295605659484900 -0.00025559740606695414 -0.00101820204872637990 -0.02192196808755397800 0.00090441800421103835 0.00133358361199498180 -0.00001659116423979867 -0.02859771065413951900 -0.01596330478787422200 -0.01139388326555490500 0.06589622050523757900 0.03455822169780731200 0.00803914573043584820 0.02182783372700214400 0.01846144162118434900 -0.00158314127475023270 -0.04365050420165062000 -0.02163115516304969800 0.00120102788787335160 0.00361289316788315770 -0.00016888452228158712 -0.05189509317278862000 0.03835760802030563400 0.01167809497565031100 0.00418262183666229250 -0.09805081784725189200 -0.00054470397299155593 0.00064240669598802924 -0.00879589188843965530 -0.03228245675563812300 0.00513273663818836210 0.00340730091556906700 -0.00099212245550006628 0.12837779521942139000 -0.03687384352087974500 -0.03721989318728447000 0.01212303992360830300 0.00497601833194494250 -0.00312729063443839550 0.00452176667749881740 0.03010606952011585200 0.01885210350155830400 0.10046567767858505000 0.00025902310153469443 0.04387493804097175600 0.01003626827150583300 0.01368961669504642500 0.04653477296233177200 -0.04786815866827964800 0.02803109772503376000 -0.00445918878540396690 -0.01215576287358999300 -0.02781077846884727500 0.06989503651857376100 0.00516275130212306980 0.00728265102952718730 -0.00015464937314391136 0.00787184480577707290 0.04415717720985412600 -0.07354328781366348300 0.00394633086398243900 0.02631091326475143400 -0.07768893986940383900 -0.00032942733378149569 -0.10065576434135437000 -0.00753590650856494900 0.00057717663003131747 -0.04373032227158546400 0.00073527917265892029 0.00202482705935835840 -0.00302777998149394990 -0.00958088226616382600 0.01631246693432331100 -0.06688138097524642900 0.01684735529124736800 0.02112853899598121600 -0.01383623015135526700 0.03797833621501922600 -0.03264025598764419600 -0.00069508381420746446 0.02561948262155056000 -0.09322313219308853100 0.00056191469775512815 0.00272731599397957320 -0.00109693675767630340 0.00644055567681789400 0.00697084795683622360 -0.02203680947422981300 0.00669227354228496550 -0.12699484825134277000 -0.00030867414898239076 0.00063573790248483419 -0.03340781852602958700 -0.00967677216976881030 -0.00043040138552896678 0.05681665241718292200 -0.00003616299727582373 0.01135245896875858300 -0.05102223157882690400 -0.09135991334915161100 -0.02446803636848926500 0.07788496464490890500 -0.01784261129796505000 -0.04848941415548324600 0.05673144012689590500 0.01237933244556188600 0.07672654837369918800 0.00077709363540634513 0.02107969671487808200 0.01800769940018653900 0.02064728364348411600 -0.02420395240187645000 -0.02032900229096412700 0.00637742970138788220 0.01019035093486309100 -0.04178740084171295200 0.00703925127163529400 -0.01058990042656660100 -0.00131740130018442870 0.01202924549579620400 -0.00035421538632363081 -0.02547198534011840800 0.01046632975339889500 0.03211111202836036700 0.04869168996810913100 -0.01449834462255239500 -0.03427326679229736300 0.00028131972067058086 0.00387458177283406260 0.00782098527997732160 -0.00296588963828980920 0.02572744712233543400 0.00009735953790368512 -0.00122569140512496230 0.05783170834183692900 0.08066418021917343100 -0.00110090826638042930 -0.01792951673269271900 0.04452219977974891700 -0.04683485999703407300 -0.01191814988851547200 -0.02049915492534637500 -0.03242721781134605400 -0.00045810377923771739 0.02875246293842792500 -0.09357251226902008100 -0.00029861071379855275 -0.03703487291932106000 0.00049667188432067633 -0.02031427621841430700 0.00589566584676504140 -0.03054806031286716500 -0.00659941229969263080 -0.02278044261038303400 -0.00049038650467991829 0.00111480965279042720 0.03286720067262649500 0.04171213507652282700 0.00178669334854930640 0.01670186594128608700 0.00071062316419556737 -0.03721063211560249300 -0.00747744366526603700 -0.09228820353746414200 0.00677503924816846850 -0.03004662133753299700 0.01482143439352512400 0.02227448672056198100 -0.02244245633482933000 0.02372216433286666900 -0.05373235419392585800 -0.00015823428111616522 0.00073884759331122041 0.02804005146026611300 0.01926760189235210400 0.00298827071674168110 0.01799155771732330300 0.03678274154663085900 0.01469005551189184200 -0.01506373006850481000 -0.04078805074095726000 0.02036310359835624700 0.00017207789642270654 0.00995426066219806670 0.00153073784895241260 -0.03597179800271987900 -0.02921056747436523400 0.07783935964107513400 0.04173095524311065700 0.00660789571702480320 0.00098332238849252462 0.00015063816681504250 -0.02575101330876350400 -0.00139573751948773860 -0.00236394978128373620 -0.00123012450058013200 0.00033837690716609359 -0.00004317746424931102 0.03442607447504997300 0.03270457312464714100 0.02689277380704879800 0.02183901891112327600 0.03205588832497596700 -0.02170394174754619600 -0.00824313238263130190 -0.00820557307451963420 0.01440529525279998800 -0.00118594232480973010 0.00805288646370172500 -0.06242762878537178000 0.00038774064159952104 -0.02181380055844783800 -0.00099350011441856623 0.04758419841527938800 0.01520816050469875300 0.00262178876437246800 -0.00632395502179861070 0.00664791837334632870 0.00133962696418166160 0.00347051210701465610 0.02943591773509979200 -0.01492970902472734500 0.00132002867758274080 0.00339398649521172050 0.00061434804229065776 0.06095132604241371200 -0.00767481746152043340 0.00897168833762407300 0.01879537291824817700 0.00608305865898728370 0.02215214632451534300 0.01392107736319303500 -0.04309439659118652300 0.03473623096942901600 -0.00875084754079580310 -0.00009191090794047341 -0.03165782243013382000 0.01822971366345882400 0.02612359635531902300 -0.00356084154918789860 0.03333314880728721600 0.07008746266365051300 0.01227912772446870800 0.02357181534171104400 -0.01667027175426483200 0.00916823465377092360 0.00209547905251383780 0.04216601699590683000 -0.00082094065146520734 -0.04939676076173782300 0.01784536428749561300 0.05755794793367385900 0.03863094374537468000 0.02272306568920612300 -0.03558772802352905300 -0.00044091683230362833 -0.00465654954314231870 0.00288737309165298940 -0.00020621484145522118 -0.00011713745334418491 -0.00038810324622318149 0.00106528331525623800 0.04640242457389831500 0.02386345528066158300 0.01895806565880775500 0.01436944585293531400 0.03363444283604621900 -0.01423095073550939600 0.01143568195402622200 0.00282416632398962970 0.03077039681375026700 0.00029278176953084767 -0.00994104705750942230 -0.03635477274656295800 -0.00105941179208457470 -0.00855454709380865100 0.00054747564718127251 0.00647495361045002940 0.02597008831799030300 0.05960626527667045600 -0.00431678304448723790 0.01911996118724346200 0.00064654875313863158 -0.00087931565940380096 0.02180956117808818800 -0.02542350254952907600 0.00316624599508941170 0.01845506392419338200 -0.00117945135571062560 0.08926510065793991100 -0.00590035226196050640 -0.00635100249201059340 0.02313007973134517700 0.01889564841985702500 -0.00087462138617411256 0.01980870775878429400 -0.03965714946389198300 0.02498415112495422400 0.02762999013066291800 -0.00129449239466339350 -0.02915081009268760700 0.00906244199723005290 0.02642364986240863800 -0.01895495131611824000 0.00740031851455569270 0.10356850922107697000 0.01800903677940368700 0.04547192901372909500 0.00740578025579452510 0.00397460348904132840 0.00042021984700113535 0.06563712656497955300 0.00058319699019193649 -0.00041894614696502686 0.06111474707722663900 -0.01816755346953868900 0.02626222185790538800 0.04194067418575286900 -0.00895260367542505260 -0.00056960276560857892 -0.04172655194997787500 -0.00381756806746125220 0.00086072791600599885 0.01584178023040294600 0.00046878238208591938 0.00084013782907277346 0.08650983124971389800 0.00745002133771777150 -0.00506876455619931220 0.02366287261247634900 0.06867685168981552100 -0.01773112453520298000 0.02058790996670723000 0.02501505240797996500 0.01443846896290779100 -0.00111860444303601980 -0.00590086169540882110 -0.07099542021751403800 -0.00124467513523995880 -0.00351974321529269220 -0.00048984889872372150 -0.05041559040546417200 0.05503491684794426000 0.04292230308055877700 -0.00306916423141956330 -0.02442322298884391800 0.00123866391368210320 -0.00102939503267407420 0.00420884415507316590 -0.00914721563458442690 0.00372153404168784620 -0.01489243097603321100 -0.00083205528790131211 0.11576950550079346000 -0.02862361632287502300 0.00325579568743705750 0.01031568273901939400 0.01357668638229370100 -0.01958649419248104100 -0.00113316939678043130 0.01358731277287006400 0.03220171481370925900 0.05158634111285209700 0.00069239264121279120 0.08968791365623474100 0.00131791317835450170 0.00682955980300903320 0.04474975168704986600 -0.02224451862275600400 0.00898088887333869930 -0.01319121848791837700 -0.01800663396716117900 -0.01606003008782863600 0.06386003643274307300 0.00357551290653645990 0.00943230465054512020 0.00098530773539096117 -0.01914491690695285800 0.05137997493147850000 -0.06331200152635574300 -0.00479478435590863230 0.04175614193081855800 -0.00388007797300815580 0.00051359104691073298 -0.08666305243968963600 -0.01229625102132558800 0.00075278483564034104 -0.02228104509413242300 0.00117263314314186570 -0.00265402649529278280 0.08778686821460723900 0.00438877986744046210 0.01838140934705734300 -0.03116502985358238200 0.05519383400678634600 -0.02836967445909977000 -0.00548210786655545230 0.03367723152041435200 -0.02933362312614917800 -0.00119847583118826150 0.04657560959458351100 -0.07267847657203674300 -0.00045764012611471117 -0.00607302458956837650 -0.00036947827902622521 0.00681023718789219860 0.03408503159880638100 0.00127801054622977970 0.00267296168021857740 -0.07203838229179382300 0.00052104488713666797 -0.00117670663166791200 -0.01720963232219219200 0.02318719401955604600 -0.00054479931714013219 0.06276737898588180500 -0.00009997011511586607 0.02159400843083858500 -0.05423369631171226500 -0.05739027634263038600 -0.02911300398409366600 0.08543068915605545000 -0.01164663955569267300 -0.04902672767639160200 0.03126101568341255200 0.02390519902110099800 0.03483506292104721100 0.00024527602363377810 0.05153863131999969500 0.01704589091241359700 0.00043688141158781946 -0.01996135152876377100 -0.07417988032102584800 0.01237489841878414200 0.02569116093218326600 -0.04967762902379035900 0.08688902109861373900 0.04023352637887001000 -0.00273419939912855630 0.00792906340211629870 0.00033915392123162746 0.00116323947440832850 0.05447069182991981500 -0.02284085750579834000 0.03290383145213127100 -0.00037895844434387982 -0.03907482326030731200 0.00176908483263105150 0.03874125704169273400 0.03128453344106674200 -0.00196543894708156590 -0.01121414452791214000 -0.00080390070797875524 -0.00005819574653287418 0.02709268033504486100 0.15880927443504333000 -0.01055805385112762500 -0.05633250996470451400 0.06177555397152900700 -0.04676234349608421300 -0.01066026557236909900 -0.01457101944833993900 -0.05533808097243309000 0.00063111301278695464 0.02507912926375865900 -0.02545774541795253800 0.00035246030893176794 -0.05504899844527244600 -0.00012299053196329623 -0.06038631126284599300 -0.01724862679839134200 -0.06184995919466018700 -0.01227219402790069600 -0.03753042593598365800 0.00052195496391505003 0.00079156865831464529 0.05177858844399452200 0.07212075591087341300 0.00386018515564501290 0.04689437523484230000 0.00284247822128236290 -0.05212406069040298500 -0.01804684475064277600 -0.16731317341327667000 -0.00156842556316405530 0.03140627592802047700 -0.00208472996018826960 -0.00001520724708825583 0.04101725295186042800 0.01507866289466619500 -0.05023033171892166100 -0.00019820440502371639 0.06355601549148559600 0.01714999601244926500 0.00006935800047358498 0.01051391474902629900 -0.03103883564472198500 -0.00697649363428354260 0.01153911463916301700 -0.04765801131725311300 -0.01521406322717666600 0.06592772901058197000 -0.00021735885820817202 -0.01162979844957590100 0.00081852258881554008 0.01800209470093250300 0.00128050101920962330 0.00017269891395699233 0.02536541968584060700 0.01174631156027317000 -0.01994406804442405700 -0.00042569311335682869 0.01138962432742118800 0.01898025162518024400 -0.00124475290067493920 -0.01915526203811168700 -0.00098394602537155151 -0.00055494601838290691 -0.01492995768785476700 0.07475668191909790000 0.01138485129922628400 -0.05965458974242210400 0.02713958919048309300 0.00386446295306086540 -0.00710643595084548000 0.00266458070836961270 -0.01666046492755413100 0.00126635306514799590 -0.01005663629621267300 -0.07617186009883880600 0.00063845270778983831 -0.04087766632437706000 -0.00071234873030334711 0.03915494680404663100 -0.02051937766373157500 -0.04189594462513923600 -0.01239364128559827800 0.01051691733300685900 0.00209244503639638420 0.00066763436188921332 0.05214767158031463600 0.05753681063652038600 0.00143544666934758420 0.04076509922742843600 0.00103228667285293340 -0.04537668824195861800 -0.00860891491174697880 -0.10296636819839478000 0.00261975638568401340 0.06353603303432464600 -0.00273001240566372870 0.00214732415042817590 0.00341211818158626560 0.01238658186048269300 -0.01754979602992534600 0.00118119549006223680 0.05847219005227088900 0.00516746426001191140 0.00442473450675606730 0.01770581491291523000 -0.00631175795570015910 0.01053890399634838100 0.00003570663466234691 -0.02162196114659309400 -0.03609374538064003000 0.03091607615351676900 -0.00068633351475000381 0.00776123814284801480 0.00159793859347701070 0.02579686418175697300 0.01987279206514358500 -0.01428885851055383700 0.02185603789985179900 0.02226963639259338400 -0.04301013797521591200 0.00013727911573369056 0.00618196371942758560 0.01751147210597991900 -0.00189048622269183400 0.00759989116340875630 0.00142664927989244460 -0.00101730134338140490 -0.02284047752618789700 0.01071946695446968100 0.01376291178166866300 -0.08589911460876464800 -0.01482339110225439100 0.00679390178993344310 0.01415577903389930700 0.01244327891618013400 -0.00240360852330923080 -0.00056248705368489027 -0.01464885380119085300 -0.11599013209342957000 -0.00104993605054914950 -0.02601053565740585300 0.00081495335325598717 0.03422654047608375500 -0.00970939267426729200 0.05696312710642814600 -0.01111458707600832000 0.04830143228173255900 -0.00126548903062939640 -0.00071155640762299299 0.03210325911641120900 0.02939184010028839100 0.00210131565108895300 0.05500462651252746600 -0.00004048413029522635 -0.05109231546521186800 -0.00499626575037837030 -0.11498379707336426000 0.00455608405172824860 0.03846195712685585000 -0.01915516145527362800 0.01394892763346433600 -0.00894706696271896360 -0.00065971713047474623 0.00480635557323694230 0.00016314805543515831 0.04667656123638153100 0.00002933645555458497 0.01355030015110969500 -0.00646368693560361860 -0.04350145906209945700 0.03858296200633049000 0.00355285173282027240 0.00606449274346232410 0.03126680478453636200 -0.01836367882788181300 -0.00116493436507880690 0.02642384916543960600 -0.00001753112519509159 0.03737159073352813700 0.04306188598275184600 -0.05294163152575492900 -0.00258774426765739920 0.03954464569687843300 -0.01481939479708671600 -0.00168606231454759840 -0.00637809978798031810 -0.00268798018805682660 -0.00021789930178783834 0.03850427642464637800 -0.00011912640911759809 0.00030942188459448516 0.01856056787073612200 0.01065534818917512900 0.00021344999549910426 -0.08889826387166976900 0.04616686329245567300 -0.02181452512741088900 0.02124139666557312000 0.02042119204998016400 -0.00979210343211889270 0.00029700945015065372 0.02192599512636661500 -0.10384070873260498000 -0.00112575979437679050 -0.01323154009878635400 -0.00108800351154059170 -0.00122876162640750410 0.02887381799519062000 0.06804775446653366100 -0.00219764909707009790 0.02402286417782306700 0.00083391647785902023 0.00083298789104446769 0.00650829821825027470 0.00716260960325598720 0.00250277761369943620 0.02987771481275558500 0.00027800575480796397 -0.01357174012809991800 -0.03217380493879318200 -0.07046057283878326400 -0.00811952259391546250 0.01668672263622283900 -0.01097222696989774700 -0.00052214902825653553 0.02987540885806083700 0.02120946720242500300 0.02022207900881767300 0.00016785900515969843 0.13681414723396301000 -0.00407522358000278470 -0.00032695510890334845 0.01422165893018245700 -0.07986927032470703100 -0.03528957441449165300 -0.01223035715520381900 -0.04333371296525001500 0.07792313396930694600 -0.00243422994390130040 -0.00018211438145954162 -0.02014925330877304100 0.00147222692612558600 -0.03210632503032684300 0.03128843009471893300 -0.06853262335062027000 -0.04362764954566955600 0.04361652582883834800 0.03295191749930381800 -0.00119804649148136380 -0.04360327124595642100 -0.01549331657588481900 -0.00076863716822117567 0.00636894674971699710 -0.00235563027672469620 0.00053740874864161015 0.03795051574707031300 0.02012630365788936600 0.01854719780385494200 -0.11902477592229843000 0.04443212971091270400 -0.05011365562677383400 -0.01360116712749004400 0.02733690850436687500 -0.03938220441341400100 -0.00052354839863255620 0.05231165885925293000 -0.04733226448297500600 0.00141539273317903280 -0.01202687527984380700 0.00073323526885360479 0.08720032870769500700 0.02386361546814441700 0.01781749725341796900 0.01096802949905395500 -0.02760242670774459800 0.00079216889571398497 -0.00028446194482967257 -0.00296809780411422250 0.01846706680953502700 -0.00269794114865362640 0.12606687843799591000 -0.00042366553680039942 -0.04175866022706031800 -0.07009049504995346100 -0.11772270500659943000 -0.04488170146942138700 0.08426429331302642800 0.00798620004206895830 -0.04116404429078102100 0.04601550102233886700 0.02368715964257717100 0.00275494949892163280 -0.00022965468815527856 -0.03235762193799018900 -0.00665777875110507010 0.03344630822539329500 0.08449240028858184800 0.08385009318590164200 -0.04820106923580169700 0.03778896108269691500 -0.02081388607621192900 -0.06317187845706939700 0.08919115364551544200 -0.00549279339611530300 0.04125138744711875900 -0.00010339657455915585 -0.13540649414062500000 -0.06378065794706344600 0.06003746762871742200 0.03068793937563896200 0.00826289784163236620 -0.19806417822837830000 0.00004938859274261631 0.04537409543991088900 -0.02895906753838062300 -0.00180173385888338090 0.01025600545108318300 -0.00071864289930090308 0.00049062480684369802 -0.11689545214176178000 -0.06793145090341568000 -0.00727652944624423980 -0.05382553860545158400 0.07493151724338531500 0.00210896483622491360 0.02933003380894660900 -0.02205847389996051800 -0.02111074514687061300 0.00133602693676948550 -0.18609365820884705000 0.02531221881508827200 0.00192410743329674010 0.00602362863719463350 -0.00073536398122087121 -0.31554460525512695000 0.02373263984918594400 -0.01029849052429199200 0.00194383854977786540 0.32879221439361572000 0.00206037843599915500 0.00010213249333901331 0.02097011543810367600 0.03707319498062133800 0.00073451327625662088 -0.12724477052688599000 0.00101276172790676360 -0.07121360301971435500 0.03460064157843589800 -0.04036129638552665700 -0.02029227837920188900 0.11234199255704880000 -0.02252076007425785100 0.00792807806283235550 0.10388167947530746000 -0.01032803021371364600 -0.06620625406503677400 -0.00039381516398862004 0.02372925728559494000 0.01252857130020856900 0.03433826565742492700 -0.03347852081060409500 0.15000756084918976000 0.01987059600651264200 0.05257129296660423300 0.03038570471107959700 0.02409437298774719200 0.02584868110716342900 -0.01286498364061117200 0.00731366267427802090 0.00023670840892009437 -0.04971859231591224700 0.00622615031898021700 -0.03842299804091453600 0.00783514697104692460 0.00052015803521499038 -0.01602331735193729400 -0.00144370365887880330 0.06989106535911560100 -0.03436153009533882100 -0.00207973644137382510 -0.05416861549019813500 -0.00031746318563818932 -0.00008348140545422211 0.01173914782702922800 0.00043091256520710886 -0.00203042710199952130 -0.06210978701710701000 -0.02662749402225017500 0.00475456519052386280 0.02081794664263725300 0.00498455530032515530 -0.00108832761179655790 0.00044625691953115165 -0.06523177772760391200 0.02293497696518898000 0.00078796880552545190 -0.00113570143003016710 0.00039574157563038170 0.02072797156870365100 -0.01613113656640052800 0.00368109392002224920 0.00743121700361371040 0.12364225089550018000 0.00117763539310544730 -0.00045477802632376552 0.03410264849662780800 -0.09212124347686767600 -0.00043425621697679162 0.07036721706390380900 0.00077788793714717031 0.01824551448225975000 0.01201251801103353500 0.04592108726501464800 -0.01357668545097112700 0.12049142271280289000 0.00435331277549266820 0.00461242487654089930 0.03040480427443981200 0.00210376828908920290 0.03417201340198516800 -0.00033629694371484220 -0.02998418547213077500 0.01300228573381900800 0.03070870973169803600 -0.02807490900158882100 0.03264411911368370100 0.01074949000030756000 0.02630485966801643400 -0.00276369368657469750 0.04943153262138366700 0.04098590835928916900 -0.01245700381696224200 0.02362653240561485300 -0.00033393601188436151 0.00778062362223863600 0.04880724847316741900 -0.08972290158271789600 -0.01375093962997198100 -0.01221189834177494000 -0.03466679528355598400 -0.00056140922242775559 -0.05369347333908081100 -0.01096156239509582500 -0.00191217323299497370 0.06619376689195632900 0.00048420246457681060 -0.00068208680022507906 0.06344220042228698700 0.04415673390030860900 -0.00585403572767972950 -0.05757718160748481800 -0.01653267070651054400 0.01403138134628534300 0.00030420534312725067 0.00674264272674918170 0.01420159265398979200 -0.00072296574944630265 0.02213147468864917800 -0.07316304743289947500 0.00153388094622641800 0.01250709220767021200 -0.00039409787859767675 0.01024429034441709500 0.02329197339713573500 0.00746398698538541790 0.01242350321263074900 -0.17897383868694305000 0.00121216569095849990 0.00132639345247298480 0.03140403702855110200 -0.06300373375415802000 -0.00321141444146633150 0.08108897507190704300 -0.00078713370021432638 0.01383573375642299700 0.01773007586598396300 0.08792942762374877900 -0.00714463507756590840 0.08947544544935226400 0.00910841859877109530 0.00394945172592997550 0.03409106656908989000 0.00442007090896368030 -0.05630673468112945600 -0.00042855393257923424 -0.08840742707252502400 0.00676241051405668260 -0.00153043447062373160 -0.06673318892717361500 -0.01751364208757877300 -0.03941269218921661400 -0.01137912180274725000 -0.06657133251428604100 -0.05421349778771400500 0.11820217221975327000 -0.00800055824220180510 -0.01826849207282066300 -0.00126950687263160940 0.00306996400468051430 0.07314722985029220600 -0.06351576000452041600 -0.00927254650741815570 -0.01645600423216819800 -0.03648368641734123200 -0.00071187736466526985 0.00128889782354235650 0.01673040166497230500 -0.00189700594637542960 0.03698070347309112500 -0.00121263356413692240 0.00086401781300082803 -0.02693129144608974500 0.05653449892997741700 0.04150947555899620100 -0.01108085364103317300 -0.01661752909421920800 -0.01902969740331172900 -0.03117652423679828600 -0.00092477747239172459 -0.00911650247871875760 0.00103137549012899400 0.07946983724832534800 -0.16440555453300476000 -0.00252828793600201610 0.00558162759989500050 -0.00008262997289421037 0.13842692971229553000 0.03902868181467056300 -0.01641386002302169800 -0.00123897113371640440 -0.11591256409883499000 -0.00026173266815021634 -0.00057757168542593718 0.01677615381777286500 -0.07438063621520996100 -0.00168675521854311230 0.03962558507919311500 -0.00124068290460854770 0.03890866786241531400 0.01583646237850189200 0.06303860247135162400 -0.00676989136263728140 0.14806990325450897000 -0.01032882742583751700 -0.01311070378869772000 -0.02402498200535774200 -0.00213063089177012440 -0.09627394378185272200 -0.00126921664923429490 -0.01257975678890943500 -0.00447539379820227620 -0.00093601184198632836 -0.05604426935315132100 -0.03712804615497589100 0.09869750589132309000 -0.01712870225310325600 0.00788116920739412310 0.00995771586894989010 0.04114265739917755100 -0.00523704756051301960 0.01564314216375351000 0.00103248993400484320 -0.04982842877507209800 -0.01217648480087518700 0.01410556863993406300 0.01468389295041561100 -0.01001318637281656300 0.12363694608211517000 0.00050496798940002918 0.05878968164324760400 -0.00036905592423863709 -0.00236605107784271240 -0.12474821507930756000 -0.00041346161742694676 0.00102145329583436250 -0.02170124463737011000 0.14557385444641113000 0.02669992297887802100 0.02877572178840637200 -0.03039924241602420800 -0.11669120192527771000 -0.04379725456237793000 -0.01402776315808296200 -0.01587858423590660100 0.00012073624384356663 0.07207980751991272000 0.00054725073277950287 -0.00072529312456026673 -0.01090604718774557100 -0.00167209818027913570 -0.05137592554092407200 0.07862533628940582300 0.05978509411215782200 -0.01331975311040878300 0.14020054042339325000 0.00133235659450292590 -0.00019830142264254391 0.01193986088037490800 -0.21245916187763214000 -0.00245412997901439670 -0.03798551112413406400 -0.00168864452280104160 0.15970267355442047000 -0.04741856455802917500 -0.00240324833430349830 0.00533432140946388240 0.06016005575656890900 -0.03221626579761505100 -0.02761300839483737900 -0.05575311183929443400 0.00664784479886293410 0.03286356106400489800 0.00111007876694202420 0.11633563041687012000 -0.00383341475389897820 0.00666816718876361850 0.09295155853033065800 0.05821905285120010400 0.00791130866855382920 0.00549699924886226650 -0.02496115304529666900 0.01249007787555456200 0.03368456661701202400 -0.00605078367516398430 0.05206515640020370500 -0.00031452748226001859 -0.02482847869396209700 -0.05434082821011543300 0.11765006184577942000 0.00051272194832563400 0.00980681553483009340 0.00524563016369938850 -0.00055333290947601199 0.04677009209990501400 -0.05835131183266639700 -0.00151315913535654540 0.03398520126938819900 0.00032851166906766593 0.00023528427118435502 -0.12715263664722443000 -0.07270407676696777300 -0.03332089632749557500 0.05242338404059410100 -0.01682848855853080700 0.01485258713364601100 0.00568844284862279890 -0.02279129810631275200 -0.00507127493619918820 -0.00039450547774322331 -0.12443732470273972000 0.13581693172454834000 0.00028679223032668233 0.00125330535229295490 -0.00225491099990904330 -0.10375412553548813000 0.07858052104711532600 0.01145241223275661500 -0.00543811358511447910 0.19773703813552856000 0.00081410323036834598 0.00106870790477842090 0.00129173928871750830 0.00979872234165668490 -0.00029762962367385626 -0.06753228604793548600 -0.00160562247037887570 -0.01264250371605157900 0.00222501927055418490 -0.01702219992876052900 -0.00266464753076434140 -0.02559061720967292800 -0.00781033979728817940 0.00147944071795791390 0.11079640686511993000 -0.01740816049277782400 0.01306953933089971500 -0.00020809126726817340 -0.03240311518311500500 0.00926954112946987150 0.00841519981622695920 -0.03260845690965652500 0.10742765665054321000 0.00825701374560594560 0.02911347337067127200 0.01301672868430614500 0.04989052563905715900 -0.08061145991086959800 -0.00759635819122195240 -0.00142853660508990290 -0.00042135705007240176 0.05680603161454200700 0.02770936861634254500 0.00406694971024990080 -0.01470046304166317000 0.00687580881640315060 0.10505936294794083000 -0.00089462852338328958 -0.02268308028578758200 -0.04872763529419899000 0.00021539072622545063 -0.04470400884747505200 0.00114567985292524100 0.00087312702089548111 -0.05531685426831245400 -0.01126557309180498100 -0.01603451743721962000 0.03564705327153205900 -0.04078382998704910300 0.00912952516227960590 0.01655697822570800800 0.01317180134356021900 -0.01023878250271081900 0.00064862804720178246 -0.04590480029582977300 0.04500702396035194400 -0.00062364508630707860 -0.00885816104710102080 0.00044392739073373377 0.10216155648231506000 0.04071690142154693600 0.06272178143262863200 -0.00372330937534570690 0.04546146094799041700 -0.00013799472071696073 -0.00009003480954561383 0.01830902136862278000 -0.03172610327601432800 -0.00463063642382621770 0.02954131364822387700 0.00004422319398145191 0.01945601589977741200 -0.00440838048234581950 0.01265180483460426300 0.00095166557002812624 0.04246772825717926000 0.01576935127377510100 0.01848716288805007900 -0.05381595343351364100 -0.00520579842850565910 0.08889321237802505500 -0.00068625569110736251 -0.11981410533189774000 0.01048006583005189900 0.00996976532042026520 -0.01132762990891933400 -0.00606452254578471180 -0.05541865900158882100 0.00869842898100614550 -0.01994352415204048200 0.02663525193929672200 -0.09765048325061798100 -0.00704815611243247990 -0.00968316011130809780 0.00065386749338358641 0.07580617815256118800 0.03298885747790336600 -0.07159093022346496600 -0.02358381636440753900 0.00059479195624589920 -0.00586677109822630880 0.00033293958404101431 -0.11457444727420807000 -0.02310430444777011900 0.00009991517435992137 0.08796481043100357100 -0.00066495675127953291 0.00072722171898931265 0.06384081393480300900 0.00584468152374029160 -0.03094150312244892100 -0.02157071232795715300 -0.02548791095614433300 0.05661247298121452300 0.02190629392862319900 0.03130738064646720900 0.00143616320565342900 0.00080886448267847300 -0.03810356557369232200 -0.01466102339327335400 -0.00079687335528433323 0.00708303973078727720 -0.00024201119958888739 -0.01819524355232715600 0.02702567353844642600 0.06401867419481277500 0.00378179224207997320 -0.23031403124332428000 0.00144716072827577590 0.00053720857249572873 0.02526615373790264100 0.06373021006584167500 -0.00689308950677514080 0.06915066391229629500 0.00010129627480637282 -0.07291515171527862500 0.01811618357896804800 -0.02714078500866890000 0.00764904916286468510 -0.02854503318667411800 0.01062105130404233900 0.03746535629034042400 -0.06839170306921005200 -0.00440780026838183400 0.00356664718128740790 0.00019180196977686137 -0.11011060327291489000 0.00283901486545801160 -0.01207679510116577100 -0.00469939829781651500 -0.05436591431498527500 -0.10009630769491196000 -0.01750193350017070800 -0.06175469979643821700 -0.09581813961267471300 -0.04222251102328300500 -0.00683421501889824870 -0.06210671737790107700 0.00009746804425958544 0.00400129798799753190 0.02521325461566448200 -0.07398664951324462900 -0.01093911286443471900 -0.00509486347436904910 0.01469773333519697200 0.00284438766539096830 0.02969645522534847300 -0.00489661609753966330 0.00069176749093458056 0.04364212974905967700 -0.00009283299732487649 0.00037233685725368559 0.05764234066009521500 0.03938416391611099200 0.01380050461739301700 -0.03865139931440353400 -0.00627931114286184310 0.04723268747329711900 0.01364561636000871700 0.01761789992451667800 -0.02128040604293346400 -0.00126476935110986230 0.06037632375955581700 -0.06943936645984649700 -0.00130179955158382650 0.00976642221212387080 -0.00225750263780355450 0.09595955163240432700 0.00973608810454607010 0.03481070697307586700 -0.00630151852965354920 -0.14118261635303497000 -0.00117186189163476230 0.00088921631686389446 0.01375698763877153400 0.08181282132863998400 -0.00367940729483962060 0.09724732488393783600 0.00020978781685698777 -0.08460917323827743500 0.02220696583390235900 -0.08957361429929733300 0.00865885429084300990 0.02042405493557453200 -0.01420805510133504900 0.02993161603808403000 -0.05526013299822807300 -0.01294632535427808800 -0.04084948450326919600 -0.00039294804446399212 0.05564061552286148100 -0.00443008868023753170 0.00791985448449850080 0.00652849115431308750 -0.11346717178821564000 0.01883680000901222200 -0.00745570939034223560 0.03035146556794643400 0.00071304489392787218 -0.05926764383912086500 -0.00411372212693095210 -0.02828553505241870900 0.00052680977387353778 -0.05031506344676017800 -0.03925381973385810900 -0.01285460125654935800 0.00685440143570303920 0.00118092831689864400 0.09467397630214691200 0.00148976629134267570 0.07181041687726974500 -0.00844086706638336180 -0.00057592662051320076 -0.12545453011989594000 -0.00068202783586457372 0.00052852794760838151 0.02151084691286087000 0.05812004953622818000 -0.00446780445054173470 -0.00349212484434247020 -0.00502595864236354830 -0.06023601070046424900 0.01983213983476162000 -0.00693151121959090230 -0.02776049636304378500 -0.00149509531911462550 0.01293147541582584400 -0.05439485609531402600 -0.00205187546089291570 0.00324358814395964150 0.00006961046892683953 -0.09466685354709625200 0.05225575715303421000 0.09902059286832809400 -0.01140891108661890000 0.10295176506042480000 0.00027655044686980546 0.00006459175347117707 -0.00275972555391490460 -0.02604536153376102400 -0.00651135109364986420 0.03903326392173767100 -0.00100849859882146120 0.04013710096478462200 -0.03505848348140716600 -0.05854663997888565100 0.01861969195306301100 -0.05452818796038627600 -0.03754930943250656100 0.02450408786535263100 -0.07440581172704696700 -0.00123087642714381220 -0.01548586599528789500 0.00054998765699565411 0.07764770090579986600 -0.00576364621520042420 -0.00205993722192943100 0.05532742664217948900 0.01993631571531295800 0.01220976840704679500 -0.00423456355929374690 -0.02776059880852699300 0.00858165137469768520 0.05310970172286033600 -0.00103849184233695270 0.03536035865545272800 0.00138647854328155520 -0.01447372790426015900 -0.04002574831247329700 0.11900737881660461000 -0.00291388202458620070 0.01333871390670537900 0.01104268338531255700 0.00046347160241566598 0.05705597996711731000 -0.06035966426134109500 -0.00145705533213913440 0.04131514206528663600 -0.00077018787851557136 -0.00066794466692954302 -0.05210673809051513700 -0.04998005181550979600 -0.04582955688238143900 0.09071789681911468500 -0.02141905762255191800 -0.00673307804390788080 -0.01316244807094335600 -0.03339220210909843400 0.03586882352828979500 -0.00164902396500110630 -0.05689508095383644100 0.08478029072284698500 -0.00001778176556399558 -0.00083028030348941684 0.00073620030889287591 -0.07213526219129562400 0.03520524874329567000 -0.02721818350255489300 -0.00553226191550493240 0.12235073745250702000 -0.00139828759711235760 0.00009623851656215265 -0.01892088167369365700 -0.01702588610351085700 0.00108350289519876240 -0.11991997808218002000 -0.00112047290895134210 -0.00089867616770789027 -0.02021285332739353200 0.01237191352993249900 -0.00560111878439784050 -0.04612802341580390900 -0.00502661196514964100 0.00324396952055394650 0.05325285345315933200 -0.02284295298159122500 -0.00606459472328424450 -0.00134753773454576730 -0.07755947113037109400 0.00673969322815537450 0.00498487753793597220 -0.03215840458869934100 0.04595512524247169500 0.01636763475835323300 0.01769069954752922100 0.01662634313106536900 0.03926609829068183900 -0.03253148868680000300 -0.00586365442723035810 -0.01348000206053257000 -0.00023226834309753031 0.04149119555950164800 0.05149077251553535500 0.01827730797231197400 -0.02295763790607452400 0.01565669290721416500 0.04361964017152786300 0.00204761046916246410 -0.03422729298472404500 -0.03582829982042312600 -0.00127693114336580040 -0.05120571702718734700 0.00152810045983642340 -0.00063867389690130949 -0.10683476924896240000 -0.00635920651257038120 -0.01139948144555091900 0.09066309034824371300 -0.02955119498074054700 -0.02469056472182273900 0.00652545876801013950 0.00991431530565023420 0.00724953692406415940 -0.00088239501928910613 -0.01426774822175502800 0.00584495859220623970 -0.00012450905342120677 -0.01532022189348936100 -0.00053002417553216219 0.09638124704360961900 -0.00218226271681487560 -0.00931684114038944240 -0.00612405687570571900 0.03355489671230316200 0.00158407562412321570 -0.00012955720012541860 0.00135998497717082500 -0.02841793932020664200 -0.00688782148063182830 -0.02649404667317867300 0.00052315741777420044 0.02041169814765453300 -0.01460698153823614100 0.03527572005987167400 -0.00603933027014136310 0.07430908828973770100 0.01994198374450206800 0.01530511304736137400 -0.07208020985126495400 -0.01352993305772543000 0.06299528479576110800 -0.00007140098750824109 -0.11518089473247528000 0.00505137955769896510 0.00570844486355781560 -0.03156664222478866600 -0.06970603764057159400 -0.04182783514261245700 -0.01417823228985071200 -0.00594257609918713570 0.05157995596528053300 -0.06839526444673538200 -0.00658778008073568340 -0.02389866858720779400 0.00094261654885485768 0.05344422906637191800 0.03492250293493270900 -0.05997781082987785300 -0.02375223860144615200 0.01217717304825782800 -0.05061642080545425400 0.00050695840036496520 -0.18421965837478638000 -0.00381956691853702070 0.00119225331582129000 0.09320031851530075100 0.00132251437753438950 -0.00216234498657286170 -0.01691281609237194100 -0.05395111441612243700 -0.03092416375875473000 -0.02280378527939319600 -0.04614194110035896300 0.02170767635107040400 0.02480834536254406000 0.03937124088406562800 0.00338333332911133770 0.00080628856085240841 -0.00482053309679031370 0.04181613400578498800 -0.00012133824202464893 -0.00113563227932900190 0.00042048937757499516 -0.03277948498725891100 -0.02260119095444679300 -0.03279501572251319900 -0.00197067158296704290 -0.18921582400798798000 -0.00027873815270140767 -0.00031743966974318027 0.01418903749436140100 0.10165164619684219000 -0.00873080827295780180 0.06566781550645828200 0.00062441884074360132 -0.07592314481735229500 0.01841211691498756400 -0.02112084068357944500 -0.00120883830823004250 0.00530077889561653140 0.01301730424165725700 0.03086253255605697600 -0.05876607447862625100 -0.00500824814662337300 -0.01151853427290916400 -0.00036730285501107574 -0.07924973964691162100 -0.00444499636068940160 -0.01648517884314060200 -0.03281753137707710300 -0.08413868397474288900 -0.07509525865316391000 -0.05963586270809173600 -0.04327730834484100300 0.00599308917298913000 -0.05812567472457885700 -0.00411699386313557620 -0.06464531272649765000 -0.00097769545391201973 -0.01604363322257995600 0.01231820788234472300 -0.06515733897686004600 -0.01716708950698375700 0.00682023493573069570 -0.01224428974092006700 -0.00041786034125834703 0.00633402494713664050 0.01321081258356571200 0.00075878080679103732 0.06095084920525550800 0.00078430853318423033 -0.00100387993734329940 0.00106817588675767180 0.00836874824017286300 0.00085062062134966254 -0.04036172106862068200 -0.02217508107423782300 0.05313372984528541600 0.03354867547750473000 0.03514112532138824500 -0.02292015589773654900 0.00066879286896437407 0.10330036282539368000 -0.01797471381723880800 -0.00118242751341313120 0.00237455149181187150 0.00104816327802836890 0.06479805707931518600 -0.08096082508563995400 -0.03874607384204864500 -0.01233169157058000600 -0.16344901919364929000 -0.00165061594452708960 0.00108305027242749930 0.01147254370152950300 0.13773600757122040000 -0.00689181312918663020 0.08803662657737731900 0.00156793033238500360 -0.08967670053243637100 0.02449381910264492000 -0.08282676339149475100 0.00589091842994093890 0.06929364800453186000 -0.01436624582856893500 0.01926152594387531300 -0.00272707850672304630 -0.01303969603031873700 -0.01389265339821577100 0.00028710515471175313 0.05357917770743370100 -0.00929655414074659350 0.00525766471400856970 0.02358805015683174100 -0.11418497562408447000 0.03265962004661560100 -0.06613500416278839100 0.05241480097174644500 0.05421193316578865100 -0.05859392136335372900 -0.00342262280173599720 -0.02983701042830944100 -0.00017906622088048607 -0.04970837384462356600 -0.03791208565235137900 -0.00544583331793546680 -0.01164749171584844600 0.00576555728912353520 -0.02639212831854820300 -0.00148085202090442180 0.08259206265211105300 0.00264307321049273010 0.00105514388997107740 -0.07913439720869064300 0.00056965090334415436 0.00008964973676484078 -0.05682246387004852300 0.11630913615226746000 -0.01835936494171619400 -0.01820031926035881000 0.01334814168512821200 -0.02602300234138965600 0.04743792861700058000 0.00758775975555181500 -0.03441381454467773400 0.00130103703122586010 0.00772253889590501790 -0.07576134800910949700 0.00093562697293236852 -0.00281231198459863660 -0.00070082070305943489 -0.12254367023706436000 -0.04681956022977829000 0.02326744049787521400 -0.01925049908459186600 0.02728209085762500800 -0.00059500552015379071 0.00076937401900067925 -0.00150073680561035870 0.03746550530195236200 -0.00891968421638011930 -0.00137593899853527550 -0.00132974039297550920 0.02506037428975105300 -0.02737257815897464800 -0.04809592664241790800 0.01567983441054821000 -0.02647986449301242800 -0.03007411397993564600 0.01724300533533096300 -0.00973646063357591630 -0.00811446923762559890 0.01461546216160059000 -0.00030059868004173040 0.12554372847080231000 -0.00920372176915407180 -0.01184006687253713600 0.00510212872177362440 0.02334245108067989300 -0.03145882487297058100 -0.00477607361972332000 -0.03697018325328826900 -0.03050388023257255600 0.08876264095306396500 0.00027014478109776974 0.02381991595029830900 0.00047207038733176887 -0.03957714885473251300 -0.04068013280630111700 0.07250472903251647900 0.02328774519264698000 0.00652244640514254570 -0.00628521852195262910 -0.00032950812601484358 0.06551452726125717200 -0.05370857566595077500 0.00047960944357328117 0.04799777269363403300 0.00088506791507825255 0.00128429941833019260 0.02927167154848575600 -0.02908387780189514200 -0.02324504405260086100 0.07138741761445999100 0.01346234232187271100 -0.00179747305810451510 -0.03407400846481323200 -0.04161811992526054400 0.05728835612535476700 -0.00081116682849824429 -0.08515717089176178000 0.04827629029750824000 -0.00063897483050823212 -0.01219539437443018000 0.00034756379318423569 -0.08303260803222656300 0.01047156937420368200 0.01888131164014339400 -0.00085158296860754490 0.07509237527847290000 0.00171365553978830580 -0.00059351697564125061 -0.03189929202198982200 -0.03016754426062107100 0.00033735306351445615 -0.06546036899089813200 0.00178418098948895930 -0.01137362048029899600 -0.02193557657301425900 -0.01245797239243984200 -0.01133655104786157600 0.01579738967120647400 0.00071750790812075138 0.00089623004896566272 0.03753517568111419700 -0.01390087138861417800 -0.03800128400325775100 -0.00020370550919324160 -0.00054065638687461615 0.00012498033174779266 -0.00558617152273654940 -0.01347207650542259200 0.08033513277769088700 0.03318970277905464200 0.03559550642967224100 0.02878188341856002800 -0.05078748986124992400 0.05915180593729019200 -0.00459645176306366920 -0.01481867767870426200 0.00176973559428006410 0.01358769647777080500 0.03886430338025093100 0.00680674053728580470 0.00236425455659627910 0.01277557853609323500 0.03319916501641273500 0.00048293618601746857 0.05428191274404525800 -0.02630197256803512600 -0.00054065912263467908 -0.03663573414087295500 -0.00006157081952551380 0.00081152498023584485 -0.04808527603745460500 0.02713796868920326200 0.00206374353729188440 0.08776096254587173500 -0.05257827416062355000 -0.02242891862988472000 -0.01585155539214611100 0.00029059284133836627 0.02763323672115802800 -0.00015280699881259352 -0.05020152404904365500 0.02814888022840023000 0.00047338660806417465 -0.02429109998047351800 0.00236339122056961060 0.11480788886547089000 -0.02835151366889476800 0.00153891241643577810 -0.00584004679694771770 0.02981558814644813500 -0.00003002920857397839 0.00014259590534493327 -0.01260079536586999900 -0.07125592231750488300 -0.00301657826639711860 0.03359923139214515700 0.00005141235305927694 0.03691322728991508500 -0.01383765786886215200 0.02030004560947418200 -0.01036340091377496700 0.09022685885429382300 0.02279846183955669400 -0.01237692963331937800 -0.02712821960449218800 -0.01224342174828052500 0.05552613735198974600 -0.00019833035185001791 -0.03633437678217887900 -0.00031788760679773986 0.00091737147886306047 -0.03875905647873878500 -0.02229421399533748600 0.03464788943529129000 0.01819167844951152800 0.02378384396433830300 0.02238808013498783100 0.01976696588099002800 -0.00221553817391395570 -0.00420921901240944860 0.00074206123827025294 -0.02428062446415424300 0.03891312703490257300 -0.03911583498120307900 -0.00268661766313016410 0.00874675903469324110 -0.03073964826762676200 0.00061346375150606036 -0.14288531243801117000 0.00828360579907894130 -0.00030437766690738499 0.07337296754121780400 0.00172084162477403880 -0.00006783729622839019 -0.03311555460095405600 -0.01236122380942106200 -0.01641000434756279000 -0.00437246588990092280 -0.05359225347638130200 -0.01712410897016525300 0.00630102166905999180 0.03359209746122360200 0.01330965105444192900 -0.00010972141899401322 0.00264732656069099900 0.04375258833169937100 -0.00100000691600143910 -0.01178386155515909200 0.00028216771897859871 0.00015554417041130364 -0.03067475184798240700 -0.05228538438677787800 -0.00703056761994957920 -0.09724526852369308500 -0.00039129817741923034 0.00143949920311570170 0.00637276936322450640 0.04610194638371467600 -0.00782368984073400500 0.09416856616735458400 0.00005929380131419748 0.01733144186437130000 0.01758441887795925100 0.01517323683947324800 0.00045781902736052871 0.03976677358150482200 0.02211185358464717900 -0.00613230094313621520 0.01734054647386074100 -0.00471810530871152880 -0.00274976133368909360 -0.00030609426903538406 -0.04501381888985633900 -0.00835487898439168930 -0.01878901384770870200 -0.06842458248138427700 -0.01988879218697547900 -0.00857632514089345930 -0.02862353250384330700 -0.01027435436844825700 0.05582058802247047400 -0.01637787744402885400 -0.00210936274379491810 -0.02554744295775890400 0.00000414233363699168 -0.06009440496563911400 0.05081327632069587700 -0.02513761818408966100 0.00051957019604742527 0.00780739868059754370 -0.02381946332752704600 -0.00011950456973863766 -0.01541857887059450100 0.02155069261789321900 0.00193342845886945720 0.02910657040774822200 -0.00032169831683859229 -0.00103365478571504350 -0.03478443622589111300 -0.02588670328259468100 -0.00111502408981323240 0.03054867498576641100 -0.02607832662761211400 0.01915025152266025500 0.02604428492486476900 0.03411920368671417200 -0.02428359165787696800 -0.00053484342060983181 0.03017014265060424800 -0.02541959285736084000 -0.00012514428817667067 -0.00522242346778512000 0.00070359895471483469 0.14025895297527313000 -0.07815358042716980000 -0.02927873097360134100 -0.01586128212511539500 -0.13127616047859192000 0.00058444403111934662 0.00099747756030410528 0.00933254696428775790 0.08816167712211608900 -0.00478071905672550200 0.09136497974395752000 0.00014680497406516224 0.01741001009941101100 0.02478815056383609800 -0.00212458707392215730 0.01230734027922153500 0.09787588566541671800 -0.00421690521761775020 -0.01304656546562910100 0.08429151773452758800 -0.00757902441546320920 0.00105981912929564710 -0.00031616911292076111 0.03904852271080017100 -0.01548741012811660800 0.00024556895368732512 0.02886923961341381100 0.01166689116507768600 0.05766635015606880200 -0.07448095828294754000 0.06346793472766876200 0.03508226945996284500 -0.04615850374102592500 -0.00165527011267840860 0.00707056000828742980 0.00046271507744677365 -0.02135669440031051600 0.03371303528547287000 0.02422743104398250600 0.00090472114970907569 0.00749371107667684560 -0.07212983816862106300 -0.00044434383744373918 0.06954699754714965800 0.01473154406994581200 0.00071632477920502424 -0.05382769927382469200 -0.00015272544987965375 0.00018836307572200894 -0.08817230910062789900 0.13028873503208160000 -0.02116242796182632400 -0.04742952808737754800 0.03949643671512603800 -0.03414546698331832900 0.05467043071985244800 0.00956431869417428970 -0.03969411179423332200 0.00061726442072540522 -0.01780606247484684000 -0.05111579969525337200 0.00220062886364758010 -0.01108912937343120600 -0.00047756821732036769 -0.02862313762307167100 -0.05601156130433082600 0.07214219868183136000 -0.03093908727169036900 -0.03079809620976448100 0.00044223209260962903 0.00088478188263252378 0.00302912364713847640 -0.00217750528827309610 -0.00771157536655664440 0.01668854989111423500 -0.00105707149486988780 0.06201492622494697600 -0.01568518765270710000 0.04810420051217079200 0.01850775815546512600 -0.05210106819868087800 -0.01814307644963264500 -0.00146606506314128640 0.08574745804071426400 -0.00778564810752868650 0.04914501681923866300 -0.00191622669808566570 0.03537337854504585300 -0.01774641312658786800 -0.02685276232659816700 -0.04095900058746337900 -0.02060528844594955400 -0.11213677376508713000 0.00833655986934900280 -0.07387519627809524500 -0.04546261951327323900 0.02365920878946781200 0.00593290338292717930 0.02725734002888202700 -0.00043982066563330591 -0.04061047732830047600 -0.07151183485984802200 -0.01907350867986679100 0.04182458668947219800 -0.01011000853031873700 -0.07107486575841903700 0.00138905225321650510 -0.03398090973496437100 -0.04199061542749404900 -0.00246281037107110020 0.02296007424592971800 -0.00006009262142470107 -0.00090833421563729644 0.01052277162671089200 -0.17411983013153076000 0.04581975191831588700 0.00390954688191413880 0.00594694586470723150 0.01416259817779064200 -0.06088305637240409900 -0.05125448852777481100 0.02445701137185096700 0.00047271233052015305 -0.20550940930843353000 0.00777856819331645970 0.00084701349260285497 -0.02485627122223377200 -0.00000948939577938290 -0.29322513937950134000 0.01539043057709932300 0.06726350635290145900 0.01551183778792619700 0.09598715603351593000 0.00082625518552958965 0.00069675163831561804 -0.04142804071307182300 -0.02301771566271781900 0.00412938324734568600 -0.11887425184249878000 0.00023343632346950471 -0.07415628433227539100 -0.01175644900649786000 -0.07420916110277175900 -0.02285277657210826900 -0.01409290172159671800 -0.00075140851549804211 -0.00368468253873288630 0.01778704300522804300 -0.01165842544287443200 -0.08736731857061386100 0.00204784097149968150 -0.09541352838277816800 -0.00715478975325822830 -0.01708790659904480000 0.03925160691142082200 0.09315676242113113400 0.02101466432213783300 0.03655059263110160800 0.01190955284982919700 -0.03096234984695911400 0.03402856364846229600 -0.00043709619785659015 0.00834384281188249590 -0.00068268773611634970 0.07404635846614837600 -0.04033612459897995000 -0.03914602845907211300 0.02504909224808216100 -0.00407848646864295010 0.06859727203845977800 0.00057203974574804306 0.00099136168137192726 -0.01882540248334407800 0.00131553725805133580 -0.03048031963407993300 -0.00114129076246172190 0.00070429372135549784 0.00916477851569652560 -0.06796063482761383100 0.04059468582272529600 0.05563073605298996000 -0.10057727992534637000 0.01652692817151546500 -0.05108486860990524300 -0.01770501956343650800 0.01125478278845548600 0.00036574006662704051 -0.11534533649682999000 -0.00600056210532784460 0.00214482960291206840 -0.04170536249876022300 0.00033636973239481449 0.02880303002893924700 0.00070752482861280441 -0.00610103551298379900 0.00644496735185384750 0.05215901881456375100 0.00158023531548678870 -0.00059149804292246699 -0.02215985208749771100 -0.12515422701835632000 -0.00211218697950243950 -0.02600452862679958300 0.00091048714239150286 0.01117604039609432200 -0.01538214366883039500 -0.02201860584318637800 -0.01185365021228790300 0.06106944754719734200 0.02416507713496685000 -0.03872198238968849200 -0.03529488667845726000 -0.01401976495981216400 0.03453872352838516200 0.00077595282346010208 -0.15430630743503571000 -0.00786042027175426480 -0.00210402440279722210 0.02382757514715194700 0.01718847453594207800 0.08456110209226608300 0.05240769311785697900 0.02209408767521381400 0.04392067342996597300 0.00369140412658452990 0.00055636459728702903 0.05144473910331726100 -0.00001424119182047434 0.01527127157896757100 -0.03032727725803852100 -0.02897094935178756700 0.02478958666324615500 0.00134538556449115280 0.06929032504558563200 0.00021080057194922119 -0.12946119904518127000 0.00725706759840250020 0.00044552295003086329 0.06216675415635108900 0.00009567254164721817 -0.00169332907535135750 -0.03104780986905098000 -0.06833714246749877900 0.00905704777687788010 0.03852841630578041100 -0.01724941842257976500 -0.02431561797857284500 -0.03447442129254341100 0.00409036921337246890 0.00347659341059625150 0.00164496444631367920 0.02269645594060421000 -0.06386513262987136800 0.00017661658057477325 -0.02222016267478466000 -0.00117427820805460210 0.00170945585705339910 0.02564021199941635100 -0.02951709553599357600 0.00724785123020410540 -0.01437142677605152100 -0.00102761574089527130 -0.00076648360118269920 -0.00521458359435200690 -0.05668307095766067500 -0.00377827230840921400 0.04722998663783073400 0.00017032083997037262 0.04117853939533233600 0.00226580328308045860 0.01202581450343132000 0.01220430061221122700 0.04258942604064941400 0.02592354454100132000 -0.04610950499773025500 0.00106026709545403720 -0.00830493029206991200 0.00313875195570290090 -0.00061834638472646475 -0.12731823325157166000 -0.01523968949913978600 -0.01129221450537443200 -0.03520557656884193400 0.02516961656510829900 0.04910393431782722500 0.04774618893861770600 -0.01982601359486579900 0.10774213075637817000 -0.04212180152535438500 -0.00102849327959120270 0.04402760043740272500 0.00091658782912418246 -0.02341027371585369100 0.02705149725079536400 0.02218632586300373100 0.03509517014026641800 0.00681954342871904370 0.06179018318653106700 -0.00006264571857172996 -0.00795615371316671370 0.01312645152211189300 0.00135391484946012500 -0.00546046392992138860 -0.00025585223920643330 -0.00189176504500210290 -0.07648459076881408700 -0.07128775864839553800 0.00916604418307542800 0.06022971123456955000 0.04738412052392959600 -0.02966790273785591100 -0.00836210418492555620 0.01549238432198762900 -0.03179079294204711900 -0.00201883958652615550 0.04039124026894569400 -0.10046104341745377000 -0.00063212751410901546 -0.01152772549539804500 -0.00152011448517441750 0.13209110498428345000 -0.01109325233846902800 0.01670063845813274400 -0.01056028902530670200 -0.03233416005969047500 -0.00028336985269561410 0.00037056530709378421 0.00357323070056736470 -0.01263804268091917000 -0.00174635648727416990 0.11194694787263870000 -0.00234705465845763680 0.04238899797201156600 0.00095561955822631717 -0.00656467024236917500 0.03534005582332611100 0.10110455751419067000 0.00604050513356924060 -0.03874604031443595900 0.04470889642834663400 -0.00855270493775606160 -0.03005231916904449500 0.00084886839613318443 -0.05736587569117546100 -0.02165186777710914600 0.00637729931622743610 0.09201657772064209000 0.10135697573423386000 0.07542028278112411500 0.00549899693578481670 0.01584306918084621400 0.13939434289932251000 -0.07276491820812225300 0.00051449245074763894 0.06110190600156784100 -0.00140841223765164610 0.02335355989634990700 0.06485627591609954800 0.06432329118251800500 0.04156543314456939700 0.00961722247302532200 -0.04430039599537849400 -0.00038358991150744259 0.06593851745128631600 0.01292771752923727000 0.00245941290631890300 -0.08723734319210052500 -0.00201226165518164630 -0.00056411162950098515 -0.11241041868925095000 0.08006486296653747600 -0.01635124720633029900 -0.10908021777868271000 0.07215236127376556400 -0.07104460895061492900 0.03936525061726570100 0.00472340825945138930 -0.03818650916218757600 0.00086863461183384061 0.03552168235182762100 0.05174756795167923000 0.00058744492707774043 -0.01950437948107719400 0.00068140641087666154 -0.04691348969936370800 -0.00542001985013484950 0.17136816680431366000 -0.03472340479493141200 0.00903518497943878170 0.00071400619344785810 -0.00212612259201705460 -0.00031027870136313140 -0.07711987197399139400 -0.00534468330442905430 0.08138114959001541100 -0.00074239575769752264 0.06231085211038589500 -0.02491614222526550300 0.03916347771883010900 0.04794375598430633500 -0.06906443089246749900 -0.00660082418471574780 -0.00699658319354057310 0.08496322482824325600 -0.01496017444878816600 -0.03241387382149696400 -0.00009828898328123614 -0.05440020188689231900 -0.00779691943898797040 0.03593691810965538000 0.00954328197985887530 0.02658560872077941900 -0.01112166047096252400 0.00319062406197190280 -0.00858711265027523040 0.04119709879159927400 -0.07030607759952545200 -0.01113674137741327300 -0.01862500049173831900 0.00009879206481855363 -0.01791459135711193100 0.02321924455463886300 -0.02786551602184772500 0.00130217242985963820 -0.01574781350791454300 0.01158369053155183800 0.00059503689408302307 -0.03690150752663612400 0.00845917500555515290 -0.00132632127497345210 -0.00901771057397127150 0.00089547078823670745 -0.00024623208446428180 0.02190788462758064300 -0.11634104698896408000 -0.01235978398472070700 0.00947315245866775510 0.02590788155794143700 -0.09403737634420394900 0.01794394291937351200 -0.00748275453224778180 -0.00801426917314529420 0.00062545837135985494 0.01820469088852405500 -0.04777625575661659200 -0.00104253215249627830 -0.00946183409541845320 0.00004681474092649296 -0.04678519070148468000 0.00384731614030897620 -0.12105072289705276000 -0.00407912628725171090 -0.03126114234328270000 0.00179103121627122160 -0.00074596377089619637 0.01629849523305892900 0.08853867650032043500 -0.00255509279668331150 -0.11460547149181366000 -0.00018648405966814607 -0.00699079455807805060 0.00352918799035251140 -0.00496122194454073910 0.02374573238193988800 -0.03021770529448986100 0.03735141828656196600 0.03379843011498451200 -0.02949334308505058300 0.01407248247414827300 -0.01639985479414463000 0.00051090167835354805 -0.01270792726427316700 0.00374583527445793150 0.03162021934986114500 -0.01467446703463792800 0.04115325585007667500 0.03069011680781841300 0.01919420249760150900 0.00171699956990778450 0.00378359202295541760 -0.00006346671580104157 -0.00641029048711061480 -0.01781706325709819800 -0.00032176598324440420 -0.00361209269613027570 0.02102212607860565200 -0.04740978032350540200 0.02393255196511745500 -0.03095218725502491000 0.03080291114747524300 0.00089399976423010230 -0.05205667391419410700 -0.03482417389750480700 -0.00124501727987080810 -0.00831982679665088650 -0.00022991446894593537 0.00002726915045059286 0.03455359861254692100 -0.07526207715272903400 0.01527110952883958800 0.00638687750324606900 0.02293831296265125300 -0.01201621908694505700 0.01483842357993125900 -0.00277598830871284010 -0.00377675238996744160 -0.00113599875476211310 0.02672404423356056200 0.00899412762373685840 -0.00007853567512938753 -0.01192929875105619400 -0.00143743969965726140 0.00024905381724238396 -0.00376213551498949530 -0.10596737265586853000 0.00146779860369861130 -0.00804295111447572710 0.00046436421689577401 -0.00021326678688637912 -0.01801536977291107200 0.02184269763529300700 0.00244322931393980980 -0.00070457754191011190 0.00115530076436698440 -0.01838925294578075400 -0.00694174412637948990 -0.02169051021337509200 0.02683112956583499900 -0.02377383783459663400 0.04162224754691124000 0.03398771956562995900 0.03317648172378540000 0.00098564999643713236 0.05586147680878639200 0.00066943262936547399 0.05905878171324729900 0.01917404867708683000 0.03567930310964584400 0.01473761349916458100 0.01181674655526876400 0.03710465505719184900 0.02521572820842266100 0.01039462070912122700 0.01862425915896892500 0.02128434740006923700 -0.00135843898169696330 0.00011724519572453573 -0.00074354960815981030 0.02601445280015468600 0.04735129699110984800 0.00461632804945111270 0.02694650739431381200 -0.01886430196464061700 0.06099923700094223000 0.00167997251264750960 -0.05090042576193809500 -0.04788532108068466200 -0.00018781148537527770 0.00743005378171801570 -0.00054386601550504565 -0.00081579055404290557 0.01639983989298343700 -0.03260623291134834300 0.00516573106870055200 -0.03618559241294860800 0.00656271539628505710 0.00971023458987474440 0.02225517481565475500 0.00807268731296062470 0.00437781168147921560 0.00013558697537519038 0.01856664568185806300 -0.01511294580996036500 -0.00032774143619462848 -0.01282238028943538700 0.00052806525491178036 0.01251448877155780800 0.03446598723530769300 -0.07740545272827148400 -0.00034633919131010771 -0.00091307825641706586 0.00002182273237849586 0.00112751720007508990 -0.05178460478782653800 0.05147437006235122700 -0.00166981865186244250 -0.00147517875302582980 0.00106837251223623750 -0.08480331301689147900 0.00291983969509601590 -0.04656737670302391100 0.04187684506177902200 0.00145177193917334080 0.02602434717118740100 0.04233330860733985900 0.02254036068916320800 -0.00902523566037416460 -0.00018913953681476414 -0.00044515673653222620 0.03809479624032974200 0.03474142774939537000 0.02690768614411354100 -0.02347080409526825000 0.03569081425666809100 0.05422227829694747900 0.05209806188941001900 0.03215385600924491900 0.00507943890988826750 0.00114485551603138450 0.00359080638736486430 0.00746588595211505890 -0.00267379544675350190 0.00343964179046452050 0.02501465193927288100 0.02757649309933185600 0.01434304099529981600 -0.00338743417523801330 0.05255862325429916400 0.00173617433756589890 -0.03285960853099823000 -0.03654719144105911300 0.00166503188665956260 -0.00752253318205475810 -0.00126870721578598020 -0.00008886312571121380 -0.02358244732022285500 0.02700240351259708400 -0.00139924988616257910 -0.01280484348535537700 0.03125737234950065600 0.01305140648037195200 0.01935800537467002900 0.01208977587521076200 0.00962335523217916490 0.00055707804858684540 -0.05684868246316909800 -0.03769939765334129300 -0.00103545654565095900 -0.00846868101507425310 0.00075482734246179461 0.02062799967825412800 0.03996897116303443900 -0.05944624170660972600 -0.00766084995120763780 -0.03943548724055290200 0.00099701748695224524 -0.00105600384995341300 -0.04384728521108627300 0.00236180284991860390 0.00402376847341656680 -0.03736899048089981100 -0.00103106035385280850 -0.02747833169996738400 0.00287809618748724460 -0.01229858491569757500 0.02809674665331840500 0.00869504828006029130 0.00932994019240140910 0.02982878498733043700 0.00178712618071585890 0.01060979627072811100 0.01638839393854141200 0.00153807096648961310 0.00016051401325967163 0.03460607677698135400 -0.00145886524114757780 -0.01699618250131607100 -0.01350990589708089800 0.01624532230198383300 0.05413724482059478800 -0.00865372363477945330 -0.04480047523975372300 -0.04629176482558250400 0.00838890392333269120 -0.01161454431712627400 -0.00089380861027166247 -0.02194946259260177600 0.02207384631037712100 0.02189875207841396300 -0.00421217177063226700 -0.01930789649486541700 -0.01009215880185365700 -0.00041911215521395206 -0.00277982885017991070 -0.01287766173481941200 0.00111047283280640840 -0.04566327482461929300 0.00164119456894695760 0.00137332989834249020 -0.05803437158465385400 -0.00826756376773118970 -0.00660701701417565350 -0.06540858745574951200 0.05723181366920471200 0.02582443132996559100 0.01045500393956899600 0.02930490672588348400 -0.01223412249237299000 -0.00195352477021515370 -0.02208264544606208800 -0.03987934440374374400 -0.00132316537201404570 -0.00472794100642204280 -0.00060983694856986403 -0.01294441614300012600 -0.00155131402425467970 -0.05097474530339241000 -0.01545976754277944600 -0.10229306668043137000 0.00119867944158613680 -0.00290845567360520360 0.01226544380187988300 0.06132414191961288500 0.00413331948220729830 -0.01751406863331794700 0.00189782551024109130 -0.01244990527629852300 0.02936531044542789500 -0.04888539016246795700 0.01297096814960241300 0.01499673817306757000 -0.01437123492360115100 -0.00435215095058083530 -0.02313365787267684900 0.03248121216893196100 0.00865231826901435850 0.00097898812964558601 -0.03723996132612228400 -0.00057619315339252353 0.03400338068604469300 0.01415336038917303100 0.02418329380452632900 0.01257711369544267700 -0.00621286127716302870 0.02096181549131870300 0.02761356346309185000 -0.00082736089825630188 -0.00992702413350343700 -0.01985848136246204400 0.00157517485786229370 -0.00699583254754543300 0.01033847872167825700 0.00132842233870178460 -0.01495934370905160900 -0.04094585403800010700 -0.02512595616281032600 -0.00005916077498113737 0.00917003210633993150 0.00915787369012832640 -0.00135784549638628960 0.01654999516904354100 0.00242521823383867740 -0.00063107057940214872 0.04340655729174614000 -0.03849094361066818200 -0.01185972057282924700 0.01737730577588081400 0.00686492258682847020 -0.08398198336362838700 -0.00205908692441880700 -0.00687375944107770920 -0.01546292006969451900 -0.00155884353443980220 -0.01248490530997514700 0.00659801997244358060 -0.00236417469568550590 -0.01576509512960910800 -0.00095126416999846697 -0.01101615745574235900 0.00441726902499794960 -0.08491833508014679000 -0.00991909671574831010 0.01160851679742336300 0.00106097699608653780 -0.00050199322868138552 0.01164849195629358300 0.01639552786946296700 0.00748384464532136920 -0.02366514690220356000 0.00145208719186484810 -0.00586162786930799480 0.00747418170794844630 0.01021900493651628500 0.01400010101497173300 0.01521308161318302200 0.03750234097242355300 0.02843004092574119600 -0.03945539519190788300 0.03195706382393837000 -0.00868783053010702130 0.00113332958426326510 0.00730083044618368150 0.01809955015778541600 0.03052706643939018200 -0.01629143953323364300 0.03701572120189666700 0.05261047184467315700 0.01252016890794038800 0.01935449056327343000 0.01519715692847967100 0.00407236814498901370 -0.00862123351544141770 -0.00015990105748642236 0.00022719333355780691 0.00252095470204949380 0.00654525076970458030 -0.01945736445486545600 -0.00727724004536867140 -0.02478142082691192600 0.00709425564855337140 0.00235155783593654630 -0.03232673928141593900 0.00548541545867919920 -0.00151293270755559210 0.01105607021600008000 0.00063008919823914766 0.00066876254277303815 0.00472219008952379230 -0.03593436256051063500 -0.00010596369247650728 0.05067177116870880100 -0.00564963649958372120 -0.06286562234163284300 -0.01192938443273305900 -0.00948798097670078280 0.00435280287638306620 -0.00181485887151211500 0.00128426158335059880 -0.01686620712280273400 0.00064591830596327782 -0.01237828936427831600 -0.00125584355555474760 0.01137007214128971100 -0.00238267495296895500 -0.05761810019612312300 -0.00236145616509020330 0.00894115213304758070 -0.00005261937621980906 0.00116562191396951680 0.00036692759022116661 -0.03063177503645420100 0.00776660256087780000 0.00875526200979948040 -0.00035258370917290449 0.08417195826768875100 -0.00970299821346998210 0.00171954359393566850 0.01310786604881286600 -0.02298963814973831200 0.04405900463461875900 0.02685258351266384100 0.00365862320177257060 0.03364368528127670300 0.02806128375232219700 0.00122296961490064860 0.01095956843346357300 0.03528696298599243200 0.02313125878572464000 0.02042273990809917400 0.03398229181766510000 0.03378571942448616000 -0.00343269319273531440 0.01112605165690183600 0.06728944182395935100 0.00585746113210916520 -0.00600956054404377940 0.00859252829104661940 0.00147993885912001130 0.02512366138398647300 0.01214535813778638800 0.01777756586670875500 -0.00989495962858200070 0.00341603578999638560 0.01765502989292144800 -0.00027724335086531937 -0.01247549802064895600 0.00898996554315090180 0.00055283447727560997 0.01231587585061788600 -0.00010740903235273436 -0.00171781890094280240 0.01106582861393690100 -0.00161614792887121440 -0.01083179749548435200 0.03123944811522960700 -0.00876940041780471800 -0.04601242765784263600 -0.01080234069377183900 0.00997577887028455730 0.02191921696066856400 -0.00079805054701864719 0.00686338217929005620 -0.01476162485778331800 -0.00033344671828672290 -0.01310013048350811000 -0.00054369634017348289 0.02983684279024601000 0.02386322617530822800 -0.04191444814205169700 -0.00272935722023248670 -0.01290700305253267300 -0.00026145175797864795 -0.00077353330561891198 -0.02128745056688785600 0.02627895399928093000 0.00309288175776600840 0.00676726456731557850 0.00007236529199872166 0.03735702857375145000 -0.00185182061977684500 -0.00614253478124737740 0.01732311956584453600 -0.03837472200393676800 0.03154769539833068800 0.02869583107531070700 -0.00560802686959505080 0.02748256362974643700 -0.02903432399034500100 0.00097661535255610943 -0.04182661697268486000 0.05094791576266288800 0.01747409068048000300 -0.02078553847968578300 0.07220517843961715700 0.07361089438199996900 0.00457443203777074810 0.03886348754167556800 0.03039205074310302700 0.01367624010890722300 -0.00088586023775860667 0.00941115524619817730 -0.00087388517567887902 0.01394540723413229000 -0.01070391293615102800 0.03102479875087738000 -0.01656329259276390100 0.01572042889893055000 0.06220674887299537700 0.00059081870131194592 -0.02682455629110336300 0.00542626250535249710 -0.00013828404189553112 -0.00010992468742188066 0.00034470375976525247 -0.00172819371800869700 -0.00279495725408196450 0.01213560253381729100 -0.00503944978117942810 0.05419874191284179700 0.00010380823368905112 -0.03244210407137870800 -0.00894909538328647610 0.01437491271644830700 0.02798270434141159100 0.00123132602311670780 -0.07314290106296539300 -0.00754750752821564670 -0.00208742660470306870 -0.01214526686817407600 0.00042792171007022262 0.03776397183537483200 0.02672823891043663000 0.00006855865649413317 -0.00684750918298959730 -0.04785511270165443400 -0.00049200840294361115 0.00155701534822583200 -0.03129329904913902300 -0.03902085125446319600 0.00517026148736476900 -0.00139630050398409370 0.00033618020825088024 0.09866055846214294400 -0.00614401744678616520 0.02797933854162693000 0.00988912768661975860 -0.03322430700063705400 0.01518133282661438000 0.01046247407793998700 0.00761386798694729800 0.02808577008545398700 0.00913764629513025280 0.00009282240353059024 -0.03267513588070869400 0.03995580971240997300 0.01896024867892265300 -0.04968785122036933900 0.01763983257114887200 0.03788484632968902600 0.01870855130255222300 0.00501759629696607590 -0.02031427435576915700 -0.02455621585249900800 0.00151222711428999900 -0.00229118485003709790 0.00033562941825948656 -0.00138232065364718440 -0.00122090091463178400 0.02590965665876865400 -0.03036070615053176900 -0.00036105446633882821 0.04335425421595573400 -0.00002550656608946156 -0.05363681539893150300 0.00961176492273807530 -0.00056786125060170889 -0.02999572083353996300 -0.00065004080533981323 0.00025832306710071862 0.00017597437545191497 -0.00415080878883600230 -0.00143053615465760230 -0.01253766007721424100 -0.01896089687943458600 -0.03128244355320930500 -0.01254572253674268700 0.02663259766995906800 0.00126232800539582970 0.00029513161280192435 -0.02706592902541160600 0.00445722090080380440 -0.00084547681035473943 -0.00546493520960211750 -0.00117772037629038100 0.00523049663752317430 -0.01968447677791118600 0.02060969732701778400 -0.00718115642666816710 -0.08379445225000381500 -0.00114104931708425280 -0.00040310740587301552 -0.01475306227803230300 -0.01607698202133178700 0.00341609120368957520 0.03481205552816391000 -0.00159693381283432250 0.04378777369856834400 0.01566960476338863400 0.00557092111557722090 -0.00465847039595246320 0.01812281273305416100 -0.01820652745664119700 -0.00253612454980611800 0.02519249171018600500 0.03363727405667305000 -0.01358313951641321200 0.00040695175994187593 0.05159531533718109100 0.00584287336096167560 0.03198751434683799700 0.03407371416687965400 0.02222256921231746700 0.00783857144415378570 -0.00397122511640191080 0.02855227887630462600 0.03649877384305000300 0.01766888983547687500 -0.00752000417560338970 0.00502398377284407620 -0.00087732088286429644 -0.00688870856538414960 0.01610138826072216000 0.01077109668403863900 0.01054096501320600500 -0.03855810314416885400 -0.00777322985231876370 -0.00039635665598325431 0.02353361435234546700 0.00014838328934274614 -0.00232189032249152660 0.01298045739531517000 0.00149596296250820160 -0.00230863620527088640 0.02959267422556877100 -0.01612668670713901500 -0.01407137140631675700 0.00340514723211526870 0.00075332558481022716 -0.07093582302331924400 0.02126021683216095000 -0.00343918870203197000 -0.00589218735694885250 -0.00104556395672261710 0.02199323475360870400 0.00492556486278772350 -0.00123278156388551000 -0.00846470240503549580 -0.00072744931094348431 -0.04845693707466125500 0.02023565396666526800 -0.01930424012243747700 -0.01188255660235881800 0.05942260473966598500 -0.00116388383321464060 -0.00074673711787909269 0.03909957781434059100 0.04729551821947097800 0.00687378738075494770 0.00646674912422895430 0.00048580174916423857 -0.09542419016361236600 0.01811538077890873000 -0.02055829577147960700 0.02134439907968044300 0.03320220857858657800 0.02683007717132568400 0.04955255985260009800 -0.02744310535490512800 0.02717755734920501700 0.00357088609598577020 0.00136707490310072900 0.00654304912313818930 0.02858898416161537200 0.02410942316055297900 -0.00107519607990980150 -0.00125174934510141610 0.00537226302549242970 0.01163600292056798900 0.02611462399363517800 0.02018566057085990900 -0.01159339863806963000 -0.00793808046728372570 0.00838897377252578740 0.00178215862251818180 -0.01039369776844978300 0.02583782374858856200 -0.02701929397881031000 0.00700186705216765400 -0.00961361639201641080 -0.01328881736844778100 -0.00160442525520920750 -0.03015191480517387400 0.00575611973181366920 -0.00309416395612061020 0.02216155268251895900 -0.00048709684051573277 0.00037800159770995378 -0.00811581499874591830 -0.04394018277525901800 -0.01173160411417484300 0.03700810670852661100 -0.00208923430182039740 -0.05419964715838432300 0.01300041191279888200 -0.00853403657674789430 0.01632925868034362800 0.00013266902533359826 0.01065661571919918100 -0.03312361240386962900 -0.00033427317976020277 0.00109607272315770390 0.00117212207987904550 -0.04848562553524971000 0.01937793381512165100 0.02204069122672081000 0.00051713926950469613 0.03672811016440391500 -0.00010653608478605747 0.00199034111574292180 0.03139988705515861500 0.01097247935831546800 0.00765544455498456950 -0.00167353171855211260 -0.00080831779632717371 0.01783022470772266400 0.00234334263950586320 -0.01064079627394676200 0.00996633898466825490 0.00481935078278183940 0.03711228817701339700 0.05118362978100776700 -0.00993696879595518110 0.04443713277578353900 0.01443391945213079500 0.00074607774149626493 -0.04143854603171348600 0.02966824173927307100 0.01137892249971628200 0.01765553839504718800 -0.03552576899528503400 -0.04284339398145675700 -0.00870684813708066940 0.00508147105574607850 0.06071848794817924500 -0.00333770108409225940 -0.00742936739698052410 -0.00558635359629988670 -0.00009240546933142468 0.00340285128913819790 0.02298414334654808000 -0.00823793187737464900 0.00379722751677036290 0.01308153849095106100 -0.02174993045628070800 -0.00003351717532495968 0.00872797239571809770 0.00956596992909908290 -0.00151675962843000890 0.02382985316216945600 0.00138814584352076050 -0.00066915055504068732 0.02278390526771545400 -0.05201391875743866000 -0.02552733756601810500 -0.02004112116992473600 0.03133932873606681800 -0.01350974757224321400 0.01718770526349544500 0.01436859928071498900 0.03207050636410713200 0.00023876785417087376 0.01257258187979459800 -0.05017365887761116000 -0.00106474431231617930 -0.00425190664827823640 0.00015054510731715709 -0.05238907039165496800 0.01946524344384670300 0.00366144021973013880 0.00271320366300642490 0.02904944121837616000 -0.00011945095320697874 -0.00082141970051452518 0.01874774135649204300 0.08991584181785583500 0.00102207984309643510 0.03264755755662918100 -0.00077476870501413941 -0.06089515611529350300 0.01414270326495170600 -0.06398850679397583000 0.01131534483283758200 -0.01512834336608648300 0.02991556376218795800 0.05066340044140815700 -0.02538455277681350700 0.03773232549428939800 -0.05823405459523201000 0.00166764610912650820 -0.02588817849755287200 0.03133510798215866100 0.00852723792195320130 -0.00490900268778204920 0.02768475748598575600 0.00941940583288669590 -0.00871097762137651440 0.03997509554028511000 0.01398312672972679100 0.01048676110804081000 -0.00740402378141880040 -0.00293964962475001810 -0.00045458320528268814 -0.00322777731344103810 0.00486260419711470600 -0.00238991202786564830 0.00093357992591336370 0.02532992698252201100 0.00074446765938773751 -0.00074322347063571215 0.00022128857381176203 -0.00178193254396319390 -0.00194188544992357490 0.01727982796728611000 -0.00081601098645478487 -0.00046475711860693991 0.05019368231296539300 -0.00878612138330936430 -0.01032180059701204300 0.01810063980519771600 0.04164280742406845100 0.00886720605194568630 0.02159427851438522300 0.01826465316116809800 0.03857385367155075100 -0.00191338639706373210 -0.08307395130395889300 -0.01522006746381521200 -0.00156363006681203840 -0.00583443138748407360 -0.00044564652489498258 -0.02992079406976699800 0.02329704724252224000 0.01058156788349151600 -0.00138796062674373390 0.00084910250734537840 0.00252455263398587700 -0.00106258387677371500 0.00295808259397745130 0.02182485535740852400 0.00398616306483745570 0.02595868334174156200 0.00125318625941872600 -0.00389133440330624580 0.00866889674216508870 0.00104568770620971920 0.00677849864587187770 -0.00393727794289588930 0.00455021904781460760 0.02073293738067150100 0.01792985573410987900 0.02757380716502666500 0.00286191585473716260 0.00105413410346955060 0.00883595645427703860 0.01838920824229717300 0.02156748808920383500 -0.04525389149785041800 -0.02294551022350788100 0.00663283886387944220 0.00308385142125189300 0.01808839291334152200 -0.02087482996284961700 -0.01337421499192714700 -0.00116529525257647040 -0.00322445505298674110 0.00039373681647703052 -0.00335958763025701050 0.01129397563636302900 -0.00265763420611619950 -0.01994763873517513300 0.02207414619624614700 0.02619201317429542500 0.00025941943749785423 -0.02429848909378051800 0.00108822400216013190 -0.00012675541802309453 -0.00450333487242460250 -0.00011384730169083923 0.00099213840439915657 0.06188592687249183700 -0.03978355973958969100 -0.00847437698394060130 -0.04665892198681831400 -0.01757805049419403100 -0.02702330239117145500 0.00824501924216747280 0.02557965554296970400 0.01288445387035608300 0.00085511407814919949 -0.01978007145226001700 -0.01501707453280687300 -0.00177998712752014400 -0.00109015393536537890 -0.00006276921340031549 -0.00283271190710365770 0.01291467715054750400 0.05467189848423004200 0.00516864238306880000 -0.00989171769469976430 -0.00019088991393800825 0.00112870929297059770 -0.00662413192912936210 0.02714771218597888900 0.00061250990256667137 0.06038781628012657200 0.00027050831704400480 -0.08113978058099746700 0.01450768299400806400 -0.02397053129971027400 -0.00502065476030111310 0.05904967710375785800 -0.02107290923595428500 0.01551678031682968100 0.04929213225841522200 0.01909136399626731900 0.00934545043855905530 0.00225099595263600350 0.06650736927986145000 0.01974047347903251600 0.02820826880633831000 0.01706212945282459300 0.03933064639568328900 0.06147421151399612400 -0.00695917056873440740 0.01781944930553436300 -0.02399472892284393300 0.02063834294676780700 -0.00530287437140941620 0.03065871074795723000 0.00043372539221309125 -0.00787598080933094020 0.01840482093393802600 0.02572329714894294700 0.01211528945714235300 -0.02597132883965969100 0.05275054648518562300 -0.00114238914102315900 0.03304849192500114400 0.00266001396812498570 -0.00341300712898373600 0.01471362169831991200 0.00289520155638456340 -0.00119128054939210410 -0.00448184041306376460 -0.03138704225420951800 -0.01592630147933960000 0.03432085365056991600 0.02584775909781456000 -0.05407998710870742800 0.00189122476149350400 -0.01305284723639488200 0.00612454675137996670 0.00101892766542732720 0.01388891786336898800 0.01165752112865448000 -0.00061533250845968723 -0.00513016851618885990 -0.00162889692001044750 -0.02854317240417003600 0.01594901457428932200 0.02803072333335876500 -0.01384978834539651900 0.04372955858707428000 -0.00057377741904929280 0.00068832869874313474 0.04100279882550239600 -0.01488152518868446400 0.00139116891659796240 -0.01957657188177108800 -0.00119035714305937290 -0.02508461289107799500 0.00794288143515586850 0.01456071808934211700 0.02519119158387184100 0.00270546763204038140 0.00697779189795255660 0.01255964394658803900 0.01352576073259115200 0.02330201491713523900 0.01556186936795711500 0.00102553435135632750 -0.02607160061597824100 0.03349485620856285100 0.01075757853686809500 -0.01080576982349157300 0.04695706814527511600 0.05348149687051773100 0.01465944293886423100 0.02055380679666996000 -0.03632899746298790000 0.00175835401751101020 -0.00539184408262372020 0.02299279347062110900 -0.00001072435497917468 -0.01719622127711772900 0.04150444641709327700 -0.01105494517832994500 0.00584394857287406920 -0.00301811797544360160 0.02896997891366481800 -0.00072048435686156154 -0.01218670792877674100 0.00222976272925734520 -0.00254240934737026690 0.02451017312705516800 0.00033137903665192425 -0.00120141659863293170 -0.00569195859134197240 -0.01371407229453325300 -0.00958186946809291840 0.03627368807792663600 0.01747405156493187000 -0.02432678826153278400 0.00034336309181526303 -0.01217904966324567800 0.00682951603084802630 