32 25 
-0.02504737488925457000 0.00533321825787425040 -0.04152372106909751900 -0.03684642538428306600 -0.01628771051764488200 0.00216691102832555770 -0.02372761629521846800 -0.01409397460520267500 0.01865482144057750700 -0.02123514004051685300 -0.01185319572687149000 -0.06807053834199905400 -0.00000010564836827598 0.00235707731917500500 0.01333054713904857600 -0.02600935287773609200 -0.03127856925129890400 -0.01085833366960287100 -0.02263686805963516200 -0.01399566698819398900 -0.03005496785044670100 -0.03908552229404449500 -0.01108636613935232200 -0.00269279326312243940 0.02083884179592132600 -0.03299488127231597900 0.00037046082434244454 0.00657178414985537530 -0.00080018735025078058 -0.00177179556339979170 -0.00604926329106092450 -0.02700237743556499500 -0.01463289652019739200 -0.00051624898333102465 -0.01884327083826065100 -0.02138737961649894700 -0.01718671992421150200 0.00596974184736609460 0.00346913095563650130 -0.02796933986246585800 0.01130191143602132800 -0.01810626685619354200 -0.02370558492839336400 -0.02251032553613185900 -0.00000005520877266463 0.00497848726809024810 -0.00715180579572916030 0.00203311187215149400 -0.00132325384765863420 -0.02080260589718818700 -0.00498369568958878520 -0.01083561405539512600 0.00144505663774907590 -0.02683029882609844200 -0.00238096946850419040 -0.00581210525706410410 0.01104611810296773900 -0.01365631725639104800 -0.00375113869085907940 -0.00834175199270248410 0.00294601684436202050 0.00796595495194196700 0.00871372688561677930 -0.01459359843283891700 -0.00663764774799346920 0.00453002145513892170 -0.01319018378853797900 -0.00263064168393611910 -0.02436289377510547600 -0.00383323105052113530 -0.00122267170809209350 -0.03947586193680763200 0.00996923353523015980 -0.01771150715649128000 -0.04023649170994758600 -0.00673009408637881280 -0.00000002292379086555 -0.00057898968225345016 -0.00704442989081144330 0.00720279756933450700 0.01522892620414495500 -0.01472219917923212100 -0.00647227233275771140 -0.01423028763383626900 -0.00441908650100231170 -0.01779005676507949800 -0.00854612328112125400 -0.01082089357078075400 0.01276590209454298000 -0.00630757492035627370 -0.00422411458566784860 -0.01402394287288188900 0.00475662481039762500 0.00393085321411490440 -0.00214419630356132980 -0.00962839368730783460 -0.00960435159504413600 0.01548512838780880000 -0.01134212408214807500 0.01953023299574852000 -0.03876988589763641400 -0.00787002407014369960 -0.01008937414735555600 -0.01088957674801349600 0.00740318605676293370 0.00923500768840312960 -0.04352553933858871500 -0.00328540825285017490 -0.00000002045768709991 -0.01734249852597713500 -0.00083462049951776862 -0.01448195334523916200 0.02697709389030933400 -0.01326035615056753200 -0.00209839944727718830 -0.02396746352314949000 -0.01548646390438079800 -0.03655840456485748300 -0.01268715038895607000 -0.01311441697180271100 0.00592820113524794580 0.00456137862056493760 -0.00917114410549402240 -0.00507683400064706800 0.00409470871090888980 -0.00414788490161299710 0.00327725498937070370 -0.01214146986603736900 -0.01769293844699859600 -0.00187274976633489130 -0.02627573907375335700 0.03075731173157692000 -0.02408309653401374800 -0.02249892801046371500 -0.01586760208010673500 -0.01124305184930563000 -0.01026358827948570300 0.00195421464741230010 -0.03554958477616310100 -0.01857744716107845300 -0.00000002405545984629 -0.02839264832437038400 0.01289894059300422700 -0.01076576299965381600 0.02004378475248813600 -0.01454882230609655400 -0.01138991583138704300 -0.03253827244043350200 -0.01832493022084236100 -0.07622348517179489100 -0.03146250918507576000 -0.00937016773968935010 0.01897943578660488100 0.01330058462917804700 -0.02698288299143314400 -0.01632921025156974800 -0.00046547708916477859 -0.02935754321515560200 -0.00678294897079467770 -0.02133714966475963600 -0.00970451999455690380 -0.01408402621746063200 -0.01840043440461158800 -0.02631917409598827400 -0.00116604834329336880 0.00627352297306060790 -0.01066700834780931500 0.01676891557872295400 0.00670392857864499090 -0.00883554574102163310 -0.01533715985715389300 -0.03037212416529655500 -0.00000010919609394477 -0.00603707926347851750 0.00318043748848140240 -0.03445967659354209900 -0.01190301869064569500 -0.01319919433444738400 -0.01930031366646289800 -0.01488469447940588000 -0.01585380360484123200 0.00451799342408776280 -0.00576817383989691730 -0.00793275889009237290 0.00677617359906435010 0.00319710234180092810 -0.01560518331825733200 -0.01276605296880006800 -0.00303004053421318530 0.00592722324654459950 0.00914853438735008240 -0.00715530943125486370 0.01424004603177309000 0.00344666838645935060 0.00743487756699323650 -0.01164387166500091600 0.01434589643031358700 0.01823621056973934200 0.01317330356687307400 -0.00918738450855016710 0.00541749596595764160 0.00292019010521471500 -0.01088127214461565000 0.01018647756427526500 -0.00000005116517343140 0.01182903349399566700 -0.03783108666539192200 0.00215693516656756400 0.00839978270232677460 -0.00609125429764389990 0.00820835866034030910 0.01356655079871416100 0.01041002199053764300 0.02487902902066707600 0.01235885545611381500 0.00025806957273744047 -0.02298418246209621400 0.01424679718911647800 -0.02683436498045921300 -0.03735099360346794100 0.00384258967824280260 0.01784200407564640000 0.03709939122200012200 0.00894148461520671840 0.02626791782677173600 0.01769389770925045000 0.01199343707412481300 -0.00492428615689277650 0.03617944195866584800 0.01601464115083217600 0.01694120466709137000 0.00107236031908541920 0.00499274628236889840 0.01486598048359155700 -0.00849899463355541230 0.03015043213963508600 -0.00000002158758682924 0.01424554362893104600 -0.00219461042433977130 0.00333414925262331960 0.01401929650455713300 0.02309350110590457900 0.01072041317820549000 0.03269672393798828100 0.01949447393417358400 0.04374294728040695200 0.01166137866675853700 0.00630053644999861720 -0.00882096495479345320 0.01692433096468448600 0.00639344565570354460 -0.00597842782735824580 0.00766395777463912960 0.01754376292228698700 0.01847438327968120600 0.01256507355719804800 0.00557828182354569440 0.01514591835439205200 0.01049219444394111600 0.01198197808116674400 -0.01020139083266258200 -0.00772122805938124660 0.00796234514564275740 0.01216511148959398300 0.00782405957579612730 0.01015989948064088800 -0.01248871162533760100 0.03372101113200187700 -0.00000001496081480923 -0.00549157382920384410 -0.02663150057196617100 -0.04337452352046966600 0.02205231226980686200 -0.00020824167586397380 0.01328155212104320500 0.01226020324975252200 0.01236039586365222900 -0.00012466516636777669 0.00805357005447149280 -0.00641645118594169620 -0.02777059748768806500 0.02626094222068786600 0.00576814357191324230 -0.00391128705814480780 0.00660556321963667870 0.01181073114275932300 0.01879477128386497500 0.00860702525824308400 -0.01848195306956768000 -0.00379887432791292670 -0.00916028395295143130 0.03364730626344680800 -0.02610228955745697000 -0.02966430969536304500 -0.00721248611807823180 -0.00356395705603063110 0.00068611127790063620 -0.00172981189098209140 -0.00756431510671973230 -0.00327048287726938720 -0.00000002516538799568 -0.03172341361641883900 -0.00642114132642745970 -0.02390128001570701600 0.02356048859655857100 -0.00149467901792377230 -0.00182953651528805490 -0.01308753434568643600 -0.00097594264661893249 -0.03361283242702484100 -0.01925382018089294400 -0.01222636457532644300 0.00307642458938062190 0.03206460177898407000 -0.02582944743335247000 -0.01498862635344266900 0.00159413518849760290 -0.01509840227663517000 0.01008714921772480000 -0.00290159648284316060 -0.00991314835846424100 -0.06823968142271041900 -0.01115668192505836500 -0.02426885627210140200 -0.00491270190104842190 0.00273598311468958850 -0.00339119113050401210 0.01594763807952404000 -0.01115558668971061700 -0.02173175849020481100 -0.00228058756329119210 -0.01032246090471744500 -0.00000011502718422207 -0.01580629311501979800 -0.00465184450149536130 -0.02290346100926399200 -0.00592636549845337870 -0.01312424615025520300 -0.02472016029059886900 -0.02848816290497779800 -0.00905464589595794680 0.02407443337142467500 -0.00893046613782644270 -0.01080347970128059400 -0.00880199950188398360 -0.00358481355942785740 -0.01474513858556747400 -0.02489795349538326300 -0.00583845889195799830 0.00078695215051993728 -0.01085440255701541900 -0.00065608363365754485 0.02977873384952545200 0.00858795549720525740 0.01269769761711359000 -0.00540234008803963660 0.01591926999390125300 0.01125785894691944100 0.01314185746014118200 -0.00207939976826310160 0.00064737733919173479 0.00953283812850713730 0.01440421491861343400 0.02746927738189697300 -0.00000004925764685026 0.01687119528651237500 -0.00217111944220960140 0.03606344014406204200 0.00720329303294420240 0.02926413714885711700 0.00886104255914688110 0.02490754798054695100 0.01808472163975238800 0.02589467912912368800 0.01453786902129650100 0.00819303561002016070 -0.00590591738000512120 0.01256726961582899100 0.03921534493565559400 -0.00156207731924951080 0.00453640334308147430 0.01529993861913681000 0.03778732940554618800 0.01546006556600332300 0.08005441725254058800 0.07202633470296859700 0.04831618443131446800 0.03533952310681343100 0.08466173708438873300 0.06037498265504837000 0.05107927694916725200 0.07048068195581436200 0.03763124346733093300 0.10491361469030380000 0.05408982560038566600 0.07721123099327087400 0.03125000000000000000 0.05545022711157798800 0.12234712392091751000 0.11167398095130920000 0.03883185237646102900 0.09023953974246978800 0.04648844897747039800 0.08908890932798385600 0.06708315759897232100 0.12351093441247940000 0.04868962615728378300 0.05630966275930404700 0.08202659338712692300 0.04533559828996658300 0.11599261313676834000 0.10090459138154984000 0.04142461344599723800 0.05009477213025093100 0.07090371847152710000 0.05075881257653236400 0.01898894459009170500 0.01386961340904235800 0.01520229037851095200 0.01384858507663011600 -0.00880025420337915420 0.00691369874402880670 0.02127778716385364500 0.02113528549671173100 0.01456323824822902700 0.02192062698304653200 0.01446524541825056100 0.03749996796250343300 -0.00000001619610401349 0.00690739136189222340 0.00095549342222511768 0.02029688842594623600 0.01320495735853910400 0.00424311170354485510 0.01519390381872654000 0.02576515078544616700 0.01696816645562648800 0.05310215801000595100 0.01276935450732708000 0.00478519406169652940 -0.02336191013455390900 0.01897704228758812000 0.03569341823458671600 0.00937473401427268980 0.00770120369270443920 0.01407264545559883100 0.01357757113873958600 0.01330110523849725700 -0.01676782220602035500 -0.00171643728390336040 -0.00434170011430978780 0.03400954976677894600 -0.03209778666496276900 -0.03744610771536827100 -0.00753246294334530830 -0.00900254119187593460 0.01498826779425144200 -0.02665806189179420500 0.00803362950682640080 -0.01192898303270340000 -0.00000002326804882102 -0.02187139913439750700 -0.00799828022718429570 -0.01172346994280815100 0.01681564748287200900 -0.00016567137208767235 -0.00307839876040816310 -0.01056497078388929400 -0.01089995447546243700 -0.02096391282975673700 -0.01959662884473800700 -0.01146010868251323700 0.01272435300052166000 0.01830242387950420400 -0.02059351839125156400 -0.01691371388733387000 0.00150661286897957320 -0.01212816033512353900 -0.00414735637605190280 0.00533154560253024100 -0.01216082554310560200 -0.07139831036329269400 -0.00369287678040564060 -0.01878373883664608000 0.00787014234811067580 0.01158327329903841000 -0.00604495732113718990 0.01893210038542747500 -0.03433807566761970500 -0.01304728072136640500 0.00151962612289935350 -0.01298714056611061100 -0.00000011710788072605 -0.02057385072112083400 0.00101860251743346450 -0.02262040972709655800 -0.00244857743382453920 -0.01033288799226284000 -0.02747923322021961200 -0.02490883134305477100 -0.01028807088732719400 -0.00866327807307243350 -0.00633281283080577850 -0.00784557312726974490 -0.00867697037756443020 -0.02215961366891861000 -0.00969602726399898530 -0.00631646066904067990 -0.00570550886914134030 0.00118470459710806610 -0.01614135690033435800 0.00437902100384235380 0.01517180167138576500 -0.01923205889761447900 0.01341328769922256500 -0.01390666794031858400 0.02236987650394439700 0.01603290811181068400 0.01353543438017368300 -0.00241918233223259450 -0.01501944474875927000 -0.01848303154110908500 0.02021398395299911500 0.02371089346706867200 -0.00000005335054709121 0.00519583933055400850 -0.03230507299304008500 0.00438932655379176140 0.01049535907804966000 -0.00354988081380724910 0.00416717212647199630 0.01439330633729696300 0.02295113727450370800 -0.05243529006838798500 0.01194914244115352600 0.00049308332381770015 -0.02914776839315891300 0.00599382724612951280 0.04966555163264274600 -0.01117446832358837100 0.00258678034879267220 0.01299916859716177000 -0.00650536129251122470 0.01860354468226432800 0.02955792285501956900 0.02061836421489715600 0.01563364639878273000 -0.00302448822185397150 0.02367043495178222700 0.01726503297686576800 0.02236398681998252900 0.00004557145439321175 -0.00279297702945768830 0.01784812659025192300 0.03228197246789932300 0.03285470232367515600 -0.00000001580642816634 0.01868115179240703600 0.00469014514237642290 0.05425797775387764000 0.00964551419019699100 0.01158509124070406000 0.01262222789227962500 0.03347189724445343000 0.02443187125027179700 0.00262324954383075240 0.01428478769958019300 0.00780821777880191800 -0.00715774530544877050 0.00856899749487638470 0.05155086144804954500 0.02048187330365181000 0.00703753437846899030 0.01601079851388931300 0.01106093451380729700 0.02134607732295990000 0.00719319609925150870 0.00749755604192614560 0.01757444627583026900 0.01158710196614265400 -0.02165651880204677600 -0.00219970778562128540 0.01476994436234235800 0.00910197198390960690 0.00645679049193859100 0.00745547609403729440 0.02549167163670063000 0.00289218267425894740 -0.00000001567759966292 0.00621770974248647690 -0.02481913566589355500 0.03802504763007164000 0.01588243246078491200 -0.00718962773680686950 0.01546407490968704200 0.00921473838388919830 0.00064619514159858227 0.01853191293776035300 0.01091558951884508100 -0.00356227369047701360 -0.04348321631550788900 0.00403545564040541650 0.00110994593705981970 0.00266317510977387430 0.00536061124876141550 0.01460204832255840300 0.00238592922687530520 0.01328775007277727100 -0.01787771470844745600 -0.00139403401408344510 0.00439164368435740470 0.02030014991760253900 -0.00426703505218029020 -0.02891804277896881100 -0.01047173701226711300 -0.00699212076142430310 0.01033366937190294300 -0.02657635323703289000 0.01767189800739288300 -0.02233060263097286200 -0.00000002384359021335 -0.00813392177224159240 -0.00658464105799794200 -0.00567446416243910790 0.01560941897332668300 0.00298763369210064410 0.00185419712215662000 -0.01827980764210224200 -0.01048293150961399100 -0.03345141932368278500 -0.01794441789388656600 -0.01055967621505260500 0.01116420421749353400 -0.00529913511127233510 -0.01961420662701129900 -0.00504168495535850520 -0.00061484717298299074 -0.00709344632923603060 -0.01427545771002769500 0.00428749248385429380 -0.01998273842036724100 -0.02773101814091205600 -0.00623084930703043940 0.00038815499283373356 0.00195274478755891320 0.00808241032063961030 -0.02324560657143592800 0.02046175301074981700 -0.04854917898774147000 0.00333908665925264360 -0.01095424965023994400 -0.03402007371187210100 -0.00000011030358848529 -0.01696864888072013900 0.01368157938122749300 -0.04018419608473777800 -0.01700765267014503500 -0.00963532179594039920 -0.04214083030819892900 -0.02298956178128719300 -0.03034593909978866600 0.00725536514073610310 -0.01552698574960231800 -0.00244613946415483950 -0.00487355003133416180 -0.06095750257372856100 -0.03881904110312461900 0.00038255978142842650 -0.00389939011074602600 -0.01096249930560588800 -0.02322620712220668800 -0.00406407378613948820 -0.01514065824449062300 -0.01189511176198720900 0.00255421339534223080 -0.00474694278091192250 -0.00541257159784436230 0.01651204004883766200 0.00130888598505407570 0.00670048408210277560 -0.02709731087088584900 -0.00190265255514532330 -0.00017117182142101228 -0.01224800106137991000 -0.00000005876357178636 -0.00894638430327177050 -0.00643752235919237140 -0.02422440052032470700 -0.00592255964875221250 -0.01587047986686229700 -0.01895522139966487900 -0.00364723405800759790 -0.01858269236981868700 0.00109524349682033060 -0.00736015196889638900 -0.00524096004664897920 -0.02652883343398571000 -0.02978309802711010000 -0.00967886112630367280 -0.01098237838596105600 0.00035468250280246139 -0.00638909405097365380 -0.04019276052713394200 0.01028106268495321300 -0.00931832380592823030 -0.00605232128873467450 -0.00098447641357779503 -0.00366033264435827730 -0.01260130386799573900 -0.00507865520194172860 -0.00000438391225543455 0.00262505537830293180 -0.00904313568025827410 -0.01780483871698379500 0.00651407334953546520 -0.00764155620709061620 -0.00000001603053689792 0.00183104327879846100 -0.00525212334468960760 0.00273257773369550700 -0.00485779158771038060 -0.01568395458161830900 -0.01249663345515728000 -0.00172668986488133670 -0.02100902982056140900 0.01365866512060165400 -0.01130124274641275400 -0.00902477372437715530 -0.02092980220913887000 -0.02128194458782672900 -0.02055672928690910300 -0.00683556543663144110 0.00201974855735898020 -0.00693083880469203000 -0.03636521100997924800 0.01081453356891870500 -0.01342799328267574300 0.00033515834365971386 0.00325198075734078880 0.00514156371355056760 -0.02006962522864341700 -0.02949282526969909700 -0.01461835950613021900 0.01350629795342683800 0.00711177429184317590 -0.01134668383747339200 0.01020474918186664600 -0.01042314618825912500 -0.00000000909624020551 -0.00067691213916987181 -0.00150018895510584120 0.00356737407855689530 0.00287450593896210190 -0.00726123154163360600 -0.00542624527588486670 -0.01180300582200288800 -0.01647797413170337700 -0.00029852348961867392 -0.01307013258337974500 -0.01095212064683437300 -0.01796184480190277100 -0.01929430291056633000 -0.03467368707060813900 0.00648863660171628000 0.00142460037022829060 -0.00439204275608062740 -0.02301761694252491000 0.00339305656962096690 -0.02215014025568962100 -0.00423958711326122280 -0.00285317841917276380 -0.00262827705591917040 -0.00118679529987275600 -0.04115724936127662700 -0.02705055661499500300 -0.00305252685211598870 0.00835611484944820400 -0.01829797215759754200 0.01070300955325365100 -0.02270641922950744600 -0.00000002089654138615 -0.00353009277023375030 0.00916860811412334440 -0.01717860251665115400 -0.00498671410605311390 0.00277951848693192010 -0.01105733495205640800 -0.02401492372155189500 -0.01642117463052272800 -0.03524859994649887100 -0.03253316134214401200 -0.00805312860757112500 0.01738988421857357000 -0.03116257116198539700 -0.04044571891427040100 0.00356152979657053950 -0.00316207483410835270 -0.02106969617307186100 -0.03861563652753830000 -0.00565863866358995440 